{"learner":{"attributes":{"scikit_learn":"{\"_estimator_type\": \"classifier\"}"},"feature_names":["sma_20 ","rsi_14 ","bb_percent ","Close_Open "],"feature_types":["float","float","float","float"],"gradient_booster":{"model":{"gbtree_model_param":{"num_parallel_tree":"1","num_trees":"100"},"iteration_indptr":[0,1,2,3,4,5,6,7,8,9,10,11,12,13,14,15,16,17,18,19,20,21,22,23,24,25,26,27,28,29,30,31,32,33,34,35,36,37,38,39,40,41,42,43,44,45,46,47,48,49,50,51,52,53,54,55,56,57,58,59,60,61,62,63,64,65,66,67,68,69,70,71,72,73,74,75,76,77,78,79,80,81,82,83,84,85,86,87,88,89,90,91,92,93,94,95,96,97,98,99,100],"tree_info":[0,0,0,0,0,0,0,0,0,0,0,0,0,0,0,0,0,0,0,0,0,0,0,0,0,0,0,0,0,0,0,0,0,0,0,0,0,0,0,0,0,0,0,0,0,0,0,0,0,0,0,0,0,0,0,0,0,0,0,0,0,0,0,0,0,0,0,0,0,0,0,0,0,0,0,0,0,0,0,0,0,0,0,0,0,0,0,0,0,0,0,0,0,0,0,0,0,0,0,0],"trees":[{"base_weights":[-1.9902425E-8,-1.4261615E0,3.2499197E-1,-6.6551316E-1,-4.9780408E-1,4.5528126E-1,-4.5571935E-1,-6.276209E-2,-2.6134932E-1,4.141646E-1,1.6970369E-1,-7.705058E-1,4.2054E-1,9.308577E-2,-4.9661303E-1,-4.734421E-1,6.544932E-1,-2.3338726E-1,3.036875E-1,2.8081948E-1,-3.3311418E-1,5.5751562E-2,2.962992E-1],"categories":[],"categories_nodes":[],"categories_segments":[],"categories_sizes":[],"default_left":[0,0,0,0,0,0,0,0,0,0,0,0,0,0,0,0,0,0,0,0,0,0,0],"id":0,"left_children":[1,3,5,7,-1,9,-1,-1,-1,-1,11,13,15,17,-1,19,21,-1,-1,-1,-1,-1,-1],"loss_changes":[2.128474E1,4.073639E-1,9.677354E0,1.6207635E-1,0E0,9.199274E0,0E0,0E0,0E0,0E0,7.0268755E0,4.9978914E0,5.137603E0,4.114028E0,0E0,5.8586116E0,2.7385988E0,0E0,0E0,0E0,0E0,0E0,0E0],"parents":[2147483647,0,0,1,1,2,2,3,3,5,5,10,10,11,11,12,12,13,13,15,15,16,16],"right_children":[2,4,6,8,-1,10,-1,-1,-1,-1,12,14,16,18,-1,20,22,-1,-1,-1,-1,-1,-1],"split_conditions":[-2E0,-3.9700012E0,2.450395E2,2.18259E2,-4.9780408E-1,4.422043E1,-4.5571935E-1,-6.276209E-2,-2.6134932E-1,4.141646E-1,4.834201E-1,4.6959557E1,-9.00116E-2,4.5668625E1,-4.9661303E-1,6.3048315E-1,2.24391E2,-2.3338726E-1,3.036875E-1,2.8081948E-1,-3.3311418E-1,5.5751562E-2,2.962992E-1],"split_indices":[3,3,0,0,0,1,0,0,0,0,2,1,3,1,0,2,0,0,0,0,0,0,0],"split_type":[0,0,0,0,0,0,0,0,0,0,0,0,0,0,0,0,0,0,0,0,0,0,0],"sum_hessian":[4.3922653E1,7.522664E0,3.6399986E1,2.6693325E0,4.8533316E0,3.470132E1,1.6986661E0,1.4559995E0,1.2133329E0,7.279998E0,2.7421324E1,5.338665E0,2.2082659E1,3.1546657E0,2.1839993E0,4.3679986E0,1.771466E1,1.6986661E0,1.4559995E0,1.2133329E0,3.1546657E0,8.0079975E0,9.706663E0],"tree_param":{"num_deleted":"0","num_feature":"4","num_nodes":"23","size_leaf_vector":"1"}},{"base_weights":[-1.3763807E-2,-7.9877865E-1,3.407372E-1,1.623699E-1,-9.9149096E-1,4.351995E-1,-3.15584E-1,6.5878024E-3,-1.14919E0,3.693896E-1,2.1382266E-1,-1.2434458E0,-7.1212016E-2,-5.014307E-1,4.638585E-1,-4.1639134E-1,-6.2051266E-1,5.9055235E-2,-8.214413E-1,-1.0470421E-1,6.719308E-1,-3.5927194E-1,5.1735666E-2,-3.3532727E-1,-1.2234833E-1,-1.3783406E-1,1.7272116E-1,6.4048464E-3,2.419379E-1],"categories":[],"categories_nodes":[],"categories_segments":[],"categories_sizes":[],"default_left":[0,0,0,0,0,0,0,0,0,0,0,0,0,0,0,0,0,0,0,0,0,0,0,0,0,0,0,0,0],"id":1,"left_children":[1,3,5,-1,7,9,-1,-1,11,-1,13,15,-1,17,19,-1,21,-1,23,25,27,-1,-1,-1,-1,-1,-1,-1,-1],"loss_changes":[1.2413223E1,4.1187487E0,4.503958E0,0E0,2.0198698E0,4.9374743E0,0E0,0E0,6.346407E-1,0E0,4.5782743E0,2.5749207E-4,0E0,1.6755675E0,2.2618625E0,0E0,1.8586794E0,0E0,1.3721848E-1,1.6713465E0,1.1815219E0,0E0,0E0,0E0,0E0,0E0,0E0,0E0,0E0],"parents":[2147483647,0,0,1,1,2,2,4,4,5,5,8,8,10,10,11,11,13,13,14,14,16,16,18,18,19,19,20,20],"right_children":[2,4,6,-1,8,10,-1,-1,12,-1,14,16,-1,18,20,-1,22,-1,24,26,28,-1,-1,-1,-1,-1,-1,-1,-1],"split_conditions":[-4.7000122E-1,3.185842E1,2.450395E2,1.623699E-1,2.03202E2,4.422043E1,-3.15584E-1,6.5878024E-3,5.7334755E1,3.693896E-1,4.962104E1,-1.780014E0,-7.1212016E-2,2.057655E2,2.068165E2,-4.1639134E-1,2.246825E2,5.9055235E-2,6.9000244E-1,5.601061E1,2.400055E-1,-3.5927194E-1,5.1735666E-2,-3.3532727E-1,-1.2234833E-1,-1.3783406E-1,1.7272116E-1,6.4048464E-3,2.419379E-1],"split_indices":[3,1,0,0,0,1,0,0,1,0,1,3,0,0,0,0,0,0,3,1,3,0,0,0,0,0,0,0,0],"split_type":[0,0,0,0,0,0,0,0,0,0,0,0,0,0,0,0,0,0,0,0,0,0,0,0,0,0,0,0,0],"sum_hessian":[4.2627556E1,1.2871461E1,2.9756094E1,1.3909663E0,1.14804945E1,2.8509851E1,1.2462423E0,1.6617885E0,9.818706E0,5.2104416E0,2.329941E1,8.569194E0,1.249512E0,5.7747383E0,1.7524672E1,5.958625E0,2.610569E0,1.935729E0,3.8390093E0,4.828223E0,1.2696449E1,1.2156575E0,1.3949116E0,1.2448026E0,2.5942068E0,3.3871443E0,1.4410791E0,2.3740835E0,1.0322366E1],"tree_param":{"num_deleted":"0","num_feature":"4","num_nodes":"29","size_leaf_vector":"1"}},{"base_weights":[-2.205348E-2,-6.2552977E-1,2.5796917E-1,1.379561E-1,-7.825937E-1,3.7696564E-1,-6.104071E-1,5.3570485E-3,-9.111516E-1,3.238565E-1,1.845825E-1,-3.9448094E-1,1.4071526E-1,-2.958786E-1,-5.9354585E-2,-3.5728073E-1,3.9074412E-1,9.39228E-2,-2.8156427E-1,6.2316008E-2,7.445612E-1,-9.5807455E-2,1.7951958E-1,8.563674E-2,-2.1659717E-1,3.1752187E-1,1.006187E-1],"categories":[],"categories_nodes":[],"categories_segments":[],"categories_sizes":[],"default_left":[0,0,0,0,0,0,0,0,0,0,0,0,0,0,0,0,0,0,0,0,0,0,0,0,0,0,0],"id":2,"left_children":[1,3,5,-1,7,9,11,-1,13,-1,15,-1,-1,-1,-1,17,19,21,-1,23,25,-1,-1,-1,-1,-1,-1],"loss_changes":[7.1880717E0,2.656355E0,3.238172E0,0E0,1.265348E0,3.344652E0,3.5752335E0,0E0,3.6623E-1,0E0,2.5737865E0,0E0,0E0,0E0,0E0,1.8002049E0,1.8433104E0,1.1468469E0,0E0,1.8730596E0,6.385727E-1,0E0,0E0,0E0,0E0,0E0,0E0],"parents":[2147483647,0,0,1,1,2,2,4,4,5,5,6,6,8,8,10,10,15,15,16,16,17,17,19,19,20,20],"right_children":[2,4,6,-1,8,10,12,-1,14,-1,16,-1,-1,-1,-1,18,20,22,-1,24,26,-1,-1,-1,-1,-1,-1],"split_conditions":[-4.7000122E-1,3.185842E1,2.369785E2,1.379561E-1,2.03202E2,4.422043E1,6.2924404E1,5.3570485E-3,5.7334755E1,3.238565E-1,4.962104E1,-3.9448094E-1,1.4071526E-1,-2.958786E-1,-5.9354585E-2,4.8092903E1,2.24391E2,4.6856144E1,-2.8156427E-1,2.208625E2,2.285825E2,-9.5807455E-2,1.7951958E-1,8.563674E-2,-2.1659717E-1,3.1752187E-1,1.006187E-1],"split_indices":[3,1,0,0,0,1,1,0,1,0,1,0,0,0,0,1,0,1,0,0,0,0,0,0,0,0,0],"split_type":[0,0,0,0,0,0,0,0,0,0,0,0,0,0,0,0,0,0,0,0,0,0,0,0,0,0,0],"sum_hessian":[4.058132E1,1.2471076E1,2.8110247E1,1.3328263E0,1.1138249E1,2.5220144E1,2.8901033E0,1.6604917E0,9.477757E0,4.430236E0,2.0789907E1,1.6167529E0,1.2733505E0,8.228621E0,1.2491374E0,5.52784E0,1.5262068E1,3.5841165E0,1.9437238E0,8.5249605E0,6.7371078E0,2.1718364E0,1.4122801E0,7.1319265E0,1.3930342E0,2.91469E0,3.8224175E0],"tree_param":{"num_deleted":"0","num_feature":"4","num_nodes":"27","size_leaf_vector":"1"}},{"base_weights":[-1.4211508E-2,9.5164694E-2,-3.331731E-1,-5.695243E-1,2.49116E-1,-4.1305147E-2,-2.8941613E-1,9.0604496E-1,9.265328E-2,-1.3271545E-1,1.6140106E-1,3.0341744E-1,6.264181E-2,-5.1190136E-3,2.686716E-1,1.719328E-1,-8.7077487E-1,-2.3062889E-2,3.0995247E-1,-3.4404802E-1,-3.1088775E-2],"categories":[],"categories_nodes":[],"categories_segments":[],"categories_sizes":[],"default_left":[0,0,0,0,0,0,0,0,0,0,0,0,0,0,0,0,0,0,0,0,0],"id":3,"left_children":[1,3,-1,5,7,9,-1,11,13,-1,-1,-1,-1,15,-1,17,19,-1,-1,-1,-1],"loss_changes":[4.837469E0,3.9076805E0,0E0,1.4683595E0,3.058775E0,1.1991868E0,0E0,2.1245384E-1,2.0306063E0,0E0,0E0,0E0,0E0,3.828238E0,0E0,4.528124E0,7.7912164E-1,0E0,0E0,0E0,0E0],"parents":[2147483647,0,0,1,1,3,3,4,4,5,5,7,7,8,8,13,13,15,15,16,16],"right_children":[2,4,-1,6,8,10,-1,12,14,-1,-1,-1,-1,16,-1,18,20,-1,-1,-1,-1],"split_conditions":[2.450395E2,-1.780014E0,-3.331731E-1,3.1562147E-1,4.422043E1,1.9002953E-1,-2.8941613E-1,3.4395155E-1,7.256975E1,-1.3271545E-1,1.6140106E-1,3.0341744E-1,6.264181E-2,6.116571E1,2.686716E-1,5.7358555E1,1.0141692E0,-2.3062889E-2,3.0995247E-1,-3.4404802E-1,-3.1088775E-2],"split_indices":[0,3,0,2,1,2,0,2,1,0,0,0,0,1,0,1,2,0,0,0,0],"split_type":[0,0,0,0,0,0,0,0,0,0,0,0,0,0,0,0,0,0,0,0,0],"sum_hessian":[3.8459034E1,3.580067E1,2.6583655E0,6.2249403E0,2.957573E1,3.136805E0,3.088135E0,4.767588E0,2.4808142E1,1.993192E0,1.1436131E0,3.7503743E0,1.017214E0,2.3000917E1,1.8072226E0,1.976067E1,3.240248E0,1.6038076E1,3.722593E0,2.0188513E0,1.2213967E0],"tree_param":{"num_deleted":"0","num_feature":"4","num_nodes":"21","size_leaf_vector":"1"}},{"base_weights":[-8.786178E-3,-2.6061636E-1,3.7423623E-1,-4.5504487E-1,4.1106477E-1,9.045815E-1,2.4441868E-2,1.3085721E-1,-6.625095E-1,-1.5441369E-1,2.3015809E-1,2.9962263E-1,8.056331E-2,-2.2248015E-1,2.204592E-1,2.2030872E-1,-1.9878623E-1,4.840392E-2,-8.0683005E-1,-1.06081285E-1,2.2318076E-1,-1.3063714E-1,1.4616753E-1,-3.795246E-1,-2.3324E-1,2.6794928E-1,-2.880185E-1,1.29842E-1,-2.1989387E-1,2.6162893E-1,-5.928657E-2],"categories":[],"categories_nodes":[],"categories_segments":[],"categories_sizes":[],"default_left":[0,0,0,0,0,0,0,0,0,0,0,0,0,0,0,0,0,0,0,0,0,0,0,0,0,0,0,0,0,0,0],"id":4,"left_children":[1,3,5,7,9,11,13,15,17,-1,-1,-1,-1,-1,19,-1,-1,21,23,25,-1,-1,-1,-1,27,29,-1,-1,-1,-1,-1],"loss_changes":[3.7382734E0,3.2379751E0,2.831611E0,2.3466403E0,2.2971575E0,9.627533E-2,1.709676E0,3.214659E0,1.4646974E0,0E0,0E0,0E0,0E0,0E0,1.6122017E0,0E0,0E0,9.1034853E-1,2.7558217E0,2.3012645E0,0E0,0E0,0E0,0E0,2.4411004E0,1.6439563E0,0E0,0E0,0E0,0E0,0E0],"parents":[2147483647,0,0,1,1,2,2,3,3,4,4,5,5,6,6,7,7,8,8,14,14,17,17,18,18,19,19,24,24,25,25],"right_children":[2,4,6,8,10,12,14,16,18,-1,-1,-1,-1,-1,20,-1,-1,22,24,26,-1,-1,-1,-1,28,30,-1,-1,-1,-1,-1],"split_conditions":[9.4000244E-1,7.989727E-1,1.9700012E0,4.337031E1,-2.7000427E-1,5.481403E1,2.2400055E0,2.34605E2,2.03202E2,-1.5441369E-1,2.3015809E-1,2.9962263E-1,8.056331E-2,-2.2248015E-1,5.492242E1,2.2030872E-1,-1.9878623E-1,4.90598E1,2.24391E2,5.245305E1,2.2318076E-1,-1.3063714E-1,1.4616753E-1,-3.795246E-1,2.298885E2,2.201805E2,-2.880185E-1,1.29842E-1,-2.1989387E-1,2.6162893E-1,-5.928657E-2],"split_indices":[3,2,3,1,3,1,3,0,0,0,0,0,0,0,1,0,0,1,0,1,0,0,0,0,0,0,0,0,0,0,0],"split_type":[0,0,0,0,0,0,0,0,0,0,0,0,0,0,0,0,0,0,0,0,0,0,0,0,0,0,0,0,0,0,0],"sum_hessian":[3.674486E1,2.2361902E1,1.438296E1,1.7592121E1,4.7697825E0,5.085888E0,9.297072E0,4.6968827E0,1.2895238E1,1.2013936E0,3.5683887E0,3.93333E0,1.1525577E0,1.327157E0,7.9699154E0,2.7101173E0,1.9867651E0,2.2882211E0,1.0607017E1,5.3992558E0,2.5706599E0,1.0919077E0,1.1963133E0,5.226176E0,5.380841E0,4.231957E0,1.1672988E0,2.3640285E0,3.0168123E0,1.4618351E0,2.7701218E0],"tree_param":{"num_deleted":"0","num_feature":"4","num_nodes":"31","size_leaf_vector":"1"}},{"base_weights":[-5.4850574E-3,8.033987E-2,-2.749642E-1,-5.0754446E-1,1.7235267E-1,-2.8843742E-3,-2.6216704E-1,7.5037104E-1,4.5484815E-2,7.757728E-2,2.592347E-1,-2.0991564E-1,1.1157761E-1,6.224923E-1,-1.2723213E-2,2.7020702E-1,7.525794E-2,-1.1147422E-1,8.648454E-2],"categories":[],"categories_nodes":[],"categories_segments":[],"categories_sizes":[],"default_left":[0,0,0,0,0,0,0,0,0,0,0,0,0,0,0,0,0,0,0],"id":5,"left_children":[1,3,-1,5,7,-1,-1,9,11,-1,-1,-1,13,15,17,-1,-1,-1,-1],"loss_changes":[2.86289E0,1.9006834E0,0E0,8.653462E-1,2.1460528E0,0E0,0E0,7.225728E-2,1.3312507E0,0E0,0E0,0E0,1.546924E0,2.6639628E-1,2.3184016E0,0E0,0E0,0E0,0E0],"parents":[2147483647,0,0,1,1,3,3,4,4,7,7,8,8,12,12,13,13,14,14],"right_children":[2,4,-1,6,8,-1,-1,10,12,-1,-1,-1,14,16,18,-1,-1,-1,-1],"split_conditions":[2.450395E2,-2.9199982E0,-2.749642E-1,-3.9700012E0,4.422043E1,-2.8843742E-3,-2.6216704E-1,-7.700043E-1,2.003555E2,7.757728E-2,2.592347E-1,-2.0991564E-1,2.037305E2,1.1999512E-1,2.2469E2,2.7020702E-1,7.525794E-2,-1.1147422E-1,8.648454E-2],"split_indices":[0,3,0,3,1,0,0,3,0,0,0,0,0,3,0,0,0,0,0],"split_type":[0,0,0,0,0,0,0,0,0,0,0,0,0,0,0,0,0,0,0],"sum_hessian":[3.4671936E1,3.2520245E1,2.151692E0,3.7899075E0,2.8730337E1,2.0414512E0,1.7484562E0,4.2864413E0,2.4443897E1,1.4200827E0,2.8663585E0,1.210334E0,2.3233562E1,3.7621236E0,1.947144E1,1.3373802E0,2.4247434E0,8.775199E0,1.069624E1],"tree_param":{"num_deleted":"0","num_feature":"4","num_nodes":"19","size_leaf_vector":"1"}},{"base_weights":[-5.9766793E-3,6.597888E-2,-2.4609534E-1,-5.9943944E-3,6.95454E-1,1.08659126E-1,-2.811977E-1,2.5719196E-1,4.9889494E-2,-2.8091917E-2,2.6574174E-1,-2.9871956E-1,3.7956405E-1,-1.4199562E-2,-2.875396E-1,2.5643867E-1,-3.7169334E-2],"categories":[],"categories_nodes":[],"categories_segments":[],"categories_sizes":[],"default_left":[0,0,0,0,0,0,0,0,0,0,0,0,0,0,0,0,0],"id":6,"left_children":[1,3,-1,5,7,9,-1,-1,-1,11,-1,13,15,-1,-1,-1,-1],"loss_changes":[2.0577645E0,1.469499E0,0E0,3.3069916E0,1.4238966E-1,2.960446E0,0E0,0E0,0E0,2.8116817E0,0E0,2.4854078E0,2.546117E0,0E0,0E0,0E0,0E0],"parents":[2147483647,0,0,1,1,3,3,4,4,5,5,9,9,11,11,12,12],"right_children":[2,4,-1,6,8,10,-1,-1,-1,12,-1,14,16,-1,-1,-1,-1],"split_conditions":[2.450395E2,6.489674E1,-2.4609534E-1,6.116571E1,9.2880595E-1,5.7358555E1,-2.811977E-1,2.5719196E-1,4.9889494E-2,9.4000244E-1,2.6574174E-1,1.6999817E-1,2.5200043E0,-1.4199562E-2,-2.875396E-1,2.5643867E-1,-3.7169334E-2],"split_indices":[0,1,0,1,2,1,0,0,0,3,0,3,3,0,0,0,0],"split_type":[0,0,0,0,0,0,0,0,0,0,0,0,0,0,0,0,0],"sum_hessian":[3.319394E1,3.1343401E1,1.8505387E0,2.9016207E1,2.3271942E0,2.6622158E1,2.3940487E0,1.3072164E0,1.0199777E0,2.345818E1,3.1639793E0,1.4259232E1,9.198948E0,1.1101059E1,3.1581733E0,4.3731627E0,4.8257847E0],"tree_param":{"num_deleted":"0","num_feature":"4","num_nodes":"17","size_leaf_vector":"1"}},{"base_weights":[-2.3772696E-3,-4.4129348E-1,1.02433085E-1,-1.5597087E-1,-6.642699E-1,1.8177192E-1,2.193963E-2,-1.942575E-1,1.3478744E-1,-2.377208E-1,-5.7719532E-2,-2.7535468E-1,1.4591075E-1,8.418003E-2,-2.9115078E-1,6.424625E-1,-1.098676E-1,4.3968058E-1,-2.981156E-1,7.70059E-1,9.077663E-3,-7.102811E-1,1.7248805E-1,-6.2150497E-2,2.3830716E-1,-2.0536828E-1,9.4300956E-2,2.4218248E-2,2.750128E-1,-3.1170905E-1,-3.771563E-2,1.9140096E-1,-9.1842264E-2],"categories":[],"categories_nodes":[],"categories_segments":[],"categories_sizes":[],"default_left":[0,0,0,0,0,0,0,0,0,0,0,0,0,0,0,0,0,0,0,0,0,0,0,0,0,0,0,0,0,0,0,0,0],"id":7,"left_children":[1,3,5,7,9,-1,11,-1,-1,-1,-1,13,15,17,-1,19,21,23,25,27,-1,29,31,-1,-1,-1,-1,-1,-1,-1,-1,-1,-1],"loss_changes":[1.5617746E0,3.126713E-1,1.0980856E0,1.5337108E0,5.1059842E-2,0E0,9.4982404E-1,0E0,0E0,0E0,0E0,1.9835635E0,2.3658042E0,9.377776E-1,0E0,4.6804547E-1,2.2893693E0,9.62888E-1,1.0331488E0,4.4805503E-1,0E0,6.925709E-1,2.3115444E0,0E0,0E0,0E0,0E0,0E0,0E0,0E0,0E0,0E0,0E0],"parents":[2147483647,0,0,1,1,2,2,3,3,4,4,6,6,11,11,12,12,13,13,15,15,16,16,17,17,18,18,19,19,21,21,22,22],"right_children":[2,4,6,8,10,-1,12,-1,-1,-1,-1,14,16,18,-1,20,22,24,26,28,-1,30,32,-1,-1,-1,-1,-1,-1,-1,-1,-1,-1],"split_conditions":[-2E0,2.24735E2,4.337031E1,2.07057E2,2.391575E2,1.8177192E-1,4.9039764E1,-1.942575E-1,1.3478744E-1,-2.377208E-1,-5.7719532E-2,4.8092903E1,5.326732E1,3.857226E-1,-2.9115078E-1,6.4874613E-1,7.8480536E-1,2.9150295E-1,4.6856144E1,5.285102E-1,9.077663E-3,5.900116E-1,6.116571E1,-6.2150497E-2,2.3830716E-1,-2.0536828E-1,9.4300956E-2,2.4218248E-2,2.750128E-1,-3.1170905E-1,-3.771563E-2,1.9140096E-1,-9.1842264E-2],"split_indices":[3,0,1,0,0,0,1,0,0,0,0,1,1,2,0,2,2,2,1,2,0,3,1,0,0,0,0,0,0,0,0,0,0],"split_type":[0,0,0,0,0,0,0,0,0,0,0,0,0,0,0,0,0,0,0,0,0,0,0,0,0,0,0,0,0,0,0,0,0],"sum_hessian":[3.1966822E1,5.5431733E0,2.6423649E1,3.177154E0,2.3660195E0,2.742481E0,2.3681168E1,1.7147346E0,1.4624195E0,1.326534E0,1.0394853E0,6.609603E0,1.7071564E1,4.9357214E0,1.6738818E0,5.290035E0,1.1781529E1,2.479709E0,2.4560122E0,4.164264E0,1.1257707E0,3.2835946E0,8.497934E0,1.0254387E0,1.4542701E0,1.4336619E0,1.0223504E0,1.002496E0,3.1617682E0,1.604051E0,1.6795436E0,4.1391807E0,4.358754E0],"tree_param":{"num_deleted":"0","num_feature":"4","num_nodes":"33","size_leaf_vector":"1"}},{"base_weights":[-1.1609085E-2,5.027747E-2,-2.2004707E-1,-2.2624798E-2,6.5596914E-1,6.546251E-2,-2.0007576E-1,2.3825379E-1,5.5685278E-2,-5.525544E-1,1.7757918E-1,-1.57306E-2,-2.441632E-1,5.764485E-1,3.579629E-2,2.1062326E-1,-1.5343259E-3,-3.8013287E-2,2.1210493E-1],"categories":[],"categories_nodes":[],"categories_segments":[],"categories_sizes":[],"default_left":[0,0,0,0,0,0,0,0,0,0,0,0,0,0,0,0,0,0,0],"id":8,"left_children":[1,3,-1,5,7,9,-1,-1,-1,11,13,-1,-1,15,17,-1,-1,-1,-1],"loss_changes":[1.443275E0,1.3364801E0,0E0,1.6147305E0,6.378615E-2,1.8486108E0,0E0,0E0,0E0,4.9610972E-1,1.2314832E0,0E0,0E0,4.2296612E-1,1.9876142E0,0E0,0E0,0E0,0E0],"parents":[2147483647,0,0,1,1,3,3,4,4,5,5,9,9,10,10,13,13,14,14],"right_children":[2,4,-1,6,8,10,-1,-1,-1,12,14,-1,-1,16,18,-1,-1,-1,-1],"split_conditions":[2.450395E2,6.489674E1,-2.2004707E-1,6.116571E1,9.2880595E-1,-2.9199982E0,-2.0007576E-1,2.3825379E-1,5.5685278E-2,4.1859283E1,4.5454742E1,-1.57306E-2,-2.441632E-1,3.295818E-1,5.7358555E1,2.1062326E-1,-1.5343259E-3,-3.8013287E-2,2.1210493E-1],"split_indices":[0,1,0,1,2,3,0,0,0,1,1,0,0,2,1,0,0,0,0],"split_type":[0,0,0,0,0,0,0,0,0,0,0,0,0,0,0,0,0,0,0],"sum_hessian":[3.048081E1,2.8930925E1,1.5498836E0,2.6682064E1,2.2488608E0,2.4263218E1,2.418847E0,1.2060034E0,1.0428574E0,3.1225429E0,2.1140675E1,1.4836982E0,1.6388446E0,4.7400537E0,1.6400621E1,3.7275946E0,1.012459E0,1.3856972E1,2.54365E0],"tree_param":{"num_deleted":"0","num_feature":"4","num_nodes":"19","size_leaf_vector":"1"}},{"base_weights":[-7.7121407E-3,4.5528628E-2,-1.9995777E-1,-1.877015E-1,1.0434526E-1,1.889868E-1,3.708203E-2,-1.5621687E-1,2.3812987E-1,-4.1811618E-1,4.4104075E-1,7.464669E-1,-1.0226262E-2,1.1665639E-1,-1.8757167E-1,2.0987031E-1,-7.7734534E-3,4.0826052E-2,2.7159548E-1,-7.859908E-2,2.4216752E-1],"categories":[],"categories_nodes":[],"categories_segments":[],"categories_sizes":[],"default_left":[0,0,0,0,0,0,0,0,0,0,0,0,0,0,0,0,0,0,0,0,0],"id":9,"left_children":[1,3,-1,-1,5,-1,7,9,11,13,15,17,19,-1,-1,-1,-1,-1,-1,-1,-1],"loss_changes":[1.0938345E0,1.209698E0,0E0,0E0,9.4924533E-1,0E0,1.026312E0,2.308572E0,1.6326962E0,1.9067831E0,5.766027E-1,2.8773665E-1,2.1942015E0,0E0,0E0,0E0,0E0,0E0,0E0,0E0,0E0],"parents":[2147483647,0,0,1,1,4,4,6,6,7,7,8,8,9,9,10,10,11,11,12,12],"right_children":[2,4,-1,-1,6,-1,8,10,12,14,16,18,20,-1,-1,-1,-1,-1,-1,-1,-1],"split_conditions":[2.450395E2,2.003555E2,-1.9995777E-1,-1.877015E-1,2.01897E2,1.889868E-1,2.2469E2,1.4199982E0,2.285825E2,4.337031E1,2.5200043E0,5.1810883E1,6.465026E1,1.1665639E-1,-1.8757167E-1,2.0987031E-1,-7.7734534E-3,4.0826052E-2,2.7159548E-1,-7.859908E-2,2.4216752E-1],"split_indices":[0,0,0,0,0,0,0,3,0,1,3,1,1,0,0,0,0,0,0,0,0],"split_type":[0,0,0,0,0,0,0,0,0,0,0,0,0,0,0,0,0,0,0,0,0],"sum_hessian":[2.9319763E1,2.7988794E1,1.3309677E0,1.4785298E0,2.6510265E1,2.0585713E0,2.4451694E1,1.2579769E1,1.1871924E1,8.95355E0,3.6262193E0,3.2382407E0,8.633684E0,1.6495042E0,7.3040457E0,2.013367E0,1.6128522E0,1.0521375E0,2.1861033E0,7.1201963E0,1.5134875E0],"tree_param":{"num_deleted":"0","num_feature":"4","num_nodes":"21","size_leaf_vector":"1"}},{"base_weights":[1.0866077E-2,9.351286E-2,-3.8955352E-1,-6.464048E-2,3.6268115E-1,-1.8321434E-1,6.640634E-2,1.2056291E-1,-5.199507E-1,5.4722536E-1,-4.8157264E-2,-1.5597346E-1,2.5107825E-1,-2.0985772E-1,-1.9599222E-2,2.0175138E-1,2.5843814E-1,-1.417941E-1,1.2447199E-1,-5.151782E-2,3.6256278E-1,1.6989687E-1,-8.276644E-2,1.3661857E-1,-3.9620284E-2],"categories":[],"categories_nodes":[],"categories_segments":[],"categories_sizes":[],"default_left":[0,0,0,0,0,0,0,0,0,0,0,0,0,0,0,0,0,0,0,0,0,0,0,0,0],"id":10,"left_children":[1,3,5,7,9,-1,-1,11,13,15,17,-1,19,-1,-1,21,-1,-1,-1,-1,23,-1,-1,-1,-1],"loss_changes":[9.985526E-1,1.0836627E0,8.333762E-1,1.4571306E0,7.366787E-1,0E0,0E0,1.1810191E0,3.600211E-1,5.3680813E-1,9.475901E-1,0E0,5.8612305E-1,0E0,0E0,9.2656153E-1,0E0,0E0,0E0,0E0,4.7873867E-1,0E0,0E0,0E0,0E0],"parents":[2147483647,0,0,1,1,2,2,3,3,4,4,7,7,8,8,9,9,10,10,12,12,15,15,20,20],"right_children":[2,4,6,8,10,-1,-1,12,14,16,18,-1,20,-1,-1,22,-1,-1,-1,-1,24,-1,-1,-1,-1],"split_conditions":[2.369785E2,2.2469E2,6.2870304E1,2.208625E2,1.9700012E0,-1.8321434E-1,6.640634E-2,2.003555E2,1.2599945E0,5.900116E-1,3.0499878E0,-1.5597346E-1,2.9150295E-1,-2.0985772E-1,-1.9599222E-2,2.296765E2,2.5843814E-1,-1.417941E-1,1.2447199E-1,-5.151782E-2,8.545991E-1,1.6989687E-1,-8.276644E-2,1.3661857E-1,-3.9620284E-2],"split_indices":[0,0,1,0,3,0,0,0,3,3,3,0,2,0,0,0,0,0,0,0,2,0,0,0,0],"split_type":[0,0,0,0,0,0,0,0,0,0,0,0,0,0,0,0,0,0,0,0,0,0,0,0,0],"sum_hessian":[2.8073008E1,2.3905386E1,4.1676197E0,1.5536541E1,8.368846E0,3.060114E0,1.1075059E0,1.1566801E1,3.9697404E0,5.545772E0,2.8230736E0,1.4530008E0,1.01138E1,2.4595234E0,1.5102168E0,3.423725E0,2.1220472E0,1.4620868E0,1.360987E0,1.9975911E0,8.116209E0,1.8363842E0,1.5873407E0,6.9004517E0,1.2157574E0],"tree_param":{"num_deleted":"0","num_feature":"4","num_nodes":"25","size_leaf_vector":"1"}},{"base_weights":[4.445464E-3,4.706912E-2,-1.7055796E-1,4.1384655E-1,-2.8245766E-2,-5.579972E-2,2.0863342E-1,-2.9386738E-1,1.2587537E-1,-1.9897964E-2,-6.417805E-1,4.8437703E-1,-6.417853E-2,2.9456687E-1,-4.2739052E-1,-2.7431768E-1,8.190084E-3,1.8600374E-1,2.0798774E-1,-4.7112486E-1,2.1647434E-1,-9.366326E-2,2.0091707E-1,-1.5980792E-1,-3.2737337E-2,1.7224571E-1,-1.1187298E-1,-2.0272876E-1,1.8204637E-2,1.8446906E-1,-2.2908209E-2],"categories":[],"categories_nodes":[],"categories_segments":[],"categories_sizes":[],"default_left":[0,0,0,0,0,0,0,0,0,0,0,0,0,0,0,0,0,0,0,0,0,0,0,0,0,0,0,0,0,0,0],"id":11,"left_children":[1,3,-1,5,7,-1,-1,9,11,13,15,17,19,21,23,-1,-1,25,-1,27,29,-1,-1,-1,-1,-1,-1,-1,-1,-1,-1],"loss_changes":[7.1186846E-1,7.5846887E-1,0E0,9.180842E-1,9.934852E-1,0E0,0E0,8.335421E-1,1.0861956E0,8.94657E-1,7.325952E-1,2.127763E-1,1.3586986E0,1.114669E0,4.312128E-2,0E0,0E0,1.0003858E0,0E0,5.640367E-1,8.8669205E-1,0E0,0E0,0E0,0E0,0E0,0E0,0E0,0E0,0E0,0E0],"parents":[2147483647,0,0,1,1,3,3,4,4,7,7,8,8,9,9,10,10,11,11,12,12,13,13,14,14,17,17,19,19,20,20],"right_children":[2,4,-1,6,8,-1,-1,10,12,14,16,18,20,22,24,-1,-1,26,-1,28,30,-1,-1,-1,-1,-1,-1,-1,-1,-1,-1],"split_conditions":[2.450395E2,4.337031E1,-1.7055796E-1,3.5327584E-3,5.264884E-1,-5.579972E-2,2.0863342E-1,4.6959557E1,5.326732E1,3.857226E-1,4.6667397E-1,2.24391E2,5.7358555E1,3.0064747E-1,1.4400024E0,-2.7431768E-1,8.190084E-3,2.03202E2,2.0798774E-1,7.989727E-1,6.116571E1,-9.366326E-2,2.0091707E-1,-1.5980792E-1,-3.2737337E-2,1.7224571E-1,-1.1187298E-1,-2.0272876E-1,1.8204637E-2,1.8446906E-1,-2.2908209E-2],"split_indices":[0,1,0,2,2,0,0,1,1,2,2,0,1,2,3,0,0,0,0,2,1,0,0,0,0,0,0,0,0,0,0],"split_type":[0,0,0,0,0,0,0,0,0,0,0,0,0,0,0,0,0,0,0,0,0,0,0,0,0,0,0,0,0,0,0],"sum_hessian":[2.7052736E1,2.603391E1,1.0188241E0,3.669391E0,2.2364521E1,1.2807317E0,2.3886592E0,7.8788705E0,1.448565E1,4.999294E0,2.879577E0,4.4821916E0,1.0003458E1,2.9781547E0,2.0211391E0,1.7854642E0,1.0941128E0,2.6243796E0,1.8578118E0,3.806036E0,6.197422E0,1.2019341E0,1.7762206E0,1.012429E0,1.0087101E0,1.5327007E0,1.0916791E0,2.55297E0,1.2530662E0,2.1594856E0,4.0379367E0],"tree_param":{"num_deleted":"0","num_feature":"4","num_nodes":"31","size_leaf_vector":"1"}},{"base_weights":[-3.782299E-4,-3.0914643E-1,7.4265234E-2,1.0362409E-2,-5.1132035E-1,1.4082234E-1,-2.7199385E-3,-2.0073636E-1,-4.4779688E-2,-2.509363E-1,9.290532E-2,4.212339E-2,-2.1955809E-1,4.8724365E-1,-1.1066429E-1,-1.9187374E-1,1.1840836E-1,1.4484195E-1,2.1228975E-1,-5.0058067E-1,8.4439084E-2,5.105504E-2,-1.2760505E-1,9.86336E-2,-3.0824613E-2,-2.324703E-1,-2.19495E-2,1.2634712E-1,-6.710322E-2],"categories":[],"categories_nodes":[],"categories_segments":[],"categories_sizes":[],"default_left":[0,0,0,0,0,0,0,0,0,0,0,0,0,0,0,0,0,0,0,0,0,0,0,0,0,0,0,0,0],"id":12,"left_children":[1,3,5,-1,7,-1,9,-1,-1,11,13,15,-1,17,19,21,-1,23,-1,25,27,-1,-1,-1,-1,-1,-1,-1,-1],"loss_changes":[6.418738E-1,3.9438462E-1,6.8366647E-1,0E0,9.8766804E-2,0E0,4.925367E-1,0E0,0E0,8.437701E-1,1.2580991E0,4.4942674E-1,0E0,2.968732E-1,8.568895E-1,3.5941678E-1,0E0,1.854261E-1,0E0,3.7894583E-1,9.2343694E-1,0E0,0E0,0E0,0E0,0E0,0E0,0E0,0E0],"parents":[2147483647,0,0,1,1,2,2,4,4,6,6,9,9,10,10,11,11,13,13,14,14,15,15,17,17,19,19,20,20],"right_children":[2,4,6,-1,8,-1,10,-1,-1,12,14,16,-1,18,20,22,-1,24,-1,26,28,-1,-1,-1,-1,-1,-1,-1,-1],"split_conditions":[-2E0,-3.9700012E0,4.422043E1,1.0362409E-2,-2.9199982E0,1.4082234E-1,4.9039764E1,-2.0073636E-1,-4.4779688E-2,4.8092903E1,5.326732E1,4.6856144E1,-2.1955809E-1,9.4000244E-1,7.8480536E-1,2.06586E2,1.1840836E-1,1.1999512E-1,2.1228975E-1,5.900116E-1,6.116571E1,5.105504E-2,-1.2760505E-1,9.86336E-2,-3.0824613E-2,-2.324703E-1,-2.19495E-2,1.2634712E-1,-6.710322E-2],"split_indices":[3,3,1,0,3,0,1,0,0,1,1,1,0,3,2,0,0,3,0,3,1,0,0,0,0,0,0,0,0],"split_type":[0,0,0,0,0,0,0,0,0,0,0,0,0,0,0,0,0,0,0,0,0,0,0,0,0,0,0,0,0],"sum_hessian":[2.5853853E1,4.4216657E0,2.1432186E1,1.9447749E0,2.4768908E0,2.6635547E0,1.8768633E1,1.1343607E0,1.3425301E0,4.7680216E0,1.400061E1,3.529605E0,1.2384167E0,4.292341E0,9.708269E0,2.3955169E0,1.134088E0,2.3298454E0,1.9624958E0,2.7155304E0,6.992739E0,1.0454315E0,1.3500853E0,1.1486177E0,1.1812277E0,1.1588047E0,1.5567257E0,3.1659873E0,3.826752E0],"tree_param":{"num_deleted":"0","num_feature":"4","num_nodes":"29","size_leaf_vector":"1"}},{"base_weights":[-7.3794E-3,-6.6057056E-2,4.507815E-1,3.377454E-2,-5.42566E-1,1.9906771E-1,3.5525358E-3,1.4913277E-1,-5.5747032E-2,-2.0857856E-1,-6.278005E-2,-1.7033672E-1,4.1501943E-2,1.08201995E-1,-1.2987283E-1,-6.61001E-3,1.9294369E-1],"categories":[],"categories_nodes":[],"categories_segments":[],"categories_sizes":[],"default_left":[0,0,0,0,0,0,0,0,0,0,0,0,0,0,0,0,0],"id":13,"left_children":[1,3,5,7,9,-1,-1,-1,11,-1,-1,-1,13,15,-1,-1,-1],"loss_changes":[7.239766E-1,1.1487346E0,2.7788454E-1,8.8167304E-1,6.6969395E-2,0E0,0E0,0E0,9.275276E-1,0E0,0E0,0E0,5.5907947E-1,1.058679E0,0E0,0E0,0E0],"parents":[2147483647,0,0,1,1,2,2,3,3,4,4,8,8,12,12,13,13],"right_children":[2,4,6,8,10,-1,-1,-1,12,-1,-1,-1,14,16,-1,-1,-1],"split_conditions":[6.489674E1,2.360985E2,9.4961137E-1,4.337031E1,2.388855E2,1.9906771E-1,3.5525358E-3,1.4913277E-1,-1.75E0,-2.0857856E-1,-6.278005E-2,-1.7033672E-1,6.192234E1,5.7358555E1,-1.2987283E-1,-6.61001E-3,1.9294369E-1],"split_indices":[1,0,2,1,0,0,0,0,3,0,0,0,1,1,0,0,0],"split_type":[0,0,0,0,0,0,0,0,0,0,0,0,0,0,0,0,0],"sum_hessian":[2.482221E1,2.2762756E1,2.059454E0,1.9588057E1,3.174699E0,1.0424104E0,1.0170437E0,2.434568E0,1.715349E1,1.4324466E0,1.7422526E0,1.9655948E0,1.5187895E1,1.3992533E1,1.195362E0,1.2024021E1,1.9685113E0],"tree_param":{"num_deleted":"0","num_feature":"4","num_nodes":"17","size_leaf_vector":"1"}},{"base_weights":[-5.9704953E-3,-1.476127E-1,4.177945E-2,1.06392264E-1,-2.5718424E-1,-3.0862764E-2,3.1574315E-1,-1.8744615E-1,4.2208802E-2,-1.9512242E-1,3.018433E-1,5.028257E-1,-6.0335904E-2,-1.05200745E-1,1.4249699E-1,-1.3055933E-2,-1.7406097E-1,1.7177872E-1,-7.653862E-3,1.9354184E-1,2.2813402E-1,-1.0879208E-1,9.074662E-2,-7.4691296E-2,1.093513E-1,8.486694E-2,-9.597305E-2,1.6598457E-1,-4.7312763E-2],"categories":[],"categories_nodes":[],"categories_segments":[],"categories_sizes":[],"default_left":[0,0,0,0,0,0,0,0,0,0,0,0,0,0,0,0,0,0,0,0,0,0,0,0,0,0,0,0,0],"id":14,"left_children":[1,-1,3,5,7,9,11,-1,13,15,17,19,21,-1,-1,23,-1,-1,25,27,-1,-1,-1,-1,-1,-1,-1,-1,-1],"loss_changes":[6.011384E-1,0E0,4.851453E-1,5.900194E-1,5.22141E-1,7.7527374E-1,5.992492E-1,0E0,7.4793774E-1,6.50279E-1,4.003481E-1,2.9160392E-1,5.022542E-1,0E0,0E0,7.4934703E-1,0E0,0E0,3.8006282E-1,5.729748E-1,0E0,0E0,0E0,0E0,0E0,0E0,0E0,0E0,0E0],"parents":[2147483647,0,0,2,2,3,3,4,4,5,5,6,6,8,8,9,9,10,10,11,11,12,12,15,15,18,18,19,19],"right_children":[2,-1,4,6,8,10,12,-1,14,16,18,20,22,-1,-1,24,-1,-1,26,28,-1,-1,-1,-1,-1,-1,-1,-1,-1],"split_conditions":[2.003555E2,-1.476127E-1,2.369785E2,2.2469E2,2.388855E2,1.4199982E0,1.9700012E0,-1.8744615E-1,3.6532632E-1,5.5928867E1,5.013619E-1,5.900116E-1,3.0499878E0,-1.05200745E-1,1.4249699E-1,4.834201E-1,-1.7406097E-1,1.7177872E-1,2.208625E2,2.285245E2,2.2813402E-1,-1.0879208E-1,9.074662E-2,-7.4691296E-2,1.093513E-1,8.486694E-2,-9.597305E-2,1.6598457E-1,-4.7312763E-2],"split_indices":[0,0,0,0,0,3,3,0,2,1,2,3,3,0,0,2,0,0,0,0,0,0,0,0,0,0,0,0,0],"split_type":[0,0,0,0,0,0,0,0,0,0,0,0,0,0,0,0,0,0,0,0,0,0,0,0,0,0,0,0,0],"sum_hessian":[2.401437E1,1.3157809E0,2.269859E1,1.919438E1,3.5042093E0,1.2108417E1,7.0859637E0,1.0849726E0,2.4192367E0,8.383127E0,3.7252886E0,4.506941E0,2.579023E0,1.3675281E0,1.0517086E0,6.393962E0,1.9891655E0,1.5335946E0,2.191694E0,2.8439438E0,1.6629969E0,1.4071217E0,1.1719012E0,4.1447396E0,2.2492228E0,1.1840359E0,1.007658E0,1.1208402E0,1.7231036E0],"tree_param":{"num_deleted":"0","num_feature":"4","num_nodes":"29","size_leaf_vector":"1"}},{"base_weights":[-5.45284E-4,-5.1330283E-2,1.1628996E-1,2.1865468E-2,-4.420666E-1,1.3160382E-1,-5.718076E-2,-3.5081036E-2,-1.906184E-1,-1.4089115E-1,1.7056845E-2,8.7609164E-2,-1.0753969E-1,-7.971555E-3,1.9773757E-1],"categories":[],"categories_nodes":[],"categories_segments":[],"categories_sizes":[],"default_left":[0,0,0,0,0,0,0,0,0,0,0,0,0,0,0],"id":15,"left_children":[1,3,-1,5,7,-1,9,-1,-1,-1,11,13,-1,-1,-1],"loss_changes":[4.9729225E-1,6.473903E-1,0E0,6.752299E-1,1.4979076E-1,0E0,5.429926E-1,0E0,0E0,0E0,4.492597E-1,9.3637466E-1,0E0,0E0,0E0],"parents":[2147483647,0,0,1,1,3,3,4,4,6,6,10,10,11,11],"right_children":[2,4,-1,6,8,-1,10,-1,-1,-1,12,14,-1,-1,-1],"split_conditions":[6.489674E1,2.3686E2,1.1628996E-1,4.337031E1,-9.600067E-1,1.3160382E-1,-1.75E0,-3.5081036E-2,-1.906184E-1,-1.4089115E-1,6.116571E1,5.7358555E1,-1.0753969E-1,-7.971555E-3,1.9773757E-1],"split_indices":[1,0,0,1,3,0,3,0,0,0,1,1,0,0,0],"split_type":[0,0,0,0,0,0,0,0,0,0,0,0,0,0,0],"sum_hessian":[2.3216478E1,2.1297867E1,1.9186121E0,1.8732744E1,2.5651221E0,2.2609591E0,1.6471785E1,1.5549476E0,1.0101744E0,1.7000955E0,1.4771689E1,1.3080799E1,1.6908906E0,1.1697338E1,1.3834602E0],"tree_param":{"num_deleted":"0","num_feature":"4","num_nodes":"15","size_leaf_vector":"1"}},{"base_weights":[-1.3983874E-3,1.274561E-1,-4.185378E-2,-1.6127169E-1,2.195017E-2,-1.2016282E-1,8.263893E-2,3.838303E-1,3.968543E-3,1.7894058E-2,1.9515081E-1,1.599074E-1,-9.535627E-2,-6.1461158E-2,1.6118103E-1],"categories":[],"categories_nodes":[],"categories_segments":[],"categories_sizes":[],"default_left":[0,0,0,0,0,0,0,0,0,0,0,0,0,0,0],"id":16,"left_children":[1,-1,3,-1,5,-1,7,9,11,-1,-1,-1,13,-1,-1],"loss_changes":[4.2311448E-1,0E0,7.195975E-1,0E0,5.660956E-1,0E0,4.488027E-1,3.0056965E-1,8.957868E-1,0E0,0E0,0E0,1.1067748E0,0E0,0E0],"parents":[2147483647,0,0,2,2,4,4,6,6,7,7,8,8,12,12],"right_children":[2,-1,4,-1,6,-1,8,10,12,-1,-1,-1,14,-1,-1],"split_conditions":[3.1928822E1,1.274561E-1,1.9461358E-1,-1.6127169E-1,2.00657E2,-1.2016282E-1,2.039495E2,1.4199982E0,3.2465735E-1,1.7894058E-2,1.9515081E-1,1.599074E-1,6.489674E1,-6.1461158E-2,1.6118103E-1],"split_indices":[1,0,2,0,0,0,0,3,2,0,0,0,1,0,0],"split_type":[0,0,0,0,0,0,0,0,0,0,0,0,0,0,0],"sum_hessian":[2.2505463E1,1.1271925E0,2.137827E1,1.5910887E0,1.978718E1,1.7819496E0,1.8005232E1,2.9255867E0,1.5079644E1,1.8726944E0,1.0528922E0,1.6933725E0,1.3386272E1,1.1987303E1,1.3989692E0],"tree_param":{"num_deleted":"0","num_feature":"4","num_nodes":"15","size_leaf_vector":"1"}},{"base_weights":[1.38896825E-2,-2.2298704E-1,6.797831E-2,-1.4051425E-1,2.1427732E-2,1.9694011E-1,-1.14980906E-1,3.2109663E-1,-1.9918686E-1,-1.707702E-1,3.9222885E-2,6.9188595E-2,6.812936E-1,4.784067E-2,-1.482819E-1,-1.6987556E-1,2.9245183E-1,1.6103667E-1,-3.890652E-1,3.466982E-2,2.5431535E-1,-1.7541733E-1,1.4631395E-1,1.9770083E-1,-4.0038336E-2,-1.802351E-1,1.991245E-2,9.4003856E-2,-3.478131E-2],"categories":[],"categories_nodes":[],"categories_segments":[],"categories_sizes":[],"default_left":[0,0,0,0,0,0,0,0,0,0,0,0,0,0,0,0,0,0,0,0,0,0,0,0,0,0,0,0,0],"id":17,"left_children":[1,3,5,-1,-1,7,9,11,13,-1,15,17,19,-1,-1,21,23,-1,25,-1,-1,-1,27,-1,-1,-1,-1,-1,-1],"loss_changes":[3.1075978E-1,3.60192E-1,4.8390126E-1,0E0,0E0,6.460382E-1,6.3271046E-1,8.0522704E-1,4.4304377E-1,0E0,4.4367945E-1,1.6318556E0,2.5537515E-1,0E0,0E0,7.031313E-1,6.707115E-1,0E0,4.1918874E-1,0E0,0E0,0E0,1.8840273E-1,0E0,0E0,0E0,0E0,0E0,0E0],"parents":[2147483647,0,0,1,1,2,2,5,5,6,6,7,7,8,8,10,10,11,11,12,12,15,15,16,16,18,18,22,22],"right_children":[2,4,6,-1,-1,8,10,12,14,-1,16,18,20,-1,-1,22,24,-1,26,-1,-1,-1,28,-1,-1,-1,-1,-1,-1],"split_conditions":[-2E0,2.675546E-1,7.1381396E-1,-1.4051425E-1,2.1427732E-2,2.8399963E0,2.021645E2,9.4000244E-1,4.8915938E-1,-1.707702E-1,8.699951E-1,-1.3000488E-1,4.3191355E-1,4.784067E-2,-1.482819E-1,7.989727E-1,6.192234E1,1.6103667E-1,5.0597073E1,3.466982E-2,2.5431535E-1,-1.7541733E-1,2.285245E2,1.9770083E-1,-4.0038336E-2,-1.802351E-1,1.991245E-2,9.4003856E-2,-3.478131E-2],"split_indices":[3,2,2,0,0,3,0,3,2,0,3,3,2,0,0,2,1,0,1,0,0,0,0,0,0,0,0,0,0],"split_type":[0,0,0,0,0,0,0,0,0,0,0,0,0,0,0,0,0,0,0,0,0,0,0,0,0,0,0,0,0],"sum_hessian":[2.2071632E1,3.5225015E0,1.8549131E1,1.5989089E0,1.9235926E0,1.0835286E1,7.713845E0,8.3938465E0,2.44144E0,1.2728493E0,6.4409957E0,5.640901E0,2.7529454E0,1.3094654E0,1.1319747E0,3.7081945E0,2.732801E0,2.7071536E0,2.9337473E0,1.0109199E0,1.7420254E0,1.2365386E0,2.4716558E0,1.174622E0,1.558179E0,1.7848868E0,1.1488606E0,1.3909241E0,1.0807317E0],"tree_param":{"num_deleted":"0","num_feature":"4","num_nodes":"29","size_leaf_vector":"1"}},{"base_weights":[9.1498755E-3,1.158647E-1,-2.7591959E-2,-1.8867773E-1,9.4333164E-2,3.3344866E-3,-1.6998856E-1,-1.1821224E-1,3.1854963E-1,-1.3393973E-1,1.7250364E-1,9.492929E-2,-2.9335853E-1,2.2416045E-1,2.309663E-2,3.515862E-1,-6.664252E-2,3.4367297E-2,-4.5271245E-1,-2.2644068E-1,1.3113342E-1,-1.8411828E-2,2.0361665E-1,-2.0008445E-1,1.5402873E-2,5.2212868E-2,-1.338877E-1],"categories":[],"categories_nodes":[],"categories_segments":[],"categories_sizes":[],"default_left":[0,0,0,0,0,0,0,0,0,0,0,0,0,0,0,0,0,0,0,0,0,0,0,0,0,0,0],"id":18,"left_children":[1,-1,3,5,7,9,-1,11,13,-1,15,-1,17,-1,19,21,-1,-1,23,25,-1,-1,-1,-1,-1,-1,-1],"loss_changes":[3.1971207E-1,0E0,4.353636E-1,6.907822E-1,6.46124E-1,6.3164365E-1,0E0,6.473203E-1,8.039173E-1,0E0,5.034235E-1,0E0,4.2307326E-1,0E0,6.0213673E-1,6.5319544E-1,0E0,0E0,4.994946E-1,4.0322587E-1,0E0,0E0,0E0,0E0,0E0,0E0,0E0],"parents":[2147483647,0,0,2,2,3,3,4,4,5,5,7,7,8,8,10,10,12,12,14,14,15,15,18,18,19,19],"right_children":[2,-1,4,6,8,10,-1,12,14,-1,16,-1,18,-1,20,22,-1,-1,24,26,-1,-1,-1,-1,-1,-1,-1],"split_conditions":[3.1928822E1,1.158647E-1,5.264884E-1,4.6959557E1,2.24391E2,-2.9400024E0,-1.6998856E-1,5.1987297E1,2.285245E2,-1.3393973E-1,3.857226E-1,9.492929E-2,1.6999817E-1,2.2416045E-1,6.465026E1,2.9150295E-1,-6.664252E-2,3.4367297E-2,2.185445E2,5.6727146E1,1.3113342E-1,-1.8411828E-2,2.0361665E-1,-2.0008445E-1,1.5402873E-2,5.2212868E-2,-1.338877E-1],"split_indices":[1,0,2,1,0,3,0,1,0,0,2,0,3,0,1,2,0,0,0,1,0,0,0,0,0,0,0],"split_type":[0,0,0,0,0,0,0,0,0,0,0,0,0,0,0,0,0,0,0,0,0,0,0,0,0,0,0],"sum_hessian":[2.1307901E1,1.0473889E0,2.0260513E1,8.492651E0,1.1767861E1,6.288865E0,2.2037861E0,6.2838645E0,5.4839964E0,1.2707986E0,5.018067E0,1.5731839E0,4.710681E0,1.6137371E0,3.8702595E0,3.5267866E0,1.4912802E0,1.4022624E0,3.3084183E0,2.6974802E0,1.1727791E0,1.9179996E0,1.6087868E0,2.0948794E0,1.213539E0,1.0298531E0,1.6676272E0],"tree_param":{"num_deleted":"0","num_feature":"4","num_nodes":"27","size_leaf_vector":"1"}},{"base_weights":[1.4799239E-2,6.607879E-2,-2.4324514E-1,-5.376734E-2,2.8292924E-1,-6.846728E-4,-1.2073274E-1,1.026435E-1,-1.4630477E-1,4.433956E-1,-2.4176106E-2,-3.2694843E-1,1.7516421E-1,1.7173554E-1,1.9499044E-1,-9.283791E-2,8.599295E-2,2.6729736E-2,-4.1357657E-1,1.1530573E-1,-4.6618376E-2,1.1021485E-1,-3.5631597E-2,-1.5261148E-1,-2.8618034E-2],"categories":[],"categories_nodes":[],"categories_segments":[],"categories_sizes":[],"default_left":[0,0,0,0,0,0,0,0,0,0,0,0,0,0,0,0,0,0,0,0,0,0,0,0,0],"id":19,"left_children":[1,3,5,7,9,-1,-1,-1,11,13,15,17,19,21,-1,-1,-1,-1,23,-1,-1,-1,-1,-1,-1],"loss_changes":[3.0138877E-1,5.031172E-1,1.4439698E-1,5.238285E-1,3.4790123E-1,0E0,0E0,0E0,7.066325E-1,1.4346999E-1,3.810067E-1,3.0744976E-1,3.8293695E-1,2.3248228E-1,0E0,0E0,0E0,0E0,1.4492929E-1,0E0,0E0,0E0,0E0,0E0,0E0],"parents":[2147483647,0,0,1,1,2,2,3,3,4,4,8,8,9,9,10,10,11,11,12,12,13,13,18,18],"right_children":[2,4,6,8,10,-1,-1,-1,12,14,16,18,20,22,-1,-1,-1,-1,24,-1,-1,-1,-1,-1,-1],"split_conditions":[2.369785E2,2.2469E2,-9.600067E-1,4.337031E1,1.9700012E0,-6.846728E-4,-1.2073274E-1,1.026435E-1,1.4199982E0,5.900116E-1,3.0499878E0,2.014215E2,7.079388E-1,2.296765E2,1.9499044E-1,-9.283791E-2,8.599295E-2,2.6729736E-2,7.8480536E-1,1.1530573E-1,-4.6618376E-2,1.1021485E-1,-3.5631597E-2,-1.5261148E-1,-2.8618034E-2],"split_indices":[0,0,3,1,3,0,0,0,3,3,3,0,2,0,0,0,0,0,2,0,0,0,0,0,0],"split_type":[0,0,0,0,0,0,0,0,0,0,0,0,0,0,0,0,0,0,0,0,0,0,0,0,0],"sum_hessian":[2.0561882E1,1.777374E1,2.7881398E0,1.1931595E1,5.842147E0,1.5127538E0,1.275386E0,1.7494361E0,1.0182158E1,3.5456898E0,2.2964568E0,6.508039E0,3.6741197E0,2.3226147E0,1.2230753E0,1.1996967E0,1.0967603E0,1.116641E0,5.391398E0,2.1504872E0,1.5236325E0,1.2297765E0,1.092838E0,3.689542E0,1.701856E0],"tree_param":{"num_deleted":"0","num_feature":"4","num_nodes":"25","size_leaf_vector":"1"}},{"base_weights":[1.8739536E-2,-9.455674E-2,5.314054E-2,1.3601066E-1,-4.7235033E-3,-1.2605496E-1,4.358884E-2,-1.5354981E-2,1.3458395E-1,1.3834423E-1,-8.0295205E-2,5.9600774E-2,-5.9115537E-2],"categories":[],"categories_nodes":[],"categories_segments":[],"categories_sizes":[],"default_left":[0,0,0,0,0,0,0,0,0,0,0,0,0],"id":20,"left_children":[1,-1,3,-1,5,-1,7,9,-1,-1,11,-1,-1],"loss_changes":[2.5746474E-1,0E0,4.619186E-1,0E0,3.8633505E-1,0E0,4.2064637E-1,5.351128E-1,0E0,0E0,5.2827793E-1,0E0,0E0],"parents":[2147483647,0,0,2,2,4,4,6,6,7,7,10,10],"right_children":[2,-1,4,-1,6,-1,8,10,-1,-1,12,-1,-1],"split_conditions":[2.003555E2,-9.455674E-2,2.01897E2,1.3601066E-1,2.027285E2,-1.2605496E-1,6.489674E1,2.039495E2,1.3458395E-1,1.3834423E-1,3.295818E-1,5.9600774E-2,-5.9115537E-2],"split_indices":[0,0,0,0,0,0,1,0,0,0,2,0,0],"split_type":[0,0,0,0,0,0,0,0,0,0,0,0,0],"sum_hessian":[1.995459E1,1.1013769E0,1.8853212E1,1.5180746E0,1.7335138E1,1.0040069E0,1.6331131E1,1.509624E1,1.2348905E0,1.0788697E0,1.401737E1,3.9287968E0,1.0088573E1],"tree_param":{"num_deleted":"0","num_feature":"4","num_nodes":"13","size_leaf_vector":"1"}},{"base_weights":[2.324672E-2,7.488468E-2,-2.3338172E-1,-4.4483688E-2,2.582528E-1,-1.1222332E-1,-4.758545E-3,6.396332E-2,-1.0826288E-1,-7.630054E-2,4.4477972E-1,-7.289242E-2,3.2738733E-1,1.4211068E-1,-1.502795E-1,2.1146743E-1,1.1414688E-1,-2.0727728E-1,9.808128E-2,1.5952629E-1,-7.772783E-3,-9.838492E-2,1.5174082E-1,6.83176E-2,-1.414588E-1],"categories":[],"categories_nodes":[],"categories_segments":[],"categories_sizes":[],"default_left":[0,0,0,0,0,0,0,0,0,0,0,0,0,0,0,0,0,0,0,0,0,0,0,0,0],"id":21,"left_children":[1,3,5,7,9,-1,-1,11,-1,13,15,17,19,-1,-1,-1,21,23,-1,-1,-1,-1,-1,-1,-1],"loss_changes":[2.9124466E-1,4.0450323E-1,1.07409745E-1,4.255164E-1,4.849083E-1,0E0,0E0,3.6938545E-1,0E0,1.040808E0,3.311646E-1,4.5061517E-1,2.6352084E-1,0E0,0E0,0E0,7.373885E-1,7.9074275E-1,0E0,0E0,0E0,0E0,0E0,0E0,0E0],"parents":[2147483647,0,0,1,1,2,2,3,3,4,4,7,7,9,9,10,10,11,11,12,12,16,16,17,17],"right_children":[2,4,6,8,10,-1,-1,12,-1,14,16,18,20,-1,-1,-1,22,24,-1,-1,-1,-1,-1,-1,-1],"split_conditions":[2.369785E2,2.24391E2,3.6532632E-1,2.208625E2,5.012292E1,-1.1222332E-1,-4.758545E-3,2.07057E2,-1.0826288E-1,4.592329E1,2.285825E2,2.7599945E0,2.184695E2,1.4211068E-1,-1.502795E-1,2.1146743E-1,2.306195E2,-1.3000488E-1,9.808128E-2,1.5952629E-1,-7.772783E-3,-9.838492E-2,1.5174082E-1,6.83176E-2,-1.414588E-1],"split_indices":[0,0,2,0,1,0,0,0,0,1,0,3,0,0,0,0,0,3,0,0,0,0,0,0,0],"split_type":[0,0,0,0,0,0,0,0,0,0,0,0,0,0,0,0,0,0,0,0,0,0,0,0,0],"sum_hessian":[1.965897E1,1.6955446E1,2.7035234E0,1.0728713E1,6.226734E0,1.2046152E0,1.4989082E0,8.584215E0,2.1444976E0,2.4404683E0,3.7862656E0,6.1252666E0,2.458949E0,1.0129217E0,1.4275467E0,1.4855921E0,2.3006735E0,4.9448605E0,1.1804059E0,1.2378086E0,1.2211404E0,1.1571519E0,1.1435217E0,1.9209256E0,3.0239348E0],"tree_param":{"num_deleted":"0","num_feature":"4","num_nodes":"25","size_leaf_vector":"1"}},{"base_weights":[2.8730951E-2,-2.4244002E-1,9.372219E-2,-1.3884462E-1,1.2286904E-2,3.2181662E-1,1.473556E-2,1.325577E-1,1.9774508E-2,-1.3693717E-1,1.0090155E-1,2.9912487E-1,-5.5988226E-2,5.283039E-1,-9.2431046E-2,-1.2021152E-1,8.207664E-2,3.577646E-2,2.3063858E-1,1.0064058E-1,-4.9727947E-2],"categories":[],"categories_nodes":[],"categories_segments":[],"categories_sizes":[],"default_left":[0,0,0,0,0,0,0,0,0,0,0,0,0,0,0,0,0,0,0,0,0],"id":22,"left_children":[1,3,5,-1,-1,7,9,-1,-1,-1,11,13,15,17,-1,-1,19,-1,-1,-1,-1],"loss_changes":[3.7511957E-1,2.7780116E-1,2.9885256E-1,0E0,0E0,1.0254854E-1,5.967915E-1,0E0,0E0,0E0,3.9884907E-1,9.401263E-1,3.993878E-1,3.4348822E-1,0E0,0E0,4.5303106E-1,0E0,0E0,0E0,0E0],"parents":[2147483647,0,0,1,1,2,2,5,5,6,6,10,10,11,11,12,12,13,13,16,16],"right_children":[2,4,6,-1,-1,8,10,-1,-1,-1,12,14,16,18,-1,-1,20,-1,-1,-1,-1],"split_conditions":[-2E0,2.675546E-1,4.60212E1,-1.3884462E-1,1.2286904E-2,1.1999512E-1,4.645847E-1,1.325577E-1,1.9774508E-2,-1.3693717E-1,7.1381396E-1,3.2299957E0,7.8480536E-1,9.4000244E-1,-9.2431046E-2,-1.2021152E-1,6.116571E1,3.577646E-2,2.3063858E-1,1.0064058E-1,-4.9727947E-2],"split_indices":[3,2,1,0,0,3,2,0,0,0,2,3,2,3,0,0,1,0,0,0,0],"split_type":[0,0,0,0,0,0,0,0,0,0,0,0,0,0,0,0,0,0,0,0,0],"sum_hessian":[1.8995623E1,3.1446135E0,1.5851009E1,1.4128484E0,1.7317652E0,3.2863889E0,1.2564621E1,1.7423733E0,1.5440156E0,1.2780849E0,1.1286536E1,4.5858827E0,6.700653E0,3.423693E0,1.1621896E0,1.372224E0,5.328429E0,1.8214642E0,1.6022289E0,2.4598503E0,2.868579E0],"tree_param":{"num_deleted":"0","num_feature":"4","num_nodes":"21","size_leaf_vector":"1"}},{"base_weights":[2.164872E-2,-2.0337611E-1,7.680652E-2,-1.1739383E-1,9.927954E-3,-1.6571453E-2,2.0812507E-1,1.1219978E-1,-2.4671091E-1,3.204144E-1,-2.2766653E-2,3.648387E-1,-8.9282244E-2,-1.1775625E-1,-1.9533755E-2,1.2139607E-1,3.0921174E-2,1.42397955E-2,1.6437514E-1,-2.8381342E-1,8.775329E-2,4.1549847E-2,-1.5118784E-1],"categories":[],"categories_nodes":[],"categories_segments":[],"categories_sizes":[],"default_left":[0,0,0,0,0,0,0,0,0,0,0,0,0,0,0,0,0,0,0,0,0,0,0],"id":23,"left_children":[1,3,5,-1,-1,7,9,11,13,15,-1,17,19,-1,-1,-1,-1,-1,-1,21,-1,-1,-1],"loss_changes":[2.5673842E-1,1.9509134E-1,2.0366588E-1,0E0,0E0,3.379245E-1,2.4306747E-1,4.0925464E-1,8.217408E-2,5.1799E-2,0E0,1.7618552E-1,4.4844913E-1,0E0,0E0,0E0,0E0,0E0,0E0,4.2002064E-1,0E0,0E0,0E0],"parents":[2147483647,0,0,1,1,2,2,5,5,6,6,7,7,8,8,9,9,11,11,12,12,19,19],"right_children":[2,4,6,-1,-1,8,10,12,14,16,-1,18,20,-1,-1,-1,-1,-1,-1,22,-1,-1,-1],"split_conditions":[-2E0,2.675546E-1,2.256695E2,-1.1739383E-1,9.927954E-3,2.208625E2,2.369785E2,5.038962E1,2.7999878E-1,1.9700012E0,-2.2766653E-2,4.3047994E-1,5.7358555E1,-1.1775625E-1,-1.9533755E-2,1.2139607E-1,3.0921174E-2,1.42397955E-2,1.6437514E-1,1.6999817E-1,8.775329E-2,4.1549847E-2,-1.5118784E-1],"split_indices":[3,2,0,0,0,0,0,1,3,3,0,2,1,0,0,0,0,0,0,3,0,0,0],"split_type":[0,0,0,0,0,0,0,0,0,0,0,0,0,0,0,0,0,0,0,0,0,0,0],"sum_hessian":[1.842638E1,3.09848E0,1.53279E1,1.3615549E0,1.7369251E0,9.468703E0,5.8591967E0,6.4000936E0,3.0686097E0,4.1071906E0,1.7520059E0,2.4798396E0,3.9202538E0,1.0577992E0,2.0108106E0,2.338868E0,1.7683227E0,1.367865E0,1.1119746E0,2.7670286E0,1.1532252E0,1.075239E0,1.6917896E0],"tree_param":{"num_deleted":"0","num_feature":"4","num_nodes":"23","size_leaf_vector":"1"}},{"base_weights":[1.8279625E-2,-9.412298E-2,5.4969385E-2,1.2318437E-1,1.981562E-3,-8.638614E-2,1.6675161E-1,-3.2615486E-1,2.3755156E-2,3.5687977E-1,-5.4750156E-2,6.3949294E-2,-2.2207637E-1,1.3028292E-1,-8.8934146E-2,1.4947632E-1,4.1884216E-3,-7.611887E-2,6.6497326E-2,-1.3361491E-1,2.509698E-2],"categories":[],"categories_nodes":[],"categories_segments":[],"categories_sizes":[],"default_left":[0,0,0,0,0,0,0,0,0,0,0,0,0,0,0,0,0,0,0,0,0],"id":24,"left_children":[1,-1,3,-1,5,7,9,11,13,15,17,-1,-1,-1,19,-1,-1,-1,-1,-1,-1],"loss_changes":[2.4875315E-1,0E0,3.3771744E-1,0E0,2.5668243E-1,3.1116986E-1,2.7853638E-1,9.8065543E-1,4.4595858E-1,1.599285E-1,2.6015696E-1,0E0,0E0,0E0,5.133416E-1,0E0,0E0,0E0,0E0,0E0,0E0],"parents":[2147483647,0,0,2,2,4,4,5,5,6,6,7,7,8,8,9,9,10,10,14,14],"right_children":[2,-1,4,-1,6,8,10,12,14,16,18,-1,-1,-1,20,-1,-1,-1,-1,-1,-1],"split_conditions":[2.003555E2,-9.412298E-2,2.01897E2,1.2318437E-1,1.4199982E0,2.07057E2,2.8499908E0,-1.3000488E-1,2.18373E2,5.6622765E1,4.1399994E0,6.3949294E-2,-2.2207637E-1,1.3028292E-1,2.24391E2,1.4947632E-1,4.1884216E-3,-7.611887E-2,6.6497326E-2,-1.3361491E-1,2.509698E-2],"split_indices":[0,0,0,0,3,0,3,3,0,1,3,0,0,0,0,0,0,0,0,0,0],"split_type":[0,0,0,0,0,0,0,0,0,0,0,0,0,0,0,0,0,0,0,0,0],"sum_hessian":[1.8004261E1,1.0401555E0,1.6964104E1,1.324573E0,1.5639531E1,1.0489587E1,5.149945E0,2.6844702E0,7.805116E0,2.4423487E0,2.7075963E0,1.376702E0,1.3077683E0,1.0664274E0,6.738689E0,1.4086316E0,1.0337173E0,1.6220024E0,1.0855938E0,1.6827532E0,5.055936E0],"tree_param":{"num_deleted":"0","num_feature":"4","num_nodes":"21","size_leaf_vector":"1"}},{"base_weights":[1.5109082E-2,-1.9806519E-1,6.9496766E-2,1.660299E-2,-1.0368332E-1,2.693628E-1,-7.904609E-4,1.1285087E-1,1.3131773E-2,-9.810625E-2,9.6311375E-2,3.9036247E-1,-3.9679226E-2,3.4186292E-2,1.4229915E-1,-9.9463835E-2,7.149899E-2,7.9823114E-2,-4.0457074E-2],"categories":[],"categories_nodes":[],"categories_segments":[],"categories_sizes":[],"default_left":[0,0,0,0,0,0,0,0,0,0,0,0,0,0,0,0,0,0,0],"id":25,"left_children":[1,3,5,-1,-1,7,9,-1,-1,-1,11,13,15,-1,-1,-1,17,-1,-1],"loss_changes":[2.2894694E-1,1.6989593E-1,2.1834084E-1,0E0,0E0,8.094221E-2,4.2697594E-1,0E0,0E0,0E0,4.3110237E-1,2.4371266E-2,2.8376836E-1,0E0,0E0,0E0,3.019441E-1,0E0,0E0],"parents":[2147483647,0,0,1,1,2,2,5,5,6,6,10,10,11,11,12,12,16,16],"right_children":[2,4,6,-1,-1,8,10,-1,-1,-1,12,14,16,-1,-1,-1,18,-1,-1],"split_conditions":[-2E0,-3.9700012E0,4.60212E1,1.660299E-2,-1.0368332E-1,1.1999512E-1,4.9039764E1,1.1285087E-1,1.3131773E-2,-9.810625E-2,5.2660805E1,5.078243E1,7.5960916E-1,3.4186292E-2,1.4229915E-1,-9.9463835E-2,6.116571E1,7.9823114E-2,-4.0457074E-2],"split_indices":[3,3,1,0,0,3,1,0,0,0,1,1,2,0,0,0,1,0,0],"split_type":[0,0,0,0,0,0,0,0,0,0,0,0,0,0,0,0,0,0,0],"sum_hessian":[1.7559687E1,3.0323937E0,1.4527293E1,1.3458384E0,1.6865554E0,3.0427454E0,1.1484549E1,1.6120316E0,1.4307138E0,2.0911512E0,9.393396E0,2.3789363E0,7.0144606E0,1.1035049E0,1.2754314E0,1.3881507E0,5.62631E0,2.7468393E0,2.8794706E0],"tree_param":{"num_deleted":"0","num_feature":"4","num_nodes":"19","size_leaf_vector":"1"}},{"base_weights":[1.4231535E-2,-8.534528E-2,4.8586834E-2,1.0279572E-1,-1.9062294E-1,3.433486E-2,3.466832E-1,-1.00327455E-1,2.113501E-3,1.1121291E-1,-7.114763E-2,3.0240906E-2,1.2714066E-1,1.3104806E-2,1.161558E-1,9.1976866E-2,-2.6621051E-2],"categories":[],"categories_nodes":[],"categories_segments":[],"categories_sizes":[],"default_left":[0,0,0,0,0,0,0,0,0,0,0,0,0,0,0,0,0],"id":26,"left_children":[1,-1,3,5,7,9,11,-1,-1,13,-1,-1,-1,15,-1,-1,-1],"loss_changes":[2.0069069E-1,0E0,2.4243623E-1,2.3286468E-1,1.02560684E-1,2.8845173E-1,1.6122192E-2,0E0,0E0,2.783022E-1,0E0,0E0,0E0,2.8892466E-1,0E0,0E0,0E0],"parents":[2147483647,0,0,2,2,3,3,4,4,5,5,6,6,9,9,13,13],"right_children":[2,-1,4,6,8,10,12,-1,-1,14,-1,-1,-1,16,-1,-1,-1],"split_conditions":[2.003555E2,-8.534528E-2,2.369785E2,3.0499878E0,3.6532632E-1,1.9700012E0,4.6959557E1,-1.00327455E-1,2.113501E-3,9.4000244E-1,-7.114763E-2,3.0240906E-2,1.2714066E-1,2.03296E2,1.161558E-1,9.1976866E-2,-2.6621051E-2],"split_indices":[0,0,0,3,2,3,1,0,0,3,0,0,0,0,0,0,0],"split_type":[0,0,0,0,0,0,0,0,0,0,0,0,0,0,0,0,0],"sum_hessian":[1.720892E1,1.0240715E0,1.6184849E1,1.3659622E1,2.5252266E0,1.1556435E1,2.1031873E0,1.0612926E0,1.4639338E0,9.466267E0,2.0901685E0,1.0529984E0,1.050189E0,7.7563715E0,1.709895E0,1.4802294E0,6.276142E0],"tree_param":{"num_deleted":"0","num_feature":"4","num_nodes":"17","size_leaf_vector":"1"}},{"base_weights":[1.538335E-2,-2.180449E-2,7.4681535E-2,3.8166273E-2,-9.78577E-2,2.7444938E-1,-5.687505E-2,7.012972E-3,1.1621335E-1,-1.5410447E-1,4.6802577E-2,-9.233293E-2,1.3605689E-1,1.7059898E-1,-2.5709874E-3],"categories":[],"categories_nodes":[],"categories_segments":[],"categories_sizes":[],"default_left":[0,0,0,0,0,0,0,0,0,0,0,0,0,0,0],"id":27,"left_children":[1,3,-1,5,-1,7,9,-1,-1,-1,11,-1,13,-1,-1],"loss_changes":[1.6096297E-1,3.112258E-1,0E0,3.4277326E-1,0E0,1.1430177E-1,5.553309E-1,0E0,0E0,0E0,3.6023107E-1,0E0,5.5107224E-1,0E0,0E0],"parents":[2147483647,0,0,1,1,3,3,5,5,6,6,10,10,12,12],"right_children":[2,4,-1,6,-1,8,10,-1,-1,-1,12,-1,14,-1,-1],"split_conditions":[6.489674E1,2.3686E2,7.4681535E-2,3.295818E-1,-9.78577E-2,2.07057E2,4.3047994E-1,7.012972E-3,1.1621335E-1,-1.5410447E-1,2.00657E2,-9.233293E-2,2.039495E2,1.7059898E-1,-2.5709874E-3],"split_indices":[1,0,0,2,0,0,2,0,0,0,0,0,0,0,0],"split_type":[0,0,0,0,0,0,0,0,0,0,0,0,0,0,0],"sum_hessian":[1.6907618E1,1.5367385E1,1.5402328E0,1.3568684E1,1.7987013E0,3.3507266E0,1.0217957E1,1.413999E0,1.9367276E0,1.1585871E0,9.05937E0,1.3294759E0,7.729894E0,1.2021376E0,6.527756E0],"tree_param":{"num_deleted":"0","num_feature":"4","num_nodes":"15","size_leaf_vector":"1"}},{"base_weights":[1.2579844E-2,-5.698225E-2,1.3271265E-1,-1.6990753E-1,8.991663E-2,2.8661317E-1,-3.565789E-2,7.0095934E-2,-3.098313E-1,2.565539E-1,-4.2534262E-2,1.5037796E-1,-1.3975194E-2,-5.4531213E-2,3.5797354E-2,-4.2033747E-1,-8.401457E-2,1.0983335E-2,1.0092536E-1,-3.2593876E-2,-1.6412005E-1,2.881948E-2,-6.5685496E-2],"categories":[],"categories_nodes":[],"categories_segments":[],"categories_sizes":[],"default_left":[0,0,0,0,0,0,0,0,0,0,0,0,0,0,0,0,0,0,0,0,0,0,0],"id":28,"left_children":[1,3,5,7,9,11,13,-1,15,17,-1,-1,-1,-1,-1,19,21,-1,-1,-1,-1,-1,-1],"loss_changes":[1.5364677E-1,2.1053079E-1,1.8411276E-1,4.6770975E-1,2.5913453E-1,2.8201666E-1,1.1440033E-1,0E0,1.0513437E-1,5.2884698E-2,0E0,0E0,0E0,0E0,0E0,7.996744E-2,9.633976E-2,0E0,0E0,0E0,0E0,0E0,0E0],"parents":[2147483647,0,0,1,1,2,2,3,3,4,4,5,5,6,6,8,8,9,9,15,15,16,16],"right_children":[2,4,6,8,10,12,14,-1,16,18,-1,-1,-1,-1,-1,20,22,-1,-1,-1,-1,-1,-1],"split_conditions":[1.4199982E0,2.24391E2,2.8499908E0,4.337031E1,2.355765E2,7.079388E-1,4.962104E1,7.0095934E-2,6.7449045E-1,-1.8000793E-1,-4.2534262E-2,1.5037796E-1,-1.3975194E-2,-5.4531213E-2,3.5797354E-2,-1.3000488E-1,1.6999817E-1,1.0983335E-2,1.0092536E-1,-3.2593876E-2,-1.6412005E-1,2.881948E-2,-6.5685496E-2],"split_indices":[3,0,3,1,0,2,1,0,2,3,0,0,0,0,0,3,3,0,0,0,0,0,0],"split_type":[0,0,0,0,0,0,0,0,0,0,0,0,0,0,0,0,0,0,0,0,0,0,0],"sum_hessian":[1.6481146E1,1.0770331E1,5.7108154E0,6.0007544E0,4.7695765E0,2.6167116E0,3.0941038E0,1.3724751E0,4.628279E0,2.7118964E0,2.0576801E0,1.2847056E0,1.332006E0,1.503655E0,1.5904487E0,2.5291827E0,2.0990965E0,1.1109085E0,1.6009878E0,1.2679542E0,1.2612286E0,1.0225433E0,1.0765532E0],"tree_param":{"num_deleted":"0","num_feature":"4","num_nodes":"23","size_leaf_vector":"1"}},{"base_weights":[1.06024295E-2,-1.7123084E-1,5.7060037E-2,-1.0870869E-1,1.8647684E-2,2.776455E-1,-1.907782E-2,1.14451386E-1,1.0880778E-2,-1.1373248E-1,5.4979894E-2,2.5550362E-1,-7.322049E-2,-3.126804E-2,1.18988365E-1,-2.924007E-1,9.15002E-2,-2.7408708E-2,-1.1328476E-1,1.3310386E-1,-3.92638E-2],"categories":[],"categories_nodes":[],"categories_segments":[],"categories_sizes":[],"default_left":[0,0,0,0,0,0,0,0,0,0,0,0,0,0,0,0,0,0,0,0,0],"id":29,"left_children":[1,3,5,-1,-1,7,9,-1,-1,-1,11,13,15,-1,-1,17,19,-1,-1,-1,-1],"loss_changes":[1.5480095E-1,1.895253E-1,2.4755727E-1,0E0,0E0,8.056316E-2,3.317088E-1,0E0,0E0,0E0,2.8974688E-1,2.6139057E-1,2.8701535E-1,0E0,0E0,2.257204E-2,4.400488E-1,0E0,0E0,0E0,0E0],"parents":[2147483647,0,0,1,1,2,2,5,5,6,6,10,10,11,11,12,12,15,15,16,16],"right_children":[2,4,6,-1,-1,8,10,-1,-1,-1,12,14,16,-1,-1,18,20,-1,-1,-1,-1],"split_conditions":[-2E0,2.675546E-1,4.60212E1,-1.0870869E-1,1.8647684E-2,1.1999512E-1,4.645847E-1,1.14451386E-1,1.0880778E-2,-1.1373248E-1,5.326732E1,4.8118362E1,5.7358555E1,-3.126804E-2,1.18988365E-1,5.5928867E1,6.116571E1,-2.7408708E-2,-1.1328476E-1,1.3310386E-1,-3.92638E-2],"split_indices":[3,2,1,0,0,3,2,0,0,0,1,1,1,0,0,1,1,0,0,0,0],"split_type":[0,0,0,0,0,0,0,0,0,0,0,0,0,0,0,0,0,0,0,0,0],"sum_hessian":[1.6168375E1,2.74374E0,1.3424636E1,1.2046239E0,1.5391161E0,2.7655911E0,1.0659044E1,1.5277104E0,1.2378807E0,1.1157502E0,9.543294E0,3.3345613E0,6.208733E0,1.0132377E0,2.3213236E0,2.3314006E0,3.8773322E0,1.3108947E0,1.020506E0,1.1155329E0,2.7617993E0],"tree_param":{"num_deleted":"0","num_feature":"4","num_nodes":"21","size_leaf_vector":"1"}},{"base_weights":[5.8809365E-3,-6.553251E-2,1.2925239E-1,1.4649999E-1,-1.306274E-1,2.074337E-1,-2.8435178E-2,1.1529049E-1,-5.0729707E-2,-2.851203E-1,1.1749287E-1,2.9632217E-1,-2.0639291E-2,-1.4857578E-1,-1.2218854E-1,-4.9848262E-2,9.644974E-2,1.1784006E-1,1.6392363E-2,5.0753567E-2,-1.0608535E-1,6.026881E-2,-7.8396745E-2],"categories":[],"categories_nodes":[],"categories_segments":[],"categories_sizes":[],"default_left":[0,0,0,0,0,0,0,0,0,0,0,0,0,0,0,0,0,0,0,0,0,0,0],"id":30,"left_children":[1,3,5,7,9,11,-1,-1,-1,13,15,17,-1,-1,19,21,-1,-1,-1,-1,-1,-1,-1],"loss_changes":[1.5681113E-1,1.7548445E-1,1.3367577E-1,3.0005234E-1,3.8599125E-1,1.4656983E-1,0E0,0E0,0E0,1.4349899E-1,1.606628E-1,7.35856E-2,0E0,0E0,3.7566352E-1,2.2182606E-1,0E0,0E0,0E0,0E0,0E0,0E0,0E0],"parents":[2147483647,0,0,1,1,2,2,3,3,4,4,5,5,9,9,10,10,11,11,14,14,15,15],"right_children":[2,4,6,8,10,12,-1,-1,-1,14,16,18,-1,-1,20,22,-1,-1,-1,-1,-1,-1,-1],"split_conditions":[1.4199982E0,4.337031E1,3.9400024E0,2.18259E2,2.2469E2,2.285825E2,-2.8435178E-2,1.1529049E-1,-5.0729707E-2,-4.7000122E-1,6.1640392E1,2.9600067E0,-2.0639291E-2,-1.4857578E-1,1.6999817E-1,2.298885E2,9.644974E-2,1.1784006E-1,1.6392363E-2,5.0753567E-2,-1.0608535E-1,6.026881E-2,-7.8396745E-2],"split_indices":[3,1,3,0,0,0,0,0,0,3,1,3,0,0,3,0,0,0,0,0,0,0,0],"split_type":[0,0,0,0,0,0,0,0,0,0,0,0,0,0,0,0,0,0,0,0,0,0,0],"sum_hessian":[1.583706E1,1.03277E1,5.50936E0,2.1321437E0,8.195557E0,4.139068E0,1.3702918E0,1.0917945E0,1.0403492E0,4.958813E0,3.236743E0,3.076386E0,1.0626822E0,1.2749217E0,3.6838918E0,2.1932933E0,1.0434496E0,1.7517934E0,1.3245925E0,1.7498423E0,1.9340495E0,1.0263612E0,1.1669321E0],"tree_param":{"num_deleted":"0","num_feature":"4","num_nodes":"23","size_leaf_vector":"1"}},{"base_weights":[5.731535E-3,-1.2691972E-1,7.08731E-2,6.436824E-2,-2.9500383E-1,7.6664593E-3,1.0778644E-1,-5.6230273E-2,7.236778E-2,-1.2787832E-1,-2.0630287E-3,9.376181E-2,-9.61919E-2,-4.666725E-2,2.596763E-1,2.4311055E-1,-3.1228814E-1,-4.1970864E-2,1.2925592E-1,-4.4159576E-2,1.5238751E-1,-1.396934E-1,5.624214E-3],"categories":[],"categories_nodes":[],"categories_segments":[],"categories_sizes":[],"default_left":[0,0,0,0,0,0,0,0,0,0,0,0,0,0,0,0,0,0,0,0,0,0,0],"id":31,"left_children":[1,3,5,7,9,11,-1,-1,-1,-1,-1,13,-1,15,17,19,21,-1,-1,-1,-1,-1,-1],"loss_changes":[1.5112643E-1,2.0468318E-1,2.1003827E-1,2.0206657E-1,1.2010378E-1,3.295764E-1,0E0,0E0,0E0,0E0,0E0,2.2573996E-1,0E0,5.233802E-1,3.5817188E-1,4.2029625E-1,1.8493098E-1,0E0,0E0,0E0,0E0,0E0,0E0],"parents":[2147483647,0,0,1,1,2,2,3,3,4,4,5,5,11,11,13,13,14,14,15,15,16,16],"right_children":[2,4,6,8,10,12,-1,-1,-1,-1,-1,14,-1,16,18,20,22,-1,-1,-1,-1,-1,-1],"split_conditions":[2.07057E2,5.008078E1,6.489674E1,3.0064747E-1,5.492242E1,6.116571E1,1.0778644E-1,-5.6230273E-2,7.236778E-2,-1.2787832E-1,-2.0630287E-3,5.012292E1,-9.61919E-2,3.2465735E-1,1.7999268E-1,1.1055365E-1,2.29918E2,-4.1970864E-2,1.2925592E-1,-4.4159576E-2,1.5238751E-1,-1.396934E-1,5.624214E-3],"split_indices":[0,1,1,2,1,1,0,0,0,0,0,1,0,2,3,2,0,0,0,0,0,0,0],"split_type":[0,0,0,0,0,0,0,0,0,0,0,0,0,0,0,0,0,0,0,0,0,0,0],"sum_hessian":[1.5448262E1,4.77543E0,1.0672832E1,2.5221486E0,2.2532814E0,9.596355E0,1.0764761E0,1.0159209E0,1.5062279E0,1.2186853E0,1.0345961E0,8.168616E0,1.4277394E0,4.813351E0,3.3552651E0,2.3425279E0,2.470823E0,1.0610791E0,2.294186E0,1.1265432E0,1.2159848E0,1.410678E0,1.0601451E0],"tree_param":{"num_deleted":"0","num_feature":"4","num_nodes":"23","size_leaf_vector":"1"}},{"base_weights":[2.1306619E-3,-1.5864159E-1,4.4118483E-2,2.6590027E-2,-9.159943E-2,2.1683545E-1,-4.462209E-2,3.6888552E-1,-1.9113442E-2,-9.340383E-2,4.196157E-2,1.4886446E-1,1.7971016E-2,1.2070252E-1,-6.8221584E-2,-9.641154E-2,3.74474E-2,-5.894326E-2,4.905578E-2],"categories":[],"categories_nodes":[],"categories_segments":[],"categories_sizes":[],"default_left":[0,0,0,0,0,0,0,0,0,0,0,0,0,0,0,0,0,0,0],"id":32,"left_children":[1,3,5,-1,-1,7,9,11,-1,-1,13,-1,-1,-1,15,-1,17,-1,-1],"loss_changes":[1.1488423E-1,1.5500134E-1,2.1589634E-1,0E0,0E0,2.2558205E-1,2.3747835E-1,9.693822E-2,0E0,0E0,3.5373753E-1,0E0,0E0,0E0,2.0324957E-1,0E0,2.0726965E-1,0E0,0E0],"parents":[2147483647,0,0,1,1,2,2,5,5,6,6,7,7,10,10,14,14,16,16],"right_children":[2,4,6,-1,-1,8,10,12,-1,-1,14,-1,-1,-1,16,-1,18,-1,-1],"split_conditions":[-2E0,-3.9700012E0,4.8092903E1,2.6590027E-2,-9.159943E-2,3.857226E-1,5.0597073E1,1.1999512E-1,-1.9113442E-2,-9.340383E-2,5.2660805E1,1.4886446E-1,1.7971016E-2,1.2070252E-1,7.5960916E-1,-9.641154E-2,1.7999268E-1,-5.894326E-2,4.905578E-2],"split_indices":[3,3,1,0,0,2,1,3,0,0,1,0,0,0,2,0,3,0,0],"split_type":[0,0,0,0,0,0,0,0,0,0,0,0,0,0,0,0,0,0,0],"sum_hessian":[1.4981865E1,2.527135E0,1.245473E1,1.0883238E0,1.4388111E0,3.737299E0,8.717431E0,2.2195003E0,1.5177985E0,1.5001788E0,7.2172523E0,1.1426544E0,1.0768459E0,1.0690614E0,6.148191E0,1.2094399E0,4.938751E0,1.5339911E0,3.40476E0],"tree_param":{"num_deleted":"0","num_feature":"4","num_nodes":"19","size_leaf_vector":"1"}},{"base_weights":[2.1152636E-3,4.264329E-2,-1.701803E-1,-1.5151298E-2,9.736143E-2,1.798311E-2,-9.771376E-2,2.0069186E-1,-1.0170997E-1,9.6278945E-3,9.753121E-2,-1.12349264E-1,1.3034614E-3,2.2058703E-1,-1.5544815E-1,7.0625846E-3,1.0600244E-1,-1.0836058E-1,-3.982889E-4],"categories":[],"categories_nodes":[],"categories_segments":[],"categories_sizes":[],"default_left":[0,0,0,0,0,0,0,0,0,0,0,0,0,0,0,0,0,0,0],"id":33,"left_children":[1,3,5,7,-1,-1,-1,9,11,-1,-1,-1,13,15,17,-1,-1,-1,-1],"loss_changes":[1.16731204E-1,2.2472572E-1,1.3355227E-1,2.4744414E-1,0E0,0E0,0E0,6.958085E-2,2.6286808E-1,0E0,0E0,0E0,3.015121E-1,8.7267354E-2,1.6188318E-1,0E0,0E0,0E0,0E0],"parents":[2147483647,0,0,1,1,2,2,3,3,7,7,8,8,12,12,13,13,14,14],"right_children":[2,4,6,8,-1,-1,-1,10,12,-1,-1,-1,14,16,18,-1,-1,-1,-1],"split_conditions":[2.369785E2,2.306545E2,-9.600067E-1,3.295818E-1,9.736143E-2,1.798311E-2,-9.771376E-2,2.9150295E-1,4.834201E-1,9.6278945E-3,9.753121E-2,-1.12349264E-1,7.1381396E-1,2.23247E2,7.989727E-1,7.0625846E-3,1.0600244E-1,-1.0836058E-1,-3.982889E-4],"split_indices":[0,0,3,2,0,0,0,2,2,0,0,0,2,0,2,0,0,0,0],"split_type":[0,0,0,0,0,0,0,0,0,0,0,0,0,0,0,0,0,0,0],"sum_hessian":[1.467769E1,1.2491816E1,2.185874E0,1.1151721E1,1.3400946E0,1.1294059E0,1.056468E0,2.8146157E0,8.337106E0,1.7292098E0,1.085406E0,1.5629274E0,6.774178E0,2.6540813E0,4.1200967E0,1.5422627E0,1.1118187E0,1.1890545E0,2.9310422E0],"tree_param":{"num_deleted":"0","num_feature":"4","num_nodes":"19","size_leaf_vector":"1"}},{"base_weights":[2.5286386E-3,-6.155173E-2,1.1195287E-1,3.4402132E-2,-1.16511494E-1,1.9310072E-1,-3.1729154E-2,-2.3351198E-1,7.879598E-2,2.6629287E-1,-1.0555146E-2,-1.1960449E-1,-6.214911E-2,5.9499715E-2,-3.0571079E-2,1.073941E-1,9.808449E-3,4.6277657E-2,-8.025797E-2],"categories":[],"categories_nodes":[],"categories_segments":[],"categories_sizes":[],"default_left":[0,0,0,0,0,0,0,0,0,0,0,0,0,0,0,0,0,0,0],"id":34,"left_children":[1,3,5,-1,7,9,-1,11,13,15,-1,-1,17,-1,-1,-1,-1,-1,-1],"loss_changes":[1.1507366E-1,1.13850296E-1,1.2736115E-1,0E0,2.1046111E-1,8.895747E-2,0E0,1.311337E-1,1.043747E-1,6.804749E-2,0E0,0E0,2.1408163E-1,0E0,0E0,0E0,0E0,0E0,0E0],"parents":[2147483647,0,0,1,1,2,2,4,4,5,5,7,7,8,8,9,9,12,12],"right_children":[2,4,6,-1,8,10,-1,12,14,16,-1,-1,18,-1,-1,-1,-1,-1,-1],"split_conditions":[1.4199982E0,4.337031E1,3.9400024E0,3.4402132E-2,2.2469E2,2.280785E2,-3.1729154E-2,5.057202E-1,2.355765E2,2.9600067E0,-1.0555146E-2,-1.1960449E-1,5.5928867E1,5.9499715E-2,-3.0571079E-2,1.073941E-1,9.808449E-3,4.6277657E-2,-8.025797E-2],"split_indices":[3,1,3,0,0,0,0,2,0,3,0,0,1,0,0,0,0,0,0],"split_type":[0,0,0,0,0,0,0,0,0,0,0,0,0,0,0,0,0,0,0],"sum_hessian":[1.4428352E1,9.375451E0,5.0529013E0,1.9705348E0,7.4049163E0,3.7633002E0,1.2896011E0,4.5084696E0,2.8964465E0,2.7235768E0,1.0397234E0,1.6202463E0,2.8882234E0,1.6845212E0,1.2119253E0,1.5735099E0,1.1500669E0,1.527541E0,1.3606825E0],"tree_param":{"num_deleted":"0","num_feature":"4","num_nodes":"19","size_leaf_vector":"1"}},{"base_weights":[7.8470155E-4,-5.4571677E-2,3.5147958E-2,2.4642956E-1,-4.8923314E-2,1.3939976E-2,1.0811664E-1,-1.0561811E-1,2.0171769E-2,-6.586074E-2,7.6525666E-2,1.9125281E-1,-1.3688889E-1,1.3439833E-2,1.18867874E-1,-9.463749E-2,3.5914134E-2],"categories":[],"categories_nodes":[],"categories_segments":[],"categories_sizes":[],"default_left":[0,0,0,0,0,0,0,0,0,0,0,0,0,0,0,0,0],"id":35,"left_children":[1,-1,3,5,7,-1,-1,-1,9,-1,11,13,15,-1,-1,-1,-1],"loss_changes":[1.0187212E-1,0E0,2.5432327E-1,7.549751E-2,2.2893557E-1,0E0,0E0,0E0,1.4608905E-1,0E0,2.3407039E-1,1.60541E-1,2.0049527E-1,0E0,0E0,0E0,0E0],"parents":[2147483647,0,0,2,2,3,3,4,4,8,8,10,10,11,11,12,12],"right_children":[2,-1,4,6,8,-1,-1,-1,10,-1,12,14,16,-1,-1,-1,-1],"split_conditions":[-2.9199982E0,-5.4571677E-2,4.60212E1,2.9150295E-1,4.680855E-1,1.3939976E-2,1.0811664E-1,-1.0561811E-1,2.00657E2,-6.586074E-2,6.116571E1,7.989727E-1,2.29535E2,1.3439833E-2,1.18867874E-1,-9.463749E-2,3.5914134E-2],"split_indices":[3,0,1,2,2,0,0,0,0,0,1,2,0,0,0,0,0],"split_type":[0,0,0,0,0,0,0,0,0,0,0,0,0,0,0,0,0],"sum_hessian":[1.4208833E1,1.5697484E0,1.2639085E1,3.0479662E0,9.591118E0,1.6175016E0,1.4304647E0,1.0201534E0,8.570965E0,1.0802668E0,7.490698E0,4.939286E0,2.5514116E0,3.5916307E0,1.3476553E0,1.3692136E0,1.1821982E0],"tree_param":{"num_deleted":"0","num_feature":"4","num_nodes":"17","size_leaf_vector":"1"}},{"base_weights":[-1.2386225E-3,-6.3659154E-2,1.0602357E-1,-1.2225149E-1,1.0077767E-1,1.8157889E-1,-2.8066084E-2,7.2209336E-2,-2.9030657E-1,7.144466E-2,-2.3044093E-2,8.4102966E-2,6.6728587E-3,8.324628E-2,-5.368767E-2,-1.4372434E-1,-6.4330675E-2,1.7007094E-2,-4.4386968E-2],"categories":[],"categories_nodes":[],"categories_segments":[],"categories_sizes":[],"default_left":[0,0,0,0,0,0,0,0,0,0,0,0,0,0,0,0,0,0,0],"id":36,"left_children":[1,3,5,7,9,11,-1,13,15,-1,-1,-1,-1,-1,-1,-1,17,-1,-1],"loss_changes":[1.0699745E-1,1.0953109E-1,1.0569989E-1,2.7883595E-1,9.633084E-2,6.627245E-2,0E0,2.7955377E-1,1.5824226E-1,0E0,0E0,0E0,0E0,0E0,0E0,0E0,4.0493272E-2,0E0,0E0],"parents":[2147483647,0,0,1,1,2,2,3,3,4,4,5,5,7,7,8,8,16,16],"right_children":[2,4,6,8,10,12,-1,14,16,-1,-1,-1,-1,-1,-1,-1,18,-1,-1],"split_conditions":[1.4199982E0,5.7358555E1,3.9400024E0,2.18373E2,8.7556964E-1,7.079388E-1,-2.8066084E-2,-1.3000488E-1,2.2469E2,7.144466E-2,-2.3044093E-2,8.4102966E-2,6.6728587E-3,8.324628E-2,-5.368767E-2,-1.4372434E-1,2.34605E2,1.7007094E-2,-4.4386968E-2],"split_indices":[3,1,3,0,2,2,0,3,0,0,0,0,0,0,0,0,0,0,0],"split_type":[0,0,0,0,0,0,0,0,0,0,0,0,0,0,0,0,0,0,0],"sum_hessian":[1.3972763E1,9.089624E0,4.8831387E0,6.890823E0,2.198802E0,3.607576E0,1.2755626E0,3.4588375E0,3.4319851E0,1.0475233E0,1.1512787E0,1.7582681E0,1.8493077E0,1.8456286E0,1.6132089E0,1.2596508E0,2.1723344E0,1.0193117E0,1.1530226E0],"tree_param":{"num_deleted":"0","num_feature":"4","num_nodes":"19","size_leaf_vector":"1"}},{"base_weights":[-3.0024152E-3,-3.5844427E-2,5.5793036E-2,5.3993206E-2,-2.130926E-1,-2.0419938E-2,1.0181854E-1,1.1071576E-2,-1.1067766E-1,6.6875845E-2,-9.403843E-2,-1.0292858E-1,2.3210613E-4,2.7534233E-2,-5.1043034E-2],"categories":[],"categories_nodes":[],"categories_segments":[],"categories_sizes":[],"default_left":[0,0,0,0,0,0,0,0,0,0,0,0,0,0,0],"id":37,"left_children":[1,3,-1,5,7,9,-1,-1,-1,-1,11,-1,13,-1,-1],"loss_changes":[9.8515876E-2,2.256195E-1,0E0,2.1338923E-1,1.9769168E-1,1.7599562E-1,0E0,0E0,0E0,0E0,1.7258686E-1,0E0,1.14337675E-1,0E0,0E0],"parents":[2147483647,0,0,1,1,3,3,4,4,5,5,10,10,12,12],"right_children":[2,4,-1,6,8,10,-1,-1,-1,-1,12,-1,14,-1,-1],"split_conditions":[6.489674E1,2.285825E2,5.5793036E-2,2.2469E2,4.8282114E-1,4.337031E1,1.0181854E-1,1.1071576E-2,-1.1067766E-1,6.6875845E-2,-4.2999268E-1,-1.0292858E-1,2.5200043E0,2.7534233E-2,-5.1043034E-2],"split_indices":[1,0,0,0,2,1,0,0,0,0,3,0,3,0,0],"split_type":[0,0,0,0,0,0,0,0,0,0,0,0,0,0,0],"sum_hessian":[1.3799047E1,1.2446365E1,1.3526828E0,8.721356E0,3.7250087E0,7.654137E0,1.0672193E0,1.7233948E0,2.001614E0,1.3067509E0,6.347386E0,1.0181152E0,5.329271E0,3.7666323E0,1.5626386E0],"tree_param":{"num_deleted":"0","num_feature":"4","num_nodes":"15","size_leaf_vector":"1"}},{"base_weights":[-2.294611E-3,-1.6342652E-1,4.055965E-2,-9.63178E-2,1.7941803E-2,1.8937884E-1,-3.803822E-2,3.1004575E-1,-1.2923832E-2,-7.683961E-2,3.5806514E-2,1.2463198E-1,1.4466743E-2,8.472128E-2,-5.88471E-2,-7.1834154E-2,6.642099E-2,9.368792E-2,-4.6463568E-2],"categories":[],"categories_nodes":[],"categories_segments":[],"categories_sizes":[],"default_left":[0,0,0,0,0,0,0,0,0,0,0,0,0,0,0,0,0,0,0],"id":38,"left_children":[1,3,5,-1,-1,7,9,11,-1,-1,13,-1,-1,-1,15,-1,17,-1,-1],"loss_changes":[1.07278354E-1,1.3395238E-1,1.5125008E-1,0E0,0E0,1.374344E-1,1.5236965E-1,6.3685894E-2,0E0,0E0,1.9214071E-1,0E0,0E0,0E0,1.5756229E-1,0E0,2.9212978E-1,0E0,0E0],"parents":[2147483647,0,0,1,1,2,2,5,5,6,6,7,7,10,10,14,14,16,16],"right_children":[2,4,6,-1,-1,8,10,12,-1,-1,14,-1,-1,-1,16,-1,18,-1,-1],"split_conditions":[-2E0,2.675546E-1,4.8092903E1,-9.63178E-2,1.7941803E-2,3.857226E-1,5.0597073E1,1.1999512E-1,-1.2923832E-2,-7.683961E-2,5.326732E1,1.2463198E-1,1.4466743E-2,8.472128E-2,2.185445E2,-7.1834154E-2,2.285245E2,9.368792E-2,-4.6463568E-2],"split_indices":[3,2,1,0,0,2,1,3,0,0,1,0,0,0,0,0,0,0,0],"split_type":[0,0,0,0,0,0,0,0,0,0,0,0,0,0,0,0,0,0,0],"sum_hessian":[1.3575971E1,2.2610157E0,1.1314955E1,1.068371E0,1.1926446E0,3.4234476E0,7.891507E0,2.0339E0,1.3895477E0,1.3717235E0,6.519784E0,1.0318292E0,1.0020708E0,1.2582233E0,5.2615604E0,1.7815732E0,3.4799874E0,1.4536973E0,2.0262902E0],"tree_param":{"num_deleted":"0","num_feature":"4","num_nodes":"19","size_leaf_vector":"1"}},{"base_weights":[9.123355E-4,-6.6522226E-2,1.1507816E-1,-1.21560276E-1,8.844624E-2,1.7191371E-1,-1.5353001E-2,5.520334E-2,-2.7564877E-1,6.122448E-2,-2.2400307E-2,7.9704285E-2,2.1171805E-3,7.261743E-2,-5.0188717E-2,-1.498364E-2,-1.2522918E-1],"categories":[],"categories_nodes":[],"categories_segments":[],"categories_sizes":[],"default_left":[0,0,0,0,0,0,0,0,0,0,0,0,0,0,0,0,0],"id":39,"left_children":[1,3,5,7,9,11,-1,13,15,-1,-1,-1,-1,-1,-1,-1,-1],"loss_changes":[1.182886E-1,9.321001E-2,6.268218E-2,2.2100127E-1,7.3946655E-2,6.736384E-2,0E0,2.2142461E-1,1.1366212E-1,0E0,0E0,0E0,0E0,0E0,0E0,0E0,0E0],"parents":[2147483647,0,0,1,1,2,2,3,3,4,4,5,5,7,7,8,8],"right_children":[2,4,6,8,10,12,-1,14,16,-1,-1,-1,-1,-1,-1,-1,-1],"split_conditions":[1.4199982E0,5.7358555E1,3.9400024E0,2.18373E2,6.192234E1,2.23658E2,-1.5353001E-2,-1.3000488E-1,4.592329E1,6.122448E-2,-2.2400307E-2,7.9704285E-2,2.1171805E-3,7.261743E-2,-5.0188717E-2,-1.498364E-2,-1.2522918E-1],"split_indices":[3,1,3,0,1,0,0,3,1,0,0,0,0,0,0,0,0],"split_type":[0,0,0,0,0,0,0,0,0,0,0,0,0,0,0,0,0],"sum_hessian":[1.337035E1,8.667827E0,4.7025237E0,6.555263E0,2.1125634E0,3.4791207E0,1.223403E0,3.3518775E0,3.2033856E0,1.0892255E0,1.023338E0,1.8278722E0,1.6512487E0,1.7740902E0,1.5777874E0,1.7576469E0,1.4457387E0],"tree_param":{"num_deleted":"0","num_feature":"4","num_nodes":"17","size_leaf_vector":"1"}},{"base_weights":[-3.0064894E-4,-5.6201708E-2,3.48043E-2,7.5941116E-2,-1.7816199E-2,-8.714575E-2,2.000977E-1,-3.415355E-1,4.4088587E-2,7.775829E-2,1.2112606E-2,-1.6103465E-2,-1.3692667E-1,8.297987E-2,-6.6903025E-2,-8.293639E-2,1.6822368E-2],"categories":[],"categories_nodes":[],"categories_segments":[],"categories_sizes":[],"default_left":[0,0,0,0,0,0,0,0,0,0,0,0,0,0,0,0,0],"id":40,"left_children":[1,-1,3,-1,5,7,9,11,13,-1,-1,-1,-1,-1,15,-1,-1],"loss_changes":[9.983629E-2,0E0,1.5167531E-1,0E0,1.8749289E-1,3.233952E-1,1.8042468E-2,8.3227485E-2,1.9859622E-1,0E0,0E0,0E0,0E0,0E0,1.5798049E-1,0E0,0E0],"parents":[2147483647,0,0,2,2,4,4,5,5,6,6,7,7,8,8,14,14],"right_children":[2,-1,4,-1,6,8,10,12,14,-1,-1,-1,-1,-1,16,-1,-1],"split_conditions":[1.4461355E-1,-5.6201708E-2,3.2465735E-1,7.5941116E-2,2.327925E2,4.9039764E1,7.2458565E-1,2.201805E2,6.4874613E-1,7.775829E-2,1.2112606E-2,-1.6103465E-2,-1.3692667E-1,8.297987E-2,2.021645E2,-8.293639E-2,1.6822368E-2],"split_indices":[2,0,2,0,0,1,2,0,2,0,0,0,0,0,0,0,0],"split_type":[0,0,0,0,0,0,0,0,0,0,0,0,0,0,0,0,0],"sum_hessian":[1.3212074E1,1.402586E0,1.1809488E1,1.5534214E0,1.0256066E1,8.235897E0,2.0201693E0,2.257461E0,5.9784365E0,1.0199951E0,1.0001743E0,1.0625043E0,1.1949569E0,1.4496205E0,4.5288157E0,1.2133245E0,3.3154914E0],"tree_param":{"num_deleted":"0","num_feature":"4","num_nodes":"17","size_leaf_vector":"1"}},{"base_weights":[-2.256108E-3,-5.99972E-2,1.3418907E-1,1.0319882E-3,-8.752763E-2,-2.8236391E-2,1.0347116E-1,-7.867691E-2,7.952546E-2,5.275316E-2,-6.62411E-2,-7.826487E-2,-3.5272678E-3,2.1798031E-1,-1.6889657E-1,2.2518922E-2,7.877417E-2,-8.688578E-2,3.0187018E-2],"categories":[],"categories_nodes":[],"categories_segments":[],"categories_sizes":[],"default_left":[0,0,0,0,0,0,0,0,0,0,0,0,0,0,0,0,0,0,0],"id":41,"left_children":[1,3,5,7,-1,9,-1,11,-1,-1,-1,-1,13,15,17,-1,-1,-1,-1],"loss_changes":[1.1874333E-1,1.4970985E-1,1.6329826E-1,2.1781553E-1,0E0,1.7472348E-1,0E0,1.0806286E-1,0E0,0E0,0E0,0E0,2.8036404E-1,1.1878908E-3,1.7133668E-1,0E0,0E0,0E0,0E0],"parents":[2147483647,0,0,1,1,2,2,3,3,5,5,7,7,12,12,13,13,14,14],"right_children":[2,4,6,8,-1,10,-1,12,-1,-1,-1,-1,14,16,18,-1,-1,-1,-1],"split_conditions":[2.2400055E0,9.088277E-1,5.492242E1,5.7358555E1,-8.752763E-2,5.013619E-1,1.0347116E-1,-2.9199982E0,7.952546E-2,5.275316E-2,-6.62411E-2,-7.826487E-2,-1.3000488E-1,4.493962E1,8.800049E-1,2.2518922E-2,7.877417E-2,-8.688578E-2,3.0187018E-2],"split_indices":[3,2,1,1,0,2,0,3,0,0,0,0,3,1,3,0,0,0,0],"split_type":[0,0,0,0,0,0,0,0,0,0,0,0,0,0,0,0,0,0,0],"sum_hessian":[1.3049941E1,9.563238E0,3.4867032E0,8.357916E0,1.2053217E0,2.4579988E0,1.0287043E0,6.9592023E0,1.3987138E0,1.2354887E0,1.2225101E0,1.3104371E0,5.648765E0,2.2785578E0,3.3702075E0,1.1800901E0,1.0984677E0,2.2761195E0,1.0940881E0],"tree_param":{"num_deleted":"0","num_feature":"4","num_nodes":"19","size_leaf_vector":"1"}},{"base_weights":[2.0237705E-3,4.6985954E-2,-1.6341338E-1,-1.3978302E-2,1.0228319E-1,4.0469947E-3,-7.633726E-2,7.242634E-2,-7.614027E-2,-7.868308E-2,-8.646116E-3,4.9034968E-2,-7.723827E-2,-7.7998094E-2,9.986833E-3],"categories":[],"categories_nodes":[],"categories_segments":[],"categories_sizes":[],"default_left":[0,0,0,0,0,0,0,0,0,0,0,0,0,0,0],"id":42,"left_children":[1,3,5,7,-1,-1,-1,-1,9,-1,11,-1,13,-1,-1],"loss_changes":[1.10615395E-1,2.1368773E-1,5.4659702E-2,1.8692495E-1,0E0,0E0,0E0,0E0,1.145479E-1,0E0,1.0538369E-1,0E0,1.3586533E-1,0E0,0E0],"parents":[2147483647,0,0,1,1,2,2,3,3,8,8,10,10,12,12],"right_children":[2,4,6,8,-1,-1,-1,-1,10,-1,12,-1,14,-1,-1],"split_conditions":[2.360985E2,2.306545E2,-8.0999756E-1,4.337031E1,1.0228319E-1,4.0469947E-3,-7.633726E-2,7.242634E-2,-7.700043E-1,-7.868308E-2,1.6999817E-1,4.9034968E-2,9.4000244E-1,-7.7998094E-2,9.986833E-3],"split_indices":[0,0,3,1,0,0,0,0,3,0,3,0,3,0,0],"split_type":[0,0,0,0,0,0,0,0,0,0,0,0,0,0,0],"sum_hessian":[1.28386E1,1.0657984E1,2.1806166E0,9.616132E0,1.0418518E0,1.0303757E0,1.150241E0,1.3178507E0,8.298281E0,1.4402928E0,6.8579884E0,1.560303E0,5.297685E0,1.4868742E0,3.810811E0],"tree_param":{"num_deleted":"0","num_feature":"4","num_nodes":"15","size_leaf_vector":"1"}},{"base_weights":[1.8642866E-3,-1.4952421E-1,4.2800464E-2,1.6230794E-2,-8.150098E-2,9.290159E-2,-1.0584149E-1,3.1819724E-2,8.010215E-2,-8.075387E-2,3.5710424E-2,1.1865301E-1,-6.9531195E-2,8.915177E-2,1.3117696E-2,-7.878379E-2,5.0724495E-2],"categories":[],"categories_nodes":[],"categories_segments":[],"categories_sizes":[],"default_left":[0,0,0,0,0,0,0,0,0,0,0,0,0,0,0,0,0],"id":43,"left_children":[1,3,5,-1,-1,7,9,11,-1,-1,-1,13,-1,-1,15,-1,-1],"loss_changes":[9.103086E-2,9.252941E-2,9.567553E-2,0E0,0E0,8.885046E-2,1.559449E-1,2.085847E-1,0E0,0E0,0E0,1.2068317E-1,0E0,0E0,2.6810825E-1,0E0,0E0],"parents":[2147483647,0,0,1,1,2,2,5,5,6,6,7,7,11,11,14,14],"right_children":[2,4,6,-1,-1,8,10,12,-1,-1,-1,14,-1,-1,16,-1,-1],"split_conditions":[-2E0,-3.3200073E0,6.116571E1,1.6230794E-2,-8.150098E-2,7.989727E-1,6.489674E1,5.326732E1,8.010215E-2,-8.075387E-2,3.5710424E-2,2.039495E2,-6.9531195E-2,8.915177E-2,2.233915E2,-7.878379E-2,5.0724495E-2],"split_indices":[3,3,1,0,0,2,1,1,0,0,0,0,0,0,0,0,0],"split_type":[0,0,0,0,0,0,0,0,0,0,0,0,0,0,0,0,0],"sum_hessian":[1.2656207E1,2.1292574E0,1.052695E1,1.0072142E0,1.1220431E0,8.153676E0,2.3732734E0,6.911618E0,1.242058E0,1.2606168E0,1.1126566E0,5.612559E0,1.2990595E0,1.4105933E0,4.2019653E0,1.2710534E0,2.930912E0],"tree_param":{"num_deleted":"0","num_feature":"4","num_nodes":"17","size_leaf_vector":"1"}},{"base_weights":[-1.4595926E-3,-1.1589616E-1,5.789756E-2,3.1894207E-2,-2.5791767E-1,1.3717242E-1,-1.4789857E-1,4.471779E-3,-1.20145366E-1,2.322192E-1,-4.021189E-2,8.505244E-4,-6.644823E-2,-9.352058E-3,1.22721374E-1,7.126046E-2,-6.265356E-2],"categories":[],"categories_nodes":[],"categories_segments":[],"categories_sizes":[],"default_left":[0,0,0,0,0,0,0,0,0,0,0,0,0,0,0,0,0],"id":44,"left_children":[1,3,5,-1,7,9,11,-1,-1,13,-1,-1,-1,15,-1,-1,-1],"loss_changes":[9.795765E-2,1.827243E-1,1.7547382E-1,0E0,1.3409808E-1,2.2151592E-1,3.531027E-2,0E0,0E0,2.531142E-1,0E0,0E0,0E0,2.1922892E-1,0E0,0E0,0E0],"parents":[2147483647,0,0,1,1,2,2,4,4,5,5,6,6,9,9,13,13],"right_children":[2,4,6,-1,8,10,12,-1,-1,14,-1,-1,-1,16,-1,-1,-1],"split_conditions":[2.07057E2,2.01897E2,2.360985E2,3.1894207E-2,-8.999634E-2,2.8499908E0,-8.0999756E-1,4.471779E-3,-1.20145366E-1,2.999878E-1,-4.021189E-2,8.505244E-4,-6.644823E-2,4.449648E1,1.22721374E-1,7.126046E-2,-6.265356E-2],"split_indices":[0,0,0,0,3,3,3,0,0,3,0,0,0,1,0,0,0],"split_type":[0,0,0,0,0,0,0,0,0,0,0,0,0,0,0,0,0],"sum_hessian":[1.2433318E1,3.9211278E0,8.512191E0,1.6269646E0,2.2941632E0,6.3857765E0,2.126414E0,1.0947112E0,1.1994522E0,4.835084E0,1.5506923E0,1.0130426E0,1.1133716E0,2.4439232E0,2.391161E0,1.0069987E0,1.4369246E0],"tree_param":{"num_deleted":"0","num_feature":"4","num_nodes":"17","size_leaf_vector":"1"}},{"base_weights":[-5.0556017E-3,-3.9686542E-2,5.5363446E-2,4.1979574E-2,-1.9553293E-1,-3.8844332E-2,8.6549E-2,-9.917178E-2,-6.4639165E-3,4.4703018E-2,-7.276084E-2,-7.56007E-2,7.92126E-2,1.8739896E-2,-8.3039775E-2],"categories":[],"categories_nodes":[],"categories_segments":[],"categories_sizes":[],"default_left":[0,0,0,0,0,0,0,0,0,0,0,0,0,0,0],"id":45,"left_children":[1,3,-1,5,7,9,-1,-1,-1,11,-1,13,-1,-1,-1],"loss_changes":[9.4096944E-2,1.6090377E-1,0E0,1.844593E-1,9.3951404E-2,1.372819E-1,0E0,0E0,0E0,1.8127042E-1,0E0,1.48552E-1,0E0,0E0,0E0],"parents":[2147483647,0,0,1,1,3,3,4,4,5,5,9,9,11,11],"right_children":[2,4,-1,6,8,10,-1,-1,-1,12,-1,14,-1,-1,-1],"split_conditions":[6.489674E1,2.285825E2,5.5363446E-2,2.24391E2,2.327925E2,2.208625E2,8.6549E-2,-9.917178E-2,-6.4639165E-3,2.09207E2,-7.276084E-2,2.039495E2,7.92126E-2,1.8739896E-2,-8.3039775E-2],"split_indices":[1,0,0,0,0,0,0,0,0,0,0,0,0,0,0],"split_type":[0,0,0,0,0,0,0,0,0,0,0,0,0,0,0],"sum_hessian":[1.2215422E1,1.0997404E1,1.2180171E0,7.6954794E0,3.301925E0,6.4298086E0,1.2656709E0,1.3523271E0,1.949598E0,5.113119E0,1.3166891E0,3.7252226E0,1.3878967E0,2.6181307E0,1.1070919E0],"tree_param":{"num_deleted":"0","num_feature":"4","num_nodes":"15","size_leaf_vector":"1"}},{"base_weights":[-5.1910095E-3,-5.8234148E-2,3.2871872E-2,2.0395938E-1,-3.1056477E-2,7.628352E-2,2.059533E-2,-6.910311E-2,4.529448E-2,-8.984027E-2,1.9197959E-1,3.7349343E-2,-2.0034435E-1,9.2809275E-2,-1.8247107E-2,-9.04038E-2,-8.08301E-3],"categories":[],"categories_nodes":[],"categories_segments":[],"categories_sizes":[],"default_left":[0,0,0,0,0,0,0,0,0,0,0,0,0,0,0,0,0],"id":46,"left_children":[1,-1,3,5,7,-1,-1,-1,9,11,13,-1,15,-1,-1,-1,-1],"loss_changes":[1.0000326E-1,0E0,1.3420756E-1,5.096376E-3,1.5314235E-1,0E0,0E0,0E0,1.6822839E-1,1.3497613E-1,1.36659E-1,0E0,5.227825E-2,0E0,0E0,0E0,0E0],"parents":[2147483647,0,0,2,2,3,3,4,4,8,8,9,9,10,10,12,12],"right_children":[2,-1,4,6,8,-1,-1,-1,10,12,14,-1,16,-1,-1,-1,-1],"split_conditions":[1.4461355E-1,-5.8234148E-2,4.60212E1,4.422043E1,5.264884E-1,7.628352E-2,2.059533E-2,-6.910311E-2,2.24391E2,1.6999817E-1,2.355765E2,3.7349343E-2,1.4199982E0,9.2809275E-2,-1.8247107E-2,-9.04038E-2,-8.08301E-3],"split_indices":[2,0,1,1,2,0,0,0,0,3,0,0,3,0,0,0,0],"split_type":[0,0,0,0,0,0,0,0,0,0,0,0,0,0,0,0,0],"sum_hessian":[1.2019479E1,1.3280356E0,1.0691443E1,2.3124197E0,8.379024E0,1.0446707E0,1.2677491E0,1.7622876E0,6.6167355E0,3.6456673E0,2.9710684E0,1.1970965E0,2.4485707E0,1.8761686E0,1.0948999E0,1.0810378E0,1.3675331E0],"tree_param":{"num_deleted":"0","num_feature":"4","num_nodes":"17","size_leaf_vector":"1"}},{"base_weights":[-4.8135747E-3,-5.007829E-2,4.7695793E-2,1.1158401E-2,-8.067569E-2,-1.4050518E-1,1.5737024E-1,1.3535135E-2,-1.0471047E-1,-3.273913E-2,2.7833268E-1,-5.144376E-2,5.1151704E-2,1.24563225E-1,2.6117437E-2],"categories":[],"categories_nodes":[],"categories_segments":[],"categories_sizes":[],"default_left":[0,0,0,0,0,0,0,0,0,0,0,0,0,0,0],"id":47,"left_children":[1,3,-1,5,-1,7,9,11,-1,-1,13,-1,-1,-1,-1],"loss_changes":[1.03414334E-1,1.483641E-1,0E0,2.3134717E-1,0E0,1.70467E-1,2.0045038E-1,1.4338082E-1,0E0,0E0,6.623301E-2,0E0,0E0,0E0,0E0],"parents":[2147483647,0,0,1,1,3,3,5,5,6,6,7,7,10,10],"right_children":[2,4,-1,6,-1,8,10,12,-1,-1,14,-1,-1,-1,-1],"split_conditions":[3.0499878E0,9.088277E-1,4.7695793E-2,4.834201E-1,-8.067569E-2,4.5454742E1,-9.00116E-2,1.4461355E-1,-1.0471047E-1,-3.273913E-2,5.263467E1,-5.144376E-2,5.1151704E-2,1.24563225E-1,2.6117437E-2],"split_indices":[3,2,0,2,0,1,3,2,0,0,1,0,0,0,0],"split_type":[0,0,0,0,0,0,0,0,0,0,0,0,0,0,0],"sum_hessian":[1.187405E1,9.847141E0,2.0269094E0,8.435659E0,1.4114817E0,4.1597924E0,4.275867E0,2.9302888E0,1.2295038E0,1.3654236E0,2.9104433E0,1.3025733E0,1.6277155E0,1.0140328E0,1.8964103E0],"tree_param":{"num_deleted":"0","num_feature":"4","num_nodes":"15","size_leaf_vector":"1"}},{"base_weights":[-4.8989262E-3,-5.7355847E-2,2.9468672E-2,-4.6646792E-2,2.0827492E-1,-1.9046144E-1,2.8919209E-2,8.9658273E-4,9.914713E-2,3.7634096E-3,-8.855941E-2,1.7656311E-1,-1.292971E-1,-1.145096E-3,1.0207272E-1,-2.922424E-3,-6.6546954E-2],"categories":[],"categories_nodes":[],"categories_segments":[],"categories_sizes":[],"default_left":[0,0,0,0,0,0,0,0,0,0,0,0,0,0,0,0,0],"id":48,"left_children":[1,-1,3,5,7,9,11,-1,-1,-1,-1,13,15,-1,-1,-1,-1],"loss_changes":[8.681344E-2,0E0,1.6720076E-1,1.0259129E-1,9.0286896E-2,7.1932025E-2,1.7990959E-1,0E0,0E0,0E0,0E0,1.16478615E-1,4.0132143E-2,0E0,0E0,0E0,0E0],"parents":[2147483647,0,0,2,2,3,3,4,4,5,5,6,6,11,11,12,12],"right_children":[2,-1,4,6,8,10,12,-1,-1,-1,-1,14,16,-1,-1,-1,-1],"split_conditions":[2.00657E2,-5.7355847E-2,2.2400055E0,2.07057E2,4.962104E1,-8.999634E-2,2.285245E2,8.9658273E-4,9.914713E-2,3.7634096E-3,-8.855941E-2,2.999878E-1,8.370577E-1,-1.145096E-3,1.0207272E-1,-2.922424E-3,-6.6546954E-2],"split_indices":[0,0,3,0,1,3,0,0,0,0,0,3,2,0,0,0,0],"split_type":[0,0,0,0,0,0,0,0,0,0,0,0,0,0,0,0,0],"sum_hessian":[1.167984E1,1.1084713E0,1.0571369E1,7.9333625E0,2.638007E0,2.2089324E0,5.72443E0,1.3667389E0,1.271268E0,1.0513583E0,1.1575739E0,2.9011662E0,2.823264E0,1.8448067E0,1.0563595E0,1.7139288E0,1.109335E0],"tree_param":{"num_deleted":"0","num_feature":"4","num_nodes":"17","size_leaf_vector":"1"}},{"base_weights":[-3.9661517E-3,-3.8173657E-2,5.4542985E-2,1.0364093E-2,-7.184019E-2,6.46573E-2,-4.297078E-2,-6.6831924E-2,2.610028E-2,-4.5391228E-2,6.127984E-2,-7.277298E-2,3.6958747E-2],"categories":[],"categories_nodes":[],"categories_segments":[],"categories_sizes":[],"default_left":[0,0,0,0,0,0,0,0,0,0,0,0,0],"id":49,"left_children":[1,3,-1,5,-1,-1,7,-1,9,11,-1,-1,-1],"loss_changes":[8.653393E-2,1.13898546E-1,0E0,1.2028701E-1,0E0,0E0,1.1618095E-1,0E0,1.02452405E-1,2.306335E-1,0E0,0E0,0E0],"parents":[2147483647,0,0,1,1,3,3,6,6,8,8,9,9],"right_children":[2,4,-1,6,-1,-1,8,-1,10,12,-1,-1,-1],"split_conditions":[6.489674E1,2.3686E2,5.4542985E-2,4.337031E1,-7.184019E-2,6.46573E-2,-1.8000793E-1,-6.6831924E-2,5.7358555E1,9.4000244E-1,6.127984E-2,-7.277298E-2,3.6958747E-2],"split_indices":[1,0,0,1,0,0,3,0,1,3,0,0,0],"split_type":[0,0,0,0,0,0,0,0,0,0,0,0,0],"sum_hessian":[1.1524684E1,1.0403563E1,1.1211212E0,9.146571E0,1.2569917E0,1.2597599E0,7.886811E0,1.5712749E0,6.315536E0,5.038856E0,1.2766801E0,2.1201606E0,2.9186954E0],"tree_param":{"num_deleted":"0","num_feature":"4","num_nodes":"13","size_leaf_vector":"1"}},{"base_weights":[-2.3581535E-3,-4.1136384E-2,3.57893E-2,1.447422E-1,-8.319357E-2,8.769542E-2,3.985282E-2,-1.8412937E-1,5.3242646E-2,-4.1513644E-2,1.5599754E-1,-3.4449408E-3,-7.531795E-2,-1.6919008E-2,4.2490695E-2,-1.4460682E-2,8.686855E-2],"categories":[],"categories_nodes":[],"categories_segments":[],"categories_sizes":[],"default_left":[0,0,0,0,0,0,0,0,0,0,0,0,0,0,0,0,0],"id":50,"left_children":[1,-1,3,5,7,-1,9,11,13,-1,15,-1,-1,-1,-1,-1,-1],"loss_changes":[6.8332806E-2,0E0,1.4697383E-1,7.810292E-2,8.7064736E-2,0E0,1.15716524E-1,3.6971025E-2,3.8625285E-2,0E0,1.0186618E-1,0E0,0E0,0E0,0E0,0E0,0E0],"parents":[2147483647,0,0,2,2,3,3,4,4,6,6,7,7,8,8,10,10],"right_children":[2,-1,4,6,8,-1,10,12,14,-1,16,-1,-1,-1,-1,-1,-1],"split_conditions":[-2E0,-4.1136384E-2,5.2660805E1,-1.3000488E-1,2.24391E2,8.769542E-2,4.6856144E1,8.299866E-1,6.2870304E1,-4.1513644E-2,2.130005E0,-3.4449408E-3,-7.531795E-2,-1.6919008E-2,4.2490695E-2,-1.4460682E-2,8.686855E-2],"split_indices":[3,0,1,3,0,0,1,3,1,0,3,0,0,0,0,0,0],"split_type":[0,0,0,0,0,0,0,0,0,0,0,0,0,0,0,0,0],"sum_hessian":[1.133747E1,1.9288687E0,9.408601E0,4.798295E0,4.6103063E0,1.2511092E0,3.5471857E0,2.4489813E0,2.1613252E0,1.323995E0,2.2231905E0,1.0114715E0,1.4375098E0,1.1262923E0,1.0350329E0,1.1318574E0,1.0913333E0],"tree_param":{"num_deleted":"0","num_feature":"4","num_nodes":"17","size_leaf_vector":"1"}},{"base_weights":[4.934758E-4,-2.8591547E-2,4.677847E-2,2.0397607E-2,-7.6112576E-2,-5.18082E-2,8.257851E-2,7.4074134E-2,9.648234E-3,-1.490728E-1,1.2996414E-1,-7.2460786E-2,8.6978525E-3,1.10361174E-1,-1.972599E-2],"categories":[],"categories_nodes":[],"categories_segments":[],"categories_sizes":[],"default_left":[0,0,0,0,0,0,0,0,0,0,0,0,0,0,0],"id":51,"left_children":[1,3,-1,5,-1,-1,7,-1,9,11,13,-1,-1,-1,-1],"loss_changes":[5.9850574E-2,1.2832162E-1,0E0,1.3548324E-1,0E0,0E0,9.725505E-2,0E0,1.4920795E-1,6.293723E-2,2.2913316E-1,0E0,0E0,0E0,0E0],"parents":[2147483647,0,0,1,1,3,3,6,6,8,8,9,9,10,10],"right_children":[2,4,-1,6,-1,-1,8,-1,10,12,14,-1,-1,-1,-1],"split_conditions":[6.489674E1,6.116571E1,4.677847E-2,-2E0,-7.6112576E-2,-5.18082E-2,-1.3000488E-1,7.4074134E-2,9.4000244E-1,6.7449045E-1,2.5200043E0,-7.2460786E-2,8.6978525E-3,1.10361174E-1,-1.972599E-2],"split_indices":[1,1,0,3,0,0,3,0,3,2,3,0,0,0,0],"split_type":[0,0,0,0,0,0,0,0,0,0,0,0,0,0,0],"sum_hessian":[1.1252712E1,1.0166421E1,1.0862912E0,9.096307E0,1.0701144E0,1.7828143E0,7.3134923E0,1.514723E0,5.7987695E0,2.3972719E0,3.4014976E0,1.3433003E0,1.0539714E0,1.138266E0,2.2632318E0],"tree_param":{"num_deleted":"0","num_feature":"4","num_nodes":"15","size_leaf_vector":"1"}},{"base_weights":[2.2624678E-3,3.4908302E-2,-3.7405953E-2,-1.8263722E-2,7.663857E-2,1.6775885E-1,-1.0147794E-1,7.1412534E-3,6.8129174E-2,1.0066647E-1,-2.0418946E-1,-4.232786E-2,8.900747E-2,-1.21594295E-1,-4.2743012E-2,5.4881044E-2,-5.747852E-2],"categories":[],"categories_nodes":[],"categories_segments":[],"categories_sizes":[],"default_left":[0,0,0,0,0,0,0,0,0,0,0,0,0,0,0,0,0],"id":52,"left_children":[1,3,-1,5,-1,7,9,-1,-1,11,13,-1,-1,-1,15,-1,-1],"loss_changes":[5.4394137E-2,1.2646496E-1,0E0,1.610123E-1,0E0,2.2371508E-2,1.6692913E-1,0E0,0E0,1.8616779E-1,1.4518836E-1,0E0,0E0,0E0,1.6586669E-1,0E0,0E0],"parents":[2147483647,0,0,1,1,3,3,5,5,6,6,9,9,10,10,14,14],"right_children":[2,4,-1,6,-1,8,10,-1,-1,12,14,-1,-1,-1,16,-1,-1],"split_conditions":[2.369785E2,2.306545E2,-3.7405953E-2,3.295818E-1,7.663857E-2,2.081055E2,2.039495E2,7.1412534E-3,6.8129174E-2,2.00963E2,5.012292E1,-4.232786E-2,8.900747E-2,-1.21594295E-1,5.5928867E1,5.4881044E-2,-5.747852E-2],"split_indices":[0,0,0,2,0,0,0,0,0,0,1,0,0,0,1,0,0],"split_type":[0,0,0,0,0,0,0,0,0,0,0,0,0,0,0,0,0],"sum_hessian":[1.1074629E1,9.385978E0,1.6886503E0,8.301748E0,1.0842302E0,2.2518425E0,6.0499053E0,1.0662601E0,1.1855824E0,2.0450318E0,4.0048738E0,1.0411739E0,1.0038579E0,1.1106914E0,2.8941824E0,1.059243E0,1.8349395E0],"tree_param":{"num_deleted":"0","num_feature":"4","num_nodes":"17","size_leaf_vector":"1"}},{"base_weights":[4.709232E-3,-4.296752E-2,3.563426E-2,6.487551E-2,-3.4596372E-2,-6.6774145E-2,3.8597934E-2,6.2006354E-2,-3.9811537E-2,-5.7107635E-2,8.579923E-2,9.0159304E-2,-4.3488566E-2],"categories":[],"categories_nodes":[],"categories_segments":[],"categories_sizes":[],"default_left":[0,0,0,0,0,0,0,0,0,0,0,0,0],"id":53,"left_children":[1,-1,3,-1,5,-1,7,-1,9,-1,11,-1,-1],"loss_changes":[5.9414085E-2,0E0,1.421902E-1,0E0,1.2566276E-1,0E0,1.00174315E-1,0E0,1.22148335E-1,0E0,2.2887778E-1,0E0,0E0],"parents":[2147483647,0,0,2,2,4,4,6,6,8,8,10,10],"right_children":[2,-1,4,-1,6,-1,8,-1,10,-1,12,-1,-1],"split_conditions":[1.4461355E-1,-4.296752E-2,4.60212E1,6.487551E-2,4.9039764E1,-6.6774145E-2,5.2660805E1,6.2006354E-2,5.7358555E1,-5.7107635E-2,9.088277E-1,9.0159304E-2,-4.3488566E-2],"split_indices":[2,0,1,0,1,0,1,0,1,0,2,0,0],"split_type":[0,0,0,0,0,0,0,0,0,0,0,0,0],"sum_hessian":[1.0871449E1,1.2518212E0,9.619629E0,2.1111248E0,7.508504E0,1.5322614E0,5.9762425E0,1.3805944E0,4.5956483E0,1.8558755E0,2.7397728E0,1.2625637E0,1.4772091E0],"tree_param":{"num_deleted":"0","num_feature":"4","num_nodes":"13","size_leaf_vector":"1"}},{"base_weights":[4.083747E-3,-8.282528E-2,4.9769636E-2,2.7549095E-2,-5.9757754E-2,8.5004725E-2,-2.0981397E-2,-1.810186E-1,7.762232E-2,-7.515825E-2,-6.580951E-3,1.7892314E-1,-2.6559709E-2,9.243554E-2,-3.5087534E-3],"categories":[],"categories_nodes":[],"categories_segments":[],"categories_sizes":[],"default_left":[0,0,0,0,0,0,0,0,0,0,0,0,0,0,0],"id":54,"left_children":[1,3,5,-1,-1,-1,7,9,11,-1,-1,13,-1,-1,-1],"loss_changes":[5.0774653E-2,1.0820095E-1,1.4354005E-1,0E0,0E0,0E0,1.2958474E-1,2.8686874E-2,1.0387133E-1,0E0,0E0,9.177285E-2,0E0,0E0,0E0],"parents":[2147483647,0,0,1,1,2,2,6,6,7,7,8,8,11,11],"right_children":[2,4,6,-1,-1,-1,8,10,12,-1,-1,14,-1,-1,-1],"split_conditions":[2.07057E2,2.01897E2,2.191E2,2.7549095E-2,-5.9757754E-2,8.5004725E-2,-1.8000793E-1,2.306545E2,2.8499908E0,-7.515825E-2,-6.580951E-3,2.29054E2,-2.6559709E-2,9.243554E-2,-3.5087534E-3],"split_indices":[0,0,0,0,0,0,3,0,3,0,0,0,0,0,0],"split_type":[0,0,0,0,0,0,0,0,0,0,0,0,0,0,0],"sum_hessian":[1.0749723E1,3.4237459E0,7.325978E0,1.4533181E0,1.9704276E0,1.0045741E0,6.3214035E0,2.0913124E0,4.230091E0,1.0553564E0,1.0359561E0,2.5801709E0,1.6499201E0,1.1704608E0,1.4097102E0],"tree_param":{"num_deleted":"0","num_feature":"4","num_nodes":"15","size_leaf_vector":"1"}},{"base_weights":[5.960986E-3,-3.0567588E-2,3.8858265E-2,3.584898E-2,-5.916038E-2,-9.304991E-2,1.7744027E-1,3.0521039E-2,-2.2169372E-1,-6.858095E-3,7.915936E-2,-1.1170809E-3,-1.0362544E-1],"categories":[],"categories_nodes":[],"categories_segments":[],"categories_sizes":[],"default_left":[0,0,0,0,0,0,0,0,0,0,0,0,0],"id":55,"left_children":[1,3,-1,5,-1,7,9,-1,11,-1,-1,-1,-1],"loss_changes":[5.6437466E-2,1.15336716E-1,0E0,1.5961489E-1,0E0,1.4184129E-1,7.66688E-2,0E0,8.451384E-2,0E0,0E0,0E0,0E0],"parents":[2147483647,0,0,1,1,3,3,5,5,6,6,8,8],"right_children":[2,4,-1,6,-1,8,10,-1,12,-1,-1,-1,-1],"split_conditions":[3.0499878E0,8.4834546E-1,3.8858265E-2,4.834201E-1,-5.916038E-2,4.337031E1,8.999634E-2,3.0521039E-2,-1.3000488E-1,-6.858095E-3,7.915936E-2,-1.1170809E-3,-1.0362544E-1],"split_indices":[3,2,0,2,0,1,3,0,3,0,0,0,0],"split_type":[0,0,0,0,0,0,0,0,0,0,0,0,0],"sum_hessian":[1.0626382E1,8.7826805E0,1.8437015E0,6.840907E0,1.9417735E0,3.760411E0,3.0804963E0,1.578888E0,2.1815228E0,1.1502091E0,1.9302872E0,1.1628973E0,1.0186256E0],"tree_param":{"num_deleted":"0","num_feature":"4","num_nodes":"13","size_leaf_vector":"1"}},{"base_weights":[2.2869387E-3,-4.8127364E-2,3.333696E-2,-4.094812E-2,1.5515184E-1,4.417944E-2,-6.8468966E-2,7.469699E-2,-6.184174E-3,-5.8864597E-2,1.3969558E-1,6.433377E-2,-8.233633E-3],"categories":[],"categories_nodes":[],"categories_segments":[],"categories_sizes":[],"default_left":[0,0,0,0,0,0,0,0,0,0,0,0,0],"id":56,"left_children":[1,-1,3,5,7,9,-1,-1,-1,-1,11,-1,-1],"loss_changes":[6.348641E-2,0E0,1.0129034E-1,1.2659858E-1,7.4126594E-2,1.6201821E-1,0E0,0E0,0E0,0E0,6.559973E-2,0E0,0E0],"parents":[2147483647,0,0,2,2,3,3,4,4,5,5,10,10],"right_children":[2,-1,4,6,8,10,-1,-1,-1,-1,12,-1,-1],"split_conditions":[2.00657E2,-4.8127364E-2,1.4199982E0,5.6999207E-1,2.285825E2,1.4461355E-1,-6.8468966E-2,7.469699E-2,-6.184174E-3,-5.8864597E-2,5.5928867E1,6.433377E-2,-8.233633E-3],"split_indices":[0,0,3,3,0,2,0,0,0,0,1,0,0],"split_type":[0,0,0,0,0,0,0,0,0,0,0,0,0],"sum_hessian":[1.050754E1,1.0161194E0,9.491421E0,6.3083286E0,3.1830919E0,4.862305E0,1.4460237E0,1.8035883E0,1.3795036E0,1.0828154E0,3.7794898E0,2.4159734E0,1.3635163E0],"tree_param":{"num_deleted":"0","num_feature":"4","num_nodes":"13","size_leaf_vector":"1"}},{"base_weights":[-2.7127343E-3,-3.3340137E-2,4.6971645E-2,8.1549875E-2,-1.0864299E-1,-4.098221E-2,1.7858967E-1,-2.4591078E-1,2.8736142E-2,4.086556E-3,8.610216E-2,-1.4326948E-2,-1.0458949E-1,7.7819124E-2,-4.679636E-2],"categories":[],"categories_nodes":[],"categories_segments":[],"categories_sizes":[],"default_left":[0,0,0,0,0,0,0,0,0,0,0,0,0,0,0],"id":57,"left_children":[1,3,-1,5,7,-1,9,11,13,-1,-1,-1,-1,-1,-1],"loss_changes":[6.0938835E-2,9.8869056E-2,0E0,1.2369217E-1,1.3366655E-1,0E0,6.1904594E-2,5.383244E-2,2.2158024E-1,0E0,0E0,0E0,0E0,0E0,0E0],"parents":[2147483647,0,0,1,1,3,3,4,4,6,6,7,7,8,8],"right_children":[2,4,-1,6,8,-1,10,12,14,-1,-1,-1,-1,-1,-1],"split_conditions":[6.489674E1,2.184695E2,4.6971645E-2,2.00657E2,4.1999817E-1,-4.098221E-2,4.3047994E-1,3.857226E-1,1.9700012E0,4.086556E-3,8.610216E-2,-1.4326948E-2,-1.0458949E-1,7.7819124E-2,-4.679636E-2],"split_indices":[1,0,0,0,3,0,2,2,3,0,0,0,0,0,0],"split_type":[0,0,0,0,0,0,0,0,0,0,0,0,0,0,0],"sum_hessian":[1.0421318E1,9.4038315E0,1.0174865E0,3.690403E0,5.7134285E0,1.0106325E0,2.6797705E0,2.4627044E0,3.250724E0,1.5091279E0,1.1706425E0,1.3409164E0,1.1217881E0,1.2658468E0,1.9848772E0],"tree_param":{"num_deleted":"0","num_feature":"4","num_nodes":"15","size_leaf_vector":"1"}},{"base_weights":[-1.1249315E-3,-6.354063E-2,8.200553E-2,5.1016256E-2,-1.341094E-1,1.9711049E-1,-2.8756784E-2,-2.1442577E-1,9.854861E-3,9.218379E-2,-6.5740347E-3,-8.554514E-2,-9.485475E-3],"categories":[],"categories_nodes":[],"categories_segments":[],"categories_sizes":[],"default_left":[0,0,0,0,0,0,0,0,0,0,0,0,0],"id":58,"left_children":[1,3,5,-1,7,9,-1,11,-1,-1,-1,-1,-1],"loss_changes":[6.365349E-2,1.3814414E-1,1.2672049E-1,0E0,8.6596474E-2,9.17833E-2,0E0,4.4490278E-2,0E0,0E0,0E0,0E0,0E0],"parents":[2147483647,0,0,1,1,2,2,4,4,5,5,7,7],"right_children":[2,4,6,-1,8,10,-1,12,-1,-1,-1,-1,-1],"split_conditions":[2.2469E2,4.337031E1,2.360985E2,5.1016256E-2,1.4199982E0,1.9700012E0,-2.8756784E-2,6.7449045E-1,9.854861E-3,9.218379E-2,-6.5740347E-3,-8.554514E-2,-9.485475E-3],"split_indices":[0,1,0,0,3,3,0,2,0,0,0,0,0],"split_type":[0,0,0,0,0,0,0,0,0,0,0,0,0],"sum_hessian":[1.0263595E1,5.996773E0,4.2668223E0,1.064228E0,4.9325447E0,2.5247066E0,1.7421159E0,3.1384676E0,1.794077E0,1.4116832E0,1.1130234E0,1.8593005E0,1.2791669E0],"tree_param":{"num_deleted":"0","num_feature":"4","num_nodes":"13","size_leaf_vector":"1"}},{"base_weights":[1.3143916E-3,7.950291E-2,-5.1117998E-2,-3.6378466E-2,1.7714183E-1,-1.4399399E-1,9.025742E-2,8.840153E-2,-6.453048E-3,2.3310032E-2,-2.4223268E-1,8.243984E-2,-3.433022E-2,-1.0524822E-1,4.7208215E-3],"categories":[],"categories_nodes":[],"categories_segments":[],"categories_sizes":[],"default_left":[0,0,0,0,0,0,0,0,0,0,0,0,0,0,0],"id":59,"left_children":[1,3,5,-1,7,9,11,-1,-1,-1,13,-1,-1,-1,-1],"loss_changes":[4.9768057E-2,1.1687385E-1,1.08611666E-1,0E0,9.2268266E-2,1.2292745E-1,1.6372621E-1,0E0,0E0,0E0,1.05116144E-1,0E0,0E0,0E0,0E0],"parents":[2147483647,0,0,1,1,2,2,4,4,5,5,6,6,10,10],"right_children":[2,4,6,-1,8,10,12,-1,-1,-1,14,-1,-1,-1,-1],"split_conditions":[4.6959557E1,1.4461355E-1,5.7358555E1,-3.6378466E-2,3.4395155E-1,2.037305E2,9.088277E-1,8.840153E-2,-6.453048E-3,2.3310032E-2,1.2599945E0,8.243984E-2,-3.433022E-2,-1.0524822E-1,4.7208215E-3],"split_indices":[1,2,1,0,2,0,2,0,0,0,3,0,0,0,0],"split_type":[0,0,0,0,0,0,0,0,0,0,0,0,0,0,0],"sum_hessian":[1.0148382E1,3.8664055E0,6.2819767E0,1.1859417E0,2.6804638E0,3.7801204E0,2.5018563E0,1.3804069E0,1.3000569E0,1.224922E0,2.5551984E0,1.1355668E0,1.3662894E0,1.5448967E0,1.0103017E0],"tree_param":{"num_deleted":"0","num_feature":"4","num_nodes":"15","size_leaf_vector":"1"}},{"base_weights":[2.4400381E-3,-8.027193E-2,4.909846E-2,2.3599545E-2,-5.4331936E-2,6.503659E-2,-1.286169E-2,-6.647497E-2,6.9995366E-2,1.650903E-1,-2.5979182E-2,-1.0652326E-2,8.260137E-2],"categories":[],"categories_nodes":[],"categories_segments":[],"categories_sizes":[],"default_left":[0,0,0,0,0,0,0,0,0,0,0,0,0],"id":60,"left_children":[1,3,5,-1,-1,-1,7,-1,9,11,-1,-1,-1],"loss_changes":[4.6446573E-2,8.399026E-2,8.239935E-2,0E0,0E0,0E0,1.2859413E-1,0E0,9.531495E-2,9.224779E-2,0E0,0E0,0E0],"parents":[2147483647,0,0,1,1,2,2,6,6,8,8,9,9],"right_children":[2,4,6,-1,-1,-1,8,-1,10,12,-1,-1,-1],"split_conditions":[2.09207E2,2.01897E2,2.208625E2,2.3599545E-2,-5.4331936E-2,6.503659E-2,2.24391E2,-6.647497E-2,2.360985E2,4.9803266E-1,-2.5979182E-2,-1.0652326E-2,8.260137E-2],"split_indices":[0,0,0,0,0,0,0,0,0,2,0,0,0],"split_type":[0,0,0,0,0,0,0,0,0,0,0,0,0],"sum_hessian":[1.0014003E1,3.351803E0,6.6622E0,1.3863981E0,1.965405E0,1.1232837E0,5.538916E0,1.098202E0,4.4407144E0,2.7291198E0,1.7115946E0,1.2083769E0,1.5207429E0],"tree_param":{"num_deleted":"0","num_feature":"4","num_nodes":"13","size_leaf_vector":"1"}},{"base_weights":[3.168013E-3,7.948938E-2,-5.4092474E-2,-3.2317363E-2,1.8205155E-1,8.106709E-2,-1.449118E-1,8.0374494E-2,-2.9996228E-3,-3.0216947E-2,7.547002E-2,-7.626492E-2,1.7828481E-2],"categories":[],"categories_nodes":[],"categories_segments":[],"categories_sizes":[],"default_left":[0,0,0,0,0,0,0,0,0,0,0,0,0],"id":61,"left_children":[1,3,5,-1,7,9,11,-1,-1,-1,-1,-1,-1],"loss_changes":[5.1933732E-2,1.1709823E-1,9.549527E-2,0E0,6.289933E-2,1.3020158E-1,1.14262156E-1,0E0,0E0,0E0,0E0,0E0,0E0],"parents":[2147483647,0,0,1,1,2,2,4,4,5,5,6,6],"right_children":[2,4,6,-1,8,10,12,-1,-1,-1,-1,-1,-1],"split_conditions":[4.8092903E1,-2.0200043E0,5.6999207E-1,-3.2317363E-2,3.857226E-1,-7.0007324E-2,2.7599945E0,8.0374494E-2,-2.9996228E-3,-3.0216947E-2,7.547002E-2,-7.626492E-2,1.7828481E-2],"split_indices":[1,3,3,0,2,3,3,0,0,0,0,0,0],"split_type":[0,0,0,0,0,0,0,0,0,0,0,0,0],"sum_hessian":[9.899724E0,4.0771565E0,5.822567E0,1.4252372E0,2.6519194E0,2.383204E0,3.439363E0,1.5596105E0,1.0923089E0,1.3514777E0,1.0317262E0,2.0817297E0,1.3576334E0],"tree_param":{"num_deleted":"0","num_feature":"4","num_nodes":"13","size_leaf_vector":"1"}},{"base_weights":[5.360839E-3,-2.8876085E-2,3.9581027E-2,6.424447E-2,-3.4410734E-2,-6.597424E-2,5.3273574E-2,-3.4526646E-2,1.2527947E-1,-5.40682E-3,7.32236E-2],"categories":[],"categories_nodes":[],"categories_segments":[],"categories_sizes":[],"default_left":[0,0,0,0,0,0,0,0,0,0,0],"id":62,"left_children":[1,-1,3,-1,5,-1,7,-1,9,-1,-1],"loss_changes":[4.1362286E-2,0E0,1.20871544E-1,0E0,1.2611398E-1,0E0,8.207345E-2,0E0,7.909621E-2,0E0,0E0],"parents":[2147483647,0,0,2,2,4,4,6,6,8,8],"right_children":[2,-1,4,-1,6,-1,8,-1,10,-1,-1],"split_conditions":[2.027285E2,-2.8876085E-2,2.184695E2,6.424447E-2,2.239285E2,-6.597424E-2,3.6532632E-1,-3.4526646E-2,2.327925E2,-5.40682E-3,7.32236E-2],"split_indices":[0,0,0,0,0,0,2,0,0,0,0],"split_type":[0,0,0,0,0,0,0,0,0,0,0],"sum_hessian":[9.799424E0,2.01204E0,7.7873845E0,1.7542955E0,6.033089E0,1.4523985E0,4.580691E0,1.1929768E0,3.387714E0,1.9199978E0,1.467716E0],"tree_param":{"num_deleted":"0","num_feature":"4","num_nodes":"11","size_leaf_vector":"1"}},{"base_weights":[4.104047E-3,3.501286E-2,-3.0631004E-2,-3.180989E-2,1.5698215E-1,7.0919864E-2,-1.6179873E-1,7.6499894E-2,-7.941673E-3,-7.779449E-2,7.038339E-2,-6.27722E-2,-1.28662735E-2,-3.6012437E-2,1.4457961E-3],"categories":[],"categories_nodes":[],"categories_segments":[],"categories_sizes":[],"default_left":[0,0,0,0,0,0,0,0,0,0,0,0,0,0,0],"id":63,"left_children":[1,3,-1,5,7,9,11,-1,-1,13,-1,-1,-1,-1,-1],"loss_changes":[3.884449E-2,7.88899E-2,0E0,1.0079834E-1,6.7486085E-2,1.261294E-1,9.403005E-3,0E0,0E0,1.1303756E-2,0E0,0E0,0E0,0E0,0E0],"parents":[2147483647,0,0,1,1,3,3,4,4,5,5,6,6,9,9],"right_children":[2,4,-1,6,8,10,12,-1,-1,14,-1,-1,-1,-1,-1],"split_conditions":[2.360985E2,2.2469E2,-3.0631004E-2,5.1987297E1,1.9700012E0,2.999878E-1,5.6136963E1,7.6499894E-2,-7.941673E-3,2.03896E2,7.038339E-2,-6.27722E-2,-1.28662735E-2,-3.6012437E-2,1.4457961E-3],"split_indices":[0,0,0,1,3,3,1,0,0,0,0,0,0,0,0],"split_type":[0,0,0,0,0,0,0,0,0,0,0,0,0,0,0],"sum_hessian":[9.743925E0,8.066672E0,1.6772534E0,5.689041E0,2.377631E0,3.43153E0,2.2575111E0,1.2954816E0,1.0821495E0,2.0729737E0,1.3585562E0,1.0706973E0,1.1868138E0,1.0718228E0,1.001151E0],"tree_param":{"num_deleted":"0","num_feature":"4","num_nodes":"15","size_leaf_vector":"1"}},{"base_weights":[2.8816687E-3,-2.7426716E-2,8.711782E-2,5.278627E-2,-7.8834504E-2,3.3492718E-2,6.185173E-3,-2.3067555E-1,3.319999E-2,9.002252E-3,-1.0757816E-1,5.3641926E-2,-6.87878E-2,-5.374708E-2,1.733871E-2],"categories":[],"categories_nodes":[],"categories_segments":[],"categories_sizes":[],"default_left":[0,0,0,0,0,0,0,0,0,0,0,0,0,0,0],"id":64,"left_children":[1,3,5,-1,7,-1,-1,9,11,-1,-1,-1,13,-1,-1],"loss_changes":[2.9603535E-2,1.0378229E-1,2.6886538E-3,0E0,1.3617995E-1,0E0,0E0,1.2191886E-1,8.983992E-2,0E0,0E0,0E0,6.334452E-2,0E0,0E0],"parents":[2147483647,0,0,1,1,2,2,4,4,7,7,8,8,12,12],"right_children":[2,4,6,-1,8,-1,-1,10,12,-1,-1,-1,14,-1,-1],"split_conditions":[2.327925E2,4.337031E1,4.7443924E1,5.278627E-2,4.9039764E1,3.3492718E-2,6.185173E-3,3.295818E-1,7.1381396E-1,9.002252E-3,-1.0757816E-1,5.3641926E-2,5.7358555E1,-5.374708E-2,1.733871E-2],"split_indices":[0,1,1,0,1,0,0,2,2,0,0,0,1,0,0],"split_type":[0,0,0,0,0,0,0,0,0,0,0,0,0,0,0],"sum_hessian":[9.659428E0,7.599511E0,2.0599167E0,1.0445031E0,6.555008E0,1.0089942E0,1.0509225E0,2.333471E0,4.221537E0,1.0200799E0,1.3133911E0,1.4286546E0,2.7928824E0,1.2701249E0,1.5227576E0],"tree_param":{"num_deleted":"0","num_feature":"4","num_nodes":"15","size_leaf_vector":"1"}},{"base_weights":[2.9078068E-3,-3.1659164E-2,3.451528E-2,3.0876923E-2,-5.5276547E-2,-9.982637E-2,1.750345E-1,2.3006901E-2,-6.327121E-2,8.80923E-2,6.3157505E-3],"categories":[],"categories_nodes":[],"categories_segments":[],"categories_sizes":[],"default_left":[0,0,0,0,0,0,0,0,0,0,0],"id":65,"left_children":[1,3,-1,5,-1,7,9,-1,-1,-1,-1],"loss_changes":[4.4573337E-2,9.0192795E-2,0E0,1.5195927E-1,0E0,1.0205896E-1,6.243886E-2,0E0,0E0,0E0,0E0],"parents":[2147483647,0,0,1,1,3,3,5,5,6,6],"right_children":[2,4,-1,6,-1,8,10,-1,-1,-1,-1],"split_conditions":[3.0499878E0,8.4834546E-1,3.451528E-2,4.834201E-1,-5.5276547E-2,4.337031E1,6.4874613E-1,2.3006901E-2,-6.327121E-2,8.80923E-2,6.3157505E-3],"split_indices":[3,2,0,2,0,1,2,0,0,0,0],"split_type":[0,0,0,0,0,0,0,0,0,0,0],"sum_hessian":[9.558872E0,7.8552585E0,1.7036135E0,6.1376247E0,1.7176336E0,3.380315E0,2.75731E0,1.4251546E0,1.9551604E0,1.045228E0,1.712082E0],"tree_param":{"num_deleted":"0","num_feature":"4","num_nodes":"11","size_leaf_vector":"1"}},{"base_weights":[5.3051123E-3,-4.0157385E-2,3.6252253E-2,1.6578571E-1,-4.2936124E-2,8.264431E-2,-1.4022096E-2,-1.826402E-1,7.424799E-2,-1.5466719E-2,-6.655237E-2,-3.206297E-2,6.1504837E-2,2.7650315E-2,-3.9489377E-2],"categories":[],"categories_nodes":[],"categories_segments":[],"categories_sizes":[],"default_left":[0,0,0,0,0,0,0,0,0,0,0,0,0,0,0],"id":66,"left_children":[1,-1,3,5,7,-1,-1,9,11,-1,-1,13,-1,-1,-1],"loss_changes":[4.9921535E-2,0E0,1.0300487E-1,1.00353375E-1,1.215385E-1,0E0,0E0,5.5087656E-3,6.632308E-2,0E0,0E0,5.2152105E-2,0E0,0E0,0E0],"parents":[2147483647,0,0,2,2,3,3,4,4,7,7,8,8,11,11],"right_children":[2,-1,4,6,8,-1,-1,10,12,-1,-1,14,-1,-1,-1],"split_conditions":[1.4461355E-1,-4.0157385E-2,4.8092903E1,3.857226E-1,7.232596E-1,8.264431E-2,-1.4022096E-2,6.399994E-1,2.29535E2,-1.5466719E-2,-6.655237E-2,8.545991E-1,6.1504837E-2,2.7650315E-2,-3.9489377E-2],"split_indices":[2,0,1,2,2,0,0,3,0,0,0,2,0,0,0],"split_type":[0,0,0,0,0,0,0,