{"learner":{"attributes":{"scikit_learn":"{\"_estimator_type\": \"classifier\"}"},"feature_names":["sma_20 ","rsi_14 ","bb_percent ","Close_Open "],"feature_types":["float","float","float","float"],"gradient_booster":{"model":{"gbtree_model_param":{"num_parallel_tree":"1","num_trees":"100"},"iteration_indptr":[0,1,2,3,4,5,6,7,8,9,10,11,12,13,14,15,16,17,18,19,20,21,22,23,24,25,26,27,28,29,30,31,32,33,34,35,36,37,38,39,40,41,42,43,44,45,46,47,48,49,50,51,52,53,54,55,56,57,58,59,60,61,62,63,64,65,66,67,68,69,70,71,72,73,74,75,76,77,78,79,80,81,82,83,84,85,86,87,88,89,90,91,92,93,94,95,96,97,98,99,100],"tree_info":[0,0,0,0,0,0,0,0,0,0,0,0,0,0,0,0,0,0,0,0,0,0,0,0,0,0,0,0,0,0,0,0,0,0,0,0,0,0,0,0,0,0,0,0,0,0,0,0,0,0,0,0,0,0,0,0,0,0,0,0,0,0,0,0,0,0,0,0,0,0,0,0,0,0,0,0,0,0,0,0,0,0,0,0,0,0,0,0,0,0,0,0,0,0,0,0,0,0,0,0],"trees":[{"base_weights":[-2.3198176E-8,-3.81104E-1,9.527586E-1,8.482188E-1,-5.8696365E-1,1.398031E0,4.420007E-1,-1.9889912E-3,3.5757706E-1,-2.1935157E-1,-9.920924E-1,6.4826146E-2,4.882091E-1,-5.665605E-2,6.574753E-1,-5.8786166E-1,4.5220035E-1,-1.1301975E0,6.4826146E-2,-2.2099947E-3,9.917354E-1,3.797161E-1,-1.0625472E0,-1.02212034E-1,8.8031554E-1,-1.3270814E0,-4.844982E-2,3.797161E-1,6.4826146E-2,-1.0841983E-1,-4.107951E-1,4.130984E-1,-6.850945E-2,-6.850945E-2,-4.3629178E-1],"categories":[],"categories_nodes":[],"categories_segments":[],"categories_sizes":[],"default_left":[0,0,0,0,0,0,0,0,0,0,0,0,0,0,0,0,0,0,0,0,0,0,0,0,0,0,0,0,0,0,0,0,0,0,0],"id":0,"left_children":[1,3,5,7,9,11,13,-1,-1,15,17,-1,-1,-1,19,21,23,25,-1,-1,27,-1,29,-1,31,33,-1,-1,-1,-1,-1,-1,-1,-1,-1],"loss_changes":[1.715598E1,9.038665E0,2.45224E0,1.5503957E0,4.1756964E0,1.4779425E0,1.1776198E0,0E0,0E0,4.4108963E0,2.5384235E0,0E0,0E0,0E0,1.3406527E0,1.1243133E1,2.5063338E0,2.1696234E0,0E0,0E0,5.765381E-1,0E0,1.5484371E0,0E0,2.7923615E0,1.1006298E0,0E0,0E0,0E0,0E0,0E0,0E0,0E0,0E0,0E0],"parents":[2147483647,0,0,1,1,2,2,3,3,4,4,5,5,6,6,9,9,10,10,14,14,15,15,16,16,17,17,20,20,22,22,24,24,25,25],"right_children":[2,4,6,8,10,12,14,-1,-1,16,18,-1,-1,-1,20,22,24,26,-1,-1,28,-1,30,-1,32,34,-1,-1,-1,-1,-1,-1,-1,-1,-1],"split_conditions":[4.73999E0,2.30075E2,2.784265E2,2.13177E2,3.15678E2,2.1577051E2,4.666153E1,-1.9889912E-3,3.5757706E-1,2.581255E2,4.20298E2,6.4826146E-2,4.882091E-1,-5.665605E-2,3.303945E2,4.0623535E1,5.2695957E1,6.0001038E1,6.4826146E-2,-2.2099947E-3,3.517675E2,3.797161E-1,2.40999E2,-1.02212034E-1,6.7242584E1,1.4017255E-2,-4.844982E-2,3.797161E-1,6.4826146E-2,-1.0841983E-1,-4.107951E-1,4.130984E-1,-6.850945E-2,-6.850945E-2,-4.3629178E-1],"split_indices":[3,0,0,0,0,0,1,0,0,0,0,0,0,0,0,1,1,1,0,0,0,0,0,0,1,2,0,0,0,0,0,0,0,0,0],"split_type":[0,0,0,0,0,0,0,0,0,0,0,0,0,0,0,0,0,0,0,0,0,0,0,0,0,0,0,0,0,0,0,0,0,0,0],"sum_hessian":[4.524862E1,3.2749E1,1.2499619E1,4.2498703E0,2.849913E1,5.7498245E0,6.749794E0,1.4999542E0,2.749916E0,1.5749519E1,1.2749611E1,1.2499619E0,4.4998627E0,1.7499466E0,4.9998474E0,1.0249687E1,5.499832E0,1.1499649E1,1.2499619E0,1.999939E0,2.9999084E0,1.7499466E0,8.499741E0,1.999939E0,3.4998932E0,9.249718E0,2.2499313E0,1.7499466E0,1.2499619E0,3.2499008E0,5.24984E0,2.2499313E0,1.2499619E0,1.2499619E0,7.999756E0],"tree_param":{"num_deleted":"0","num_feature":"4","num_nodes":"35","size_leaf_vector":"1"}},{"base_weights":[2.037648E-2,-7.6289237E-1,3.2686517E-1,2.4828006E-1,-1.022715E0,6.902278E-2,9.6244603E-1,-7.174542E-2,1.8854226E-1,-3.3474568E-1,-5.51456E-2,6.5507954E-1,-2.451499E-1,3.9666364E-1,4.5425642E-1,4.2796686E-1,-3.096557E-2,1.831301E-1,-3.8213408E-1,2.766491E-1,-7.586745E-2,-6.4587694E-1,1.9381998E-1,-7.864773E-1,1.8541792E-1,-9.405383E-2,5.811517E-2,-3.5255912E-1,5.2524567E-2,-7.2662026E-2,-3.4712628E-1,-1.8087761E-1,1.9683455E-1],"categories":[],"categories_nodes":[],"categories_segments":[],"categories_sizes":[],"default_left":[0,0,0,0,0,0,0,0,0,0,0,0,0,0,0,0,0,0,0,0,0,0,0,0,0,0,0,0,0,0,0,0,0],"id":1,"left_children":[1,3,5,7,9,11,13,-1,-1,-1,-1,15,17,-1,19,-1,21,-1,23,-1,25,27,-1,29,31,-1,-1,-1,-1,-1,-1,-1,-1],"loss_changes":[1.1072511E1,3.6640315E0,5.358781E0,7.9113907E-1,6.166849E-1,4.69518E0,1.1320181E0,0E0,0E0,0E0,0E0,4.737349E0,2.197649E0,0E0,1.422197E0,0E0,2.778733E0,0E0,3.6024776E0,0E0,2.836684E-1,1.714767E0,0E0,1.5324922E0,3.0212114E0,0E0,0E0,0E0,0E0,0E0,0E0,0E0,0E0],"parents":[2147483647,0,0,1,1,2,2,3,3,4,4,5,5,6,6,11,11,12,12,14,14,16,16,18,18,20,20,21,21,23,23,24,24],"right_children":[2,4,6,8,10,12,14,-1,-1,-1,-1,16,18,-1,20,-1,22,-1,24,-1,26,28,-1,30,32,-1,-1,-1,-1,-1,-1,-1,-1],"split_conditions":[-4.3099976E0,-1.5700012E1,6.5700073E0,-1.9950012E1,8.305531E-1,2.40999E2,2.90758E2,-7.174542E-2,1.8854226E-1,-3.3474568E-1,-5.51456E-2,6.6437685E-1,7.848173E-2,3.9666364E-1,1.1470001E1,4.2796686E-1,8.838174E-1,1.831301E-1,6.569001E-1,2.766491E-1,3.464025E2,2.19007E2,1.9381998E-1,3.9619154E-1,2.59223E2,-9.405383E-2,5.811517E-2,-3.5255912E-1,5.2524567E-2,-7.2662026E-2,-3.4712628E-1,-1.8087761E-1,1.9683455E-1],"split_indices":[3,3,3,3,2,0,0,0,0,0,0,2,2,0,3,0,2,0,2,0,0,0,0,2,0,0,0,0,0,0,0,0,0],"split_type":[0,0,0,0,0,0,0,0,0,0,0,0,0,0,0,0,0,0,0,0,0,0,0,0,0,0,0,0,0,0,0,0,0],"sum_hessian":[4.4084602E1,1.1979755E1,3.2104847E1,2.4580379E0,9.521718E0,2.3628029E1,8.476819E0,1.2396755E0,1.2183623E0,8.273401E0,1.2483169E0,7.867299E0,1.5760731E1,4.0253305E0,4.4514885E0,3.1950202E0,4.672279E0,1.6981426E0,1.4062588E1,1.9716827E0,2.4798057E0,2.4725835E0,2.1996953E0,7.9867916E0,6.0757966E0,1.2313735E0,1.2484322E0,1.2409667E0,1.2316169E0,3.905212E0,4.081579E0,2.1664374E0,3.909359E0],"tree_param":{"num_deleted":"0","num_feature":"4","num_nodes":"33","size_leaf_vector":"1"}},{"base_weights":[2.6073877E-2,-1.6998585E-1,7.9496676E-1,1.0094996E-1,-6.233459E-1,3.3733258E-1,3.6812764E-1,6.1704177E-1,-1.037672E-1,-7.8613126E-1,4.0666144E-2,-7.744756E-2,6.174295E-1,9.2383826E-1,-8.293555E-2,-6.105459E-1,1.8720275E-1,-9.4767135E-1,8.416637E-2,3.365885E-2,2.3792627E-1,3.374674E-2,3.790397E-1,-1.04980655E-1,-3.378156E-1,8.459596E-1,-1.9462457E-1,-3.678818E-2,-3.1518495E-1,-2.8619123E-1,2.4759799E-1,8.756584E-2,3.383183E-1,-2.1635266E-1,1.1121776E-1],"categories":[],"categories_nodes":[],"categories_segments":[],"categories_sizes":[],"default_left":[0,0,0,0,0,0,0,0,0,0,0,0,0,0,0,0,0,0,0,0,0,0,0,0,0,0,0,0,0,0,0,0,0,0,0],"id":2,"left_children":[1,3,5,7,9,-1,11,13,15,17,-1,-1,19,21,-1,23,25,27,-1,-1,-1,-1,-1,29,-1,31,33,-1,-1,-1,-1,-1,-1,-1,-1],"loss_changes":[6.644838E0,4.3905787E0,8.4472513E-1,2.4849303E0,1.7519255E0,0E0,1.0002792E0,2.078765E0,2.659711E0,2.1808605E0,0E0,0E0,2.7906322E-1,1.2857604E0,0E0,1.5838566E0,3.1154191E0,7.103348E-1,0E0,0E0,0E0,0E0,0E0,4.262557E0,0E0,3.7206864E-1,2.7201693E0,0E0,0E0,0E0,0E0,0E0,0E0,0E0,0E0],"parents":[2147483647,0,0,1,1,2,2,3,3,4,4,6,6,7,7,8,8,9,9,12,12,13,13,15,15,16,16,17,17,23,23,25,25,26,26],"right_children":[2,4,6,8,10,-1,12,14,16,18,-1,-1,20,22,-1,24,26,28,-1,-1,-1,-1,-1,30,-1,32,34,-1,-1,-1,-1,-1,-1,-1,-1],"split_conditions":[6.5700073E0,3.203615E2,2.90758E2,4.3610588E1,6.0001038E1,3.3733258E-1,3.303945E2,2.793215E2,5.2695957E1,4.20298E2,4.0666144E-2,-7.744756E-2,4.702365E1,1.739478E-1,-8.293555E-2,6.073824E-1,5.653551E1,1.4017255E-2,8.416637E-2,3.365885E-2,2.3792627E-1,3.374674E-2,3.790397E-1,4.6264422E-1,-3.378156E-1,1.1100159E0,2.54726E2,-3.678818E-2,-3.1518495E-1,-2.8619123E-1,2.4759799E-1,8.756584E-2,3.383183E-1,-2.1635266E-1,1.1121776E-1],"split_indices":[3,0,0,1,1,0,0,0,1,0,0,0,1,2,0,2,1,2,0,0,0,0,0,2,0,3,0,0,0,0,0,0,0,0,0],"split_type":[0,0,0,0,0,0,0,0,0,0,0,0,0,0,0,0,0,0,0,0,0,0,0,0,0,0,0,0,0,0,0,0,0,0,0],"sum_hessian":[4.218243E1,3.4232437E1,7.9499955E0,2.1913738E1,1.2318698E1,3.5643468E0,4.3856487E0,5.6516967E0,1.6262041E1,1.011346E1,2.2052383E0,1.238589E0,3.1470597E0,4.181831E0,1.4698659E0,5.530802E0,1.0731239E1,8.880206E0,1.233254E0,1.234647E0,1.9124126E0,1.6267757E0,2.555055E0,3.4000063E0,2.1307955E0,3.4916427E0,7.239597E0,1.2281889E0,7.652017E0,1.7643971E0,1.6356091E0,1.8633763E0,1.6282665E0,3.6057138E0,3.6338828E0],"tree_param":{"num_deleted":"0","num_feature":"4","num_nodes":"35","size_leaf_vector":"1"}},{"base_weights":[3.296529E-2,-5.335347E-1,2.574465E-1,2.0075446E-1,-7.3758924E-1,9.281654E-2,6.726447E-1,1.5561976E-1,-5.958922E-2,-2.6343343E-1,-2.7623028E-1,5.0360364E-1,-1.2971516E-1,2.885825E-1,2.3804381E-1,-1.5758644E-1,1.7208733E-2,3.1586477E-1,4.0483918E-2,8.743096E-3,-2.6099032E-1,2.1313089E-1,-1.3670719E-1,-4.5194882E-1,1.6795228E-1,-2.4015565E-1,3.1840673E-1,3.5512816E-2,-9.941294E-2,-2.5460663E-1,4.190038E-2,1.7144385E-1,-1.2704326E-1],"categories":[],"categories_nodes":[],"categories_segments":[],"categories_sizes":[],"default_left":[0,0,0,0,0,0,0,0,0,0,0,0,0,0,0,0,0,0,0,0,0,0,0,0,0,0,0,0,0,0,0,0,0],"id":3,"left_children":[1,3,5,7,9,11,13,-1,-1,-1,15,17,19,-1,21,-1,-1,-1,23,25,-1,-1,27,29,-1,31,-1,-1,-1,-1,-1,-1,-1],"loss_changes":[5.3309994E0,1.933521E0,1.9830303E0,5.319458E-1,3.758459E-1,2.1301804E0,8.191359E-1,0E0,0E0,0E0,3.3637622E-1,2.0284789E0,1.5907764E0,0E0,9.2214346E-1,0E0,0E0,0E0,1.6487125E0,3.92349E0,0E0,0E0,2.0991667E-1,9.059131E-1,0E0,2.0483627E0,0E0,0E0,0E0,0E0,0E0,0E0,0E0],"parents":[2147483647,0,0,1,1,2,2,3,3,4,4,5,5,6,6,10,10,11,11,12,12,14,14,18,18,19,19,22,22,23,23,25,25],"right_children":[2,4,6,8,10,12,14,-1,-1,-1,16,18,20,-1,22,-1,-1,-1,24,26,-1,-1,28,30,-1,32,-1,-1,-1,-1,-1,-1,-1],"split_conditions":[-4.3099976E0,-1.5700012E1,6.5700073E0,3.357815E2,5.628967E1,2.40999E2,1.1470001E1,1.5561976E-1,-5.958922E-2,-2.6343343E-1,2.672535E2,6.6437685E-1,6.7780815E1,2.885825E-1,2.784265E2,-1.5758644E-1,1.7208733E-2,3.1586477E-1,8.838174E-1,6.0001038E1,-2.6099032E-1,2.1313089E-1,5.994593E1,2.19007E2,1.6795228E-1,7.848173E-2,3.1840673E-1,3.5512816E-2,-9.941294E-2,-2.5460663E-1,4.190038E-2,1.7144385E-1,-1.2704326E-1],"split_indices":[3,3,3,0,1,0,3,0,0,0,0,2,1,0,0,0,0,0,2,1,0,0,1,0,0,2,0,0,0,0,0,0,0],"split_type":[0,0,0,0,0,0,0,0,0,0,0,0,0,0,0,0,0,0,0,0,0,0,0,0,0,0,0,0,0,0,0,0,0],"sum_hessian":[3.9840607E1,1.091608E1,2.8924528E1,2.3773546E0,8.538726E0,2.1588165E1,7.336362E0,1.1572002E0,1.2201544E0,5.8527594E0,2.685966E0,7.1417103E0,1.4446456E1,3.676E0,3.6603618E0,1.2088262E0,1.4771398E0,2.6844208E0,4.457289E0,1.3002611E1,1.4438443E0,1.2229792E0,2.4373825E0,2.3545728E0,2.1027164E0,1.1140256E1,1.8623556E0,1.2246217E0,1.2127608E0,1.1493146E0,1.2052581E0,1.6624787E0,9.4777775E0],"tree_param":{"num_deleted":"0","num_feature":"4","num_nodes":"33","size_leaf_vector":"1"}},{"base_weights":[3.8943175E-2,-4.2784363E-1,2.2344032E-1,1.7123373E-1,-6.040233E-1,4.1482773E-1,-3.1508397E-2,-6.877171E-2,1.5374139E-1,-3.0245554E-1,-3.4111458E-1,8.602873E-1,1.7812574E-1,-7.183354E-1,2.2127694E-1,1.5318175E-1,-6.955324E-1,3.2765877E-1,4.3202242E-1,-4.1201624E-1,7.414573E-1,-4.5411218E-2,-2.6603448E-1,-4.3565458E-1,5.26986E-1,-2.6785246E-1,-4.259531E-4,-3.472668E-2,2.080779E-1,-6.1741406E-1,9.1763996E-2,2.3030397E-1,3.1347975E-1,7.302742E-2,-2.5260943E-1,8.372218E-1,-1.06693834E-1,4.7945954E-2,-2.6258317E-1,-8.3217844E-2,2.0530947E-1,2.9732537E-1,4.1349057E-2],"categories":[],"categories_nodes":[],"categories_segments":[],"categories_sizes":[],"default_left":[0,0,0,0,0,0,0,0,0,0,0,0,0,0,0,0,0,0,0,0,0,0,0,0,0,0,0,0,0,0,0,0,0,0,0,0,0,0,0,0,0,0,0],"id":4,"left_children":[1,3,5,7,9,11,13,-1,-1,-1,15,17,19,21,23,-1,25,-1,27,29,31,-1,-1,33,35,-1,-1,-1,-1,37,-1,39,-1,-1,-1,41,-1,-1,-1,-1,-1,-1,-1],"loss_changes":[3.4237282E0,1.2950864E0,1.3965946E0,5.7458377E-1,6.066277E-1,1.5619438E0,2.4312313E0,0E0,0E0,0E0,2.4474473E0,6.280136E-2,4.2561045E0,2.2452402E-1,2.3043947E0,0E0,7.2704124E-1,0E0,5.882894E-1,1.13941E0,7.5787735E-1,0E0,0E0,1.26145E0,2.3522112E0,0E0,0E0,0E0,0E0,1.2108603E0,0E0,1.0383357E0,0E0,0E0,0E0,4.9288464E-1,0E0,0E0,0E0,0E0,0E0,0E0,0E0],"parents":[2147483647,0,0,1,1,2,2,3,3,4,4,5,5,6,6,10,10,11,11,12,12,13,13,14,14,16,16,18,18,19,19,20,20,23,23,24,24,29,29,31,31,35,35],"right_children":[2,4,6,8,10,12,14,-1,-1,-1,16,18,20,22,24,-1,26,-1,28,30,32,-1,-1,34,36,-1,-1,-1,-1,38,-1,40,-1,-1,-1,42,-1,-1,-1,-1,-1,-1,-1],"split_conditions":[-4.3099976E0,-1.5700012E1,2.793215E2,-1.9950012E1,-1.0820007E1,-9.000244E-1,-6.9999695E-1,-6.877171E-2,1.5374139E-1,-3.0245554E-1,-8.169998E0,4.851781E1,3.8599854E0,-2.6399841E0,4.666153E1,1.5318175E-1,8.117929E-1,3.2765877E-1,5.1589874E1,2.558975E2,5.2695957E1,-4.5411218E-2,-2.6603448E-1,7.848173E-2,7.050683E1,-2.6785246E-1,-4.259531E-4,-3.472668E-2,2.080779E-1,2.276515E2,9.1763996E-2,6.099991E0,3.1347975E-1,7.302742E-2,-2.5260943E-1,1.1470001E1,-1.06693834E-1,4.7945954E-2,-2.6258317E-1,-8.3217844E-2,2.0530947E-1,2.9732537E-1,4.1349057E-2],"split_indices":[3,3,0,3,3,3,3,0,0,0,3,1,3,3,1,0,2,0,1,0,1,0,0,2,1,0,0,0,0,0,0,3,0,0,0,3,0,0,0,0,0,0,0],"split_type":[0,0,0,0,0,0,0,0,0,0,0,0,0,0,0,0,0,0,0,0,0,0,0,0,0,0,0,0,0,0,0,0,0,0,0,0,0,0,0,0,0,0,0],"sum_hessian":[3.7644894E1,1.0290486E1,2.7354406E1,2.344926E0,7.945561E0,1.5266727E1,1.208768E1,1.2298268E0,1.1150992E0,2.0143006E0,5.93126E0,4.383242E0,1.0883485E1,2.7564964E0,9.331183E0,1.6133776E0,4.3178825E0,1.8377863E0,2.545456E0,5.446441E0,5.437044E0,1.0662587E0,1.6902378E0,2.8283472E0,6.5028358E0,3.1392188E0,1.1786638E0,1.0028204E0,1.5426356E0,4.3436456E0,1.1027958E0,2.6807156E0,2.7563283E0,1.2090096E0,1.6193377E0,4.8496757E0,1.6531603E0,1.176807E0,3.1668382E0,1.4493008E0,1.2314148E0,3.6333E0,1.2163755E0],"tree_param":{"num_deleted":"0","num_feature":"4","num_nodes":"43","size_leaf_vector":"1"}},{"base_weights":[3.483957E-2,-1.4699233E-1,3.8187957E-1,-2.7492687E-1,-6.5358736E-2,5.550652E-1,-2.1610525E-1,3.7511802E-1,-2.7866778E-1,6.697983E-1,2.4124427E-2,-1.2610245E-1,2.9656261E-2,5.1119767E-2,2.4464302E-1,-4.915864E-2,-6.7282337E-1,4.770676E-2,7.257271E-1,5.7488346E-1,-2.5449118E-1,-3.410843E-1,6.7526877E-1,-2.945835E-1,1.7121021E-3,8.677353E-2,8.2508546E-1,3.0241418E-1,-9.546141E-2,6.077931E-3,-2.4759422E-1,2.6485926E-1,3.7812974E-2,2.8818372E-1,8.190388E-2],"categories":[],"categories_nodes":[],"categories_segments":[],"categories_sizes":[],"default_left":[0,0,0,0,0,0,0,0,0,0,0,0,0,0,0,0,0,0,0,0,0,0,0,0,0,0,0,0,0,0,0,0,0,0,0],"id":5,"left_children":[1,3,5,-1,7,9,11,13,15,17,-1,-1,-1,19,-1,21,23,-1,25,27,-1,29,31,-1,-1,-1,33,-1,-1,-1,-1,-1,-1,-1,-1],"loss_changes":[2.372395E0,1.4983408E0,1.4556884E0,0E0,2.313047E0,5.0605345E-1,2.7417588E-1,1.1133116E0,1.4514225E0,1.1723304E-1,0E0,0E0,0E0,3.1873293E0,0E0,2.6517584E0,1.2557287E0,0E0,6.749892E-2,1.9524138E0,0E0,1.5609741E0,3.0195916E-1,0E0,0E0,0E0,1.2759829E-1,0E0,0E0,0E0,0E0,0E0,0E0,0E0,0E0],"parents":[2147483647,0,0,1,1,2,2,4,4,5,5,6,6,7,7,8,8,9,9,13,13,15,15,16,16,18,18,19,19,21,21,22,22,26,26],"right_children":[2,4,6,-1,8,10,12,14,16,18,-1,-1,-1,20,-1,22,24,-1,26,28,-1,30,32,-1,-1,-1,34,-1,-1,-1,-1,-1,-1,-1,-1],"split_conditions":[3.3399963E0,2.9569992E1,6.979388E1,-2.7492687E-1,3.295988E-1,3.40405E2,1.1799988E1,4.1724125E1,3.15678E2,2.159875E2,2.4124427E-2,-1.2610245E-1,2.9656261E-2,4.0623535E1,2.4464302E-1,2.616115E2,6.0001038E1,4.770676E-2,4.73999E0,2.793215E2,-2.5449118E-1,5.6223255E1,6.4474915E1,-2.945835E-1,1.7121021E-3,8.677353E-2,3.189215E2,3.0241418E-1,-9.546141E-2,6.077931E-3,-2.4759422E-1,2.6485926E-1,3.7812974E-2,2.8818372E-1,8.190388E-2],"split_indices":[3,1,1,0,2,0,3,1,0,0,0,0,0,1,0,0,1,0,3,0,0,1,1,0,0,0,0,0,0,0,0,0,0,0,0],"split_type":[0,0,0,0,0,0,0,0,0,0,0,0,0,0,0,0,0,0,0,0,0,0,0,0,0,0,0,0,0,0,0,0,0,0,0],"sum_hessian":[3.570608E1,2.3808199E1,1.1897885E1,1.3027916E0,2.2505407E1,9.281572E0,2.616313E0,7.095287E0,1.541012E1,7.1436577E0,2.1379144E0,1.3841612E0,1.2321519E0,4.730708E0,2.3645787E0,1.0450004E1,4.9601154E0,1.0843164E0,6.0593414E0,3.217743E0,1.5129652E0,7.8256392E0,2.6243646E0,3.100459E0,1.8596566E0,1.8487781E0,4.210563E0,2.0801244E0,1.1376185E0,5.0301666E0,2.7954724E0,1.4636613E0,1.1607034E0,2.7865012E0,1.424062E0],"tree_param":{"num_deleted":"0","num_feature":"4","num_nodes":"35","size_leaf_vector":"1"}},{"base_weights":[2.8683593E-2,-6.768166E-1,1.0341651E-1,-2.8358255E-2,-2.6748496E-1,5.079472E-1,-4.9596395E-2,6.771789E-1,1.5554482E-1,-1.9088368E-1,5.742197E-1,2.6261327E-1,2.735031E-1,-1.3147753E-1,2.3192304E-1,-5.007144E-2,-7.6786375E-1,3.0571184E-1,-3.16291E-2,-7.46965E-2,1.871539E-1,-5.513025E-1,1.291869E-1,-3.1034076E-1,-6.253566E-2,-2.6497674E-1,1.0491451E-2,-3.5126552E-3,2.3454303E-1],"categories":[],"categories_nodes":[],"categories_segments":[],"categories_sizes":[],"default_left":[0,0,0,0,0,0,0,0,0,0,0,0,0,0,0,0,0,0,0,0,0,0,0,0,0,0,0,0,0],"id":6,"left_children":[1,3,5,-1,-1,7,9,11,13,15,17,-1,19,-1,-1,21,23,-1,-1,-1,-1,25,27,-1,-1,-1,-1,-1,-1],"loss_changes":[1.9130498E0,3.510797E-1,2.035395E0,0E0,0E0,4.315064E-1,2.266696E0,2.2327566E-1,1.885722E0,1.6437621E0,1.5492077E0,0E0,7.701645E-1,0E0,0E0,1.662742E0,3.7974715E-1,0E0,0E0,0E0,0E0,9.7592914E-1,1.2833476E0,0E0,0E0,0E0,0E0,0E0,0E0],"parents":[2147483647,0,0,1,1,2,2,5,5,6,6,7,7,8,8,9,9,10,10,12,12,15,15,16,16,21,21,22,22],"right_children":[2,4,6,-1,-1,8,10,12,14,16,18,-1,20,-1,-1,22,24,-1,-1,-1,-1,26,28,-1,-1,-1,-1,-1,-1],"split_conditions":[3.2832603E1,3.118275E2,3.295988E-1,-2.8358255E-2,-2.6748496E-1,3.36301E2,9.5481175E-1,4.0623535E1,4.0796548E2,6.6451256E1,1.0635697E0,2.6261327E-1,2.5849E2,-1.3147753E-1,2.3192304E-1,-4.3099976E0,8.6311173E-1,3.0571184E-1,-3.16291E-2,-7.46965E-2,1.871539E-1,5.628967E1,6.081198E1,-3.1034076E-1,-6.253566E-2,-2.6497674E-1,1.0491451E-2,-3.5126552E-3,2.3454303E-1],"split_indices":[1,0,2,0,0,0,2,1,0,1,2,0,0,0,0,3,2,0,0,0,0,1,1,0,0,0,0,0,0],"split_type":[0,0,0,0,0,0,0,0,0,0,0,0,0,0,0,0,0,0,0,0,0,0,0,0,0,0,0,0,0],"sum_hessian":[3.3956623E1,2.4807892E0,3.1475832E1,1.0565957E0,1.4241935E0,8.00166E0,2.3474173E1,4.7830987E0,3.2185614E0,1.970518E1,3.7689934E0,2.4242926E0,2.3588061E0,1.7888013E0,1.4297601E0,1.6713118E1,2.9920614E0,1.9762268E0,1.7927666E0,1.0629123E0,1.2958939E0,3.8559332E0,1.2857184E1,1.4512249E0,1.5408366E0,2.1385243E0,1.7174087E0,1.1381972E1,1.4752117E0],"tree_param":{"num_deleted":"0","num_feature":"4","num_nodes":"29","size_leaf_vector":"1"}},{"base_weights":[2.2763131E-2,-8.478983E-2,4.6403083E-1,4.0962702E-1,-1.8562385E-1,6.0799897E-1,-5.038615E-2,-1.0249542E-1,2.4678555E-1,-5.8644135E-2,-4.8439002E-1,-4.1180276E-3,2.2539958E-1,-2.163593E-1,2.3275462E-1,-7.159777E-1,5.160021E-2,4.319552E-2,-4.8746043E-1,-2.7431563E-1,-1.1476383E-2,-8.54733E-2,1.7887087E-1,4.5393277E-2,-1.8171161E-1],"categories":[],"categories_nodes":[],"categories_segments":[],"categories_sizes":[],"default_left":[0,0,0,0,0,0,0,0,0,0,0,0,0,0,0,0,0,0,0,0,0,0,0,0,0],"id":7,"left_children":[1,3,5,7,9,11,-1,-1,-1,13,15,-1,-1,17,-1,19,-1,21,23,-1,-1,-1,-1,-1,-1],"loss_changes":[1.6375198E0,1.467996E0,7.166054E-1,1.8452945E0,8.7750256E-1,5.197847E-1,0E0,0E0,0E0,2.5230465E0,1.1848419E0,0E0,0E0,1.1351101E0,0E0,6.852777E-1,0E0,1.8042558E0,6.827096E-1,0E0,0E0,0E0,0E0,0E0,0E0],"parents":[2147483647,0,0,1,1,2,2,3,3,4,4,5,5,9,9,10,10,13,13,15,15,17,17,18,18],"right_children":[2,4,6,8,10,12,-1,-1,-1,14,16,-1,-1,18,-1,20,-1,22,24,-1,-1,-1,-1,-1,-1],"split_conditions":[6.5700073E0,2.30075E2,2.1139984E1,2.135385E2,7.673057E-1,2.539914E-1,-5.038615E-2,-1.0249542E-1,2.4678555E-1,6.8834335E-1,9.5481175E-1,-4.1180276E-3,2.2539958E-1,3.295988E-1,2.3275462E-1,6.000061E-1,5.160021E-2,4.1724125E1,2.39979E2,-2.7431563E-1,-1.1476383E-2,-8.54733E-2,1.7887087E-1,4.5393277E-2,-1.8171161E-1],"split_indices":[3,0,3,0,2,2,0,0,0,2,2,0,0,2,0,3,0,1,0,0,0,0,0,0,0],"split_type":[0,0,0,0,0,0,0,0,0,0,0,0,0,0,0,0,0,0,0,0,0,0,0,0,0],"sum_hessian":[3.2674393E1,2.6920692E1,5.7537007E0,4.0415382E0,2.2879154E1,4.7170863E0,1.0366143E0,1.4948946E0,2.5466435E0,1.6894884E1,5.9842706E0,1.0531484E0,3.6639378E0,1.4832368E1,2.0625172E0,4.3564487E0,1.6278217E0,8.007029E0,6.8253393E0,3.09977E0,1.2566786E0,5.3298044E0,2.6772237E0,1.0224298E0,5.8029094E0],"tree_param":{"num_deleted":"0","num_feature":"4","num_nodes":"25","size_leaf_vector":"1"}},{"base_weights":[2.5438525E-2,2.2143452E-1,-1.609512E-1,6.383982E-2,2.949011E-1,-5.8122116E-1,-4.610881E-3,2.2703972E-1,-7.4610636E-2,-4.0455237E-2,-2.5300524E-1,4.776315E-1,-2.0945908E-1,-2.432601E-1,1.0664455E-1,1.2956059E-3,2.1553639E-1,-5.5224645E-1,5.713354E-2,1.9202481E-1,-1.7403005E-1,-2.3805761E-1,-2.348074E-3,2.4118581E-1,-2.9700798E-1,-1.4387262E-1,2.0798509E-1,-1.9529362E-1,2.2145016E-2],"categories":[],"categories_nodes":[],"categories_segments":[],"categories_sizes":[],"default_left":[0,0,0,0,0,0,0,0,0,0,0,0,0,0,0,0,0,0,0,0,0,0,0,0,0,0,0,0,0],"id":8,"left_children":[1,3,5,7,-1,9,11,-1,13,-1,-1,15,17,-1,19,-1,-1,21,23,-1,25,-1,-1,-1,27,-1,-1,-1,-1],"loss_changes":[1.2055911E0,1.8613316E0,1.1139265E0,1.4334292E0,0E0,4.244771E-1,1.4232343E0,0E0,1.8043154E0,0E0,0E0,4.8683184E-1,9.5418847E-1,0E0,1.7902786E0,0E0,0E0,5.8629537E-1,1.9805212E0,0E0,2.4879222E0,0E0,0E0,0E0,7.3027253E-1,0E0,0E0,0E0,0E0],"parents":[2147483647,0,0,1,1,2,2,3,3,5,5,6,6,8,8,11,11,12,12,14,14,17,17,18,18,20,20,24,24],"right_children":[2,4,6,8,-1,10,12,-1,14,-1,-1,16,18,-1,20,-1,-1,22,24,-1,26,-1,-1,-1,28,-1,-1,-1,-1],"split_conditions":[2.793215E2,2.616115E2,4.1494522E1,4.0623535E1,2.949011E-1,6.429075E-2,3.2001406E-1,2.2703972E-1,-4.3099976E0,-4.0455237E-2,-2.5300524E-1,-3.819992E0,6.0001038E1,-2.432601E-1,-1.5299988E0,1.2956059E-3,2.1553639E-1,3.0799866E0,7.673057E-1,1.9202481E-1,6.099991E0,-2.3805761E-1,-2.348074E-3,2.4118581E-1,8.6311173E-1,-1.4387262E-1,2.0798509E-1,-1.9529362E-1,2.2145016E-2],"split_indices":[0,0,1,1,0,2,2,0,3,0,0,3,1,0,3,0,0,3,2,0,3,0,0,0,2,0,0,0,0],"split_type":[0,0,0,0,0,0,0,0,0,0,0,0,0,0,0,0,0,0,0,0,0,0,0,0,0,0,0,0,0],"sum_hessian":[3.1025688E1,1.5031484E1,1.59942045E1,1.3352269E1,1.6792145E0,3.5997589E0,1.2394445E1,1.4797509E0,1.1872518E1,1.8921436E0,1.7076154E0,3.2982497E0,9.096195E0,1.6592094E0,1.0213308E1,1.4555165E0,1.8427334E0,3.5106578E0,5.5855374E0,3.0796819E0,7.1336265E0,2.1155252E0,1.3951325E0,1.3881146E0,4.197423E0,5.605815E0,1.5278119E0,1.7609853E0,2.4364378E0],"tree_param":{"num_deleted":"0","num_feature":"4","num_nodes":"29","size_leaf_vector":"1"}},{"base_weights":[2.849769E-2,-5.09029E-1,8.809427E-2,-2.080352E-1,-2.0118494E-2,2.0377968E-1,5.684204E-3,1.0582245E-1,-3.3352628E-1,-3.412466E-2,7.438885E-1,-6.283225E-1,1.1034173E-1,7.931762E-2,-1.666649E-1,7.7106655E-2,2.634047E-1,-7.933875E-2,-2.4180053E-1,-9.30753E-3,1.656349E-1],"categories":[],"categories_nodes":[],"categories_segments":[],"categories_sizes":[],"default_left":[0,0,0,0,0,0,0,0,0,0,0,0,0,0,0,0,0,0,0,0,0],"id":9,"left_children":[1,3,5,-1,-1,-1,7,9,11,13,15,17,-1,19,-1,-1,-1,-1,-1,-1,-1],"loss_changes":[1.0048044E0,2.0929766E-1,1.351872E0,0E0,0E0,0E0,8.991575E-1,1.8465081E0,1.4793265E0,1.089984E0,1.675415E-2,8.552039E-2,0E0,8.204168E-1,0E0,0E0,0E0,0E0,0E0,0E0,0E0],"parents":[2147483647,0,0,1,1,2,2,6,6,7,7,8,8,9,9,10,10,11,11,13,13],"right_children":[2,4,6,-1,-1,-1,8,10,12,14,16,18,-1,20,-1,-1,-1,-1,-1,-1,-1],"split_conditions":[3.2832603E1,-6.860016E0,4.0623535E1,-2.080352E-1,-2.0118494E-2,2.0377968E-1,3.67207E2,3.30579E2,4.20298E2,3.15678E2,-2.100006E0,1.2900085E0,1.1034173E-1,6.099991E0,-1.666649E-1,7.7106655E-2,2.634047E-1,-7.933875E-2,-2.4180053E-1,-9.30753E-3,1.656349E-1],"split_indices":[1,3,1,0,0,0,0,0,0,0,3,3,0,3,0,0,0,0,0,0,0],"split_type":[0,0,0,0,0,0,0,0,0,0,0,0,0,0,0,0,0,0,0,0,0],"sum_hessian":[2.8966259E1,2.1383483E0,2.6827911E1,1.1072943E0,1.0310541E0,2.3961983E0,2.4431713E1,1.9394346E1,5.0373673E0,1.6682E1,2.7123466E0,3.6198921E0,1.4174755E0,1.4397527E1,2.2844725E0,1.215711E0,1.4966356E0,2.004142E0,1.6157501E0,1.2430784E1,1.9667419E0],"tree_param":{"num_deleted":"0","num_feature":"4","num_nodes":"21","size_leaf_vector":"1"}},{"base_weights":[2.4656227E-2,-1.3533309E-1,7.6708585E-2,5.648144E-1,9.765149E-3,6.0588036E-2,2.0495547E-1,-6.329013E-2,3.9199364E-1,2.9168705E-2,-5.414005E-1,2.436408E-1,-4.513218E-2,-1.6644438E-1,9.326679E-2,-2.2252968E-1,-4.2799003E-2,-7.162176E-2,6.2488995E-2],"categories":[],"categories_nodes":[],"categories_segments":[],"categories_sizes":[],"default_left":[0,0,0,0,0,0,0,0,0,0,0,0,0,0,0,0,0,0,0],"id":10,"left_children":[1,-1,3,5,7,-1,-1,9,11,13,15,-1,-1,-1,17,-1,-1,-1,-1],"loss_changes":[7.5474244E-1,0E0,8.7888217E-1,1.4779568E-3,7.178587E-1,0E0,0E0,9.749529E-1,1.0614756E0,7.67846E-1,1.7916918E-1,0E0,0E0,0E0,7.407712E-1,0E0,0E0,0E0,0E0],"parents":[2147483647,0,0,2,2,3,3,4,4,7,7,8,8,9,9,10,10,14,14],"right_children":[2,-1,4,6,8,-1,-1,10,12,14,16,-1,-1,-1,18,-1,-1,-1,-1],"split_conditions":[3.2832603E1,-1.3533309E-1,4.0623535E1,3.7554707E1,9.5481175E-1,6.0588036E-2,2.0495547E-1,6.6451256E1,1.0635697E0,4.1494522E1,8.6311173E-1,2.436408E-1,-4.513218E-2,-1.6644438E-1,-4.3099976E0,-2.2252968E-1,-4.2799003E-2,-7.162176E-2,6.2488995E-2],"split_indices":[1,0,1,1,2,0,0,1,2,1,2,0,0,0,3,0,0,0,0],"split_type":[0,0,0,0,0,0,0,0,0,0,0,0,0,0,0,0,0,0,0],"sum_hessian":[2.8079151E1,2.0130546E0,2.6066097E1,2.2467973E0,2.38193E1,1.2183185E0,1.0284787E0,2.0697758E1,3.1215415E0,1.8130587E1,2.5671713E0,1.4788737E0,1.6426677E0,1.036011E0,1.7094576E1,1.1360301E0,1.4311414E0,4.1219897E0,1.2972586E1],"tree_param":{"num_deleted":"0","num_feature":"4","num_nodes":"19","size_leaf_vector":"1"}},{"base_weights":[1.3964974E-2,3.282903E-1,-4.7899943E-2,-7.6622374E-2,1.999941E-1,-1.4576933E-1,2.6267835E-1,-3.5337165E-2,-3.9439994E-1,5.063063E-1,-6.555036E-2,-1.6617276E-1,2.2361207E-1,-6.566138E-1,4.5961358E-2,2.1779786E-1,2.520821E-2,-1.0429593E-1,6.384117E-2,9.4391115E-2,-2.4741529E-1,-2.4234909E-1,-2.978515E-2,-3.798657E-3,-1.498278E-1],"categories":[],"categories_nodes":[],"categories_segments":[],"categories_sizes":[],"default_left":[0,0,0,0,0,0,0,0,0,0,0,0,0,0,0,0,0,0,0,0,0,0,0,0,0],"id":11,"left_children":[1,3,5,-1,-1,7,9,11,13,15,17,19,-1,21,-1,-1,-1,-1,-1,-1,23,-1,-1,-1,-1],"loss_changes":[5.6651115E-1,1.1153533E0,7.841805E-1,0E0,0E0,5.160414E-1,5.3191465E-1,1.6012956E0,9.38889E-1,2.8171664E-1,3.5214823E-1,5.936928E-1,0E0,2.68448E-1,0E0,0E0,0E0,0E0,0E0,0E0,6.9512373E-1,0E0,0E0,0E0,0E0],"parents":[2147483647,0,0,1,1,2,2,5,5,6,6,7,7,8,8,9,9,10,10,11,11,13,13,20,20],"right_children":[2,4,6,-1,-1,8,10,12,14,16,18,20,-1,22,-1,-1,-1,-1,-1,-1,24,-1,-1,-1,-1],"split_conditions":[2.30075E2,2.135385E2,5.1900024E0,-7.6622374E-2,1.999941E-1,7.673057E-1,1.1470001E1,6.0001038E1,6.914278E1,3.189215E2,3.303945E2,2.39979E2,2.2361207E-1,6.000061E-1,4.5961358E-2,2.1779786E-1,2.520821E-2,-1.0429593E-1,6.384117E-2,9.4391115E-2,3.295988E-1,-2.4234909E-1,-2.978515E-2,-3.798657E-3,-1.498278E-1],"split_indices":[0,0,3,0,0,2,3,1,1,0,0,0,0,3,0,0,0,0,0,0,2,0,0,0,0],"split_type":[0,0,0,0,0,0,0,0,0,0,0,0,0,0,0,0,0,0,0,0,0,0,0,0,0],"sum_hessian":[2.7324295E1,3.785292E0,2.3539003E1,1.479009E0,2.3062828E0,1.8302252E1,5.2367506E0,1.346413E1,4.838122E0,2.6943367E0,2.542414E0,1.2205775E1,1.2583556E0,3.13696E0,1.7011619E0,1.2992095E0,1.3951272E0,1.1390578E0,1.4033562E0,1.3490447E0,1.085673E1,2.1139357E0,1.0230244E0,6.164561E0,4.6921697E0],"tree_param":{"num_deleted":"0","num_feature":"4","num_nodes":"25","size_leaf_vector":"1"}},{"base_weights":[2.0214181E-2,-1.1940718E-1,6.762991E-2,1.5338917E-1,-2.2865641E-1,2.8650457E-2,2.1098974E-1,-2.3706906E-1,8.699E-2,1.0190928E-1,-1.5975402E-1,-6.508928E-2,3.3726135E-1,3.417026E-1,-6.2840834E-2,1.7655125E-2,1.3449287E-1,1.9952895E-1,2.1579744E-2,-1.8346442E-1,3.6314208E-2],"categories":[],"categories_nodes":[],"categories_segments":[],"categories_sizes":[],"default_left":[0,0,0,0,0,0,0,0,0,0,0,0,0,0,0,0,0,0,0,0,0],"id":12,"left_children":[1,-1,3,5,7,9,-1,-1,11,13,-1,-1,15,17,19,-1,-1,-1,-1,-1,-1],"loss_changes":[5.654124E-1,0E0,6.765014E-1,1.3638076E0,1.1443616E0,7.731969E-1,0E0,0E0,4.3720862E-1,6.657299E-1,0E0,0E0,6.686148E-2,5.451152E-1,1.1346084E0,0E0,0E0,0E0,0E0,0E0,0E0],"parents":[2147483647,0,0,2,2,3,3,4,4,5,5,8,8,9,9,12,12,13,13,14,14],"right_children":[2,-1,4,6,8,10,-1,-1,12,14,-1,-1,16,18,20,-1,-1,-1,-1,-1,-1],"split_conditions":[3.2832603E1,-1.1940718E-1,3.67207E2,3.30579E2,3.87468E2,3.203615E2,2.1098974E-1,-2.3706906E-1,-1.7200012E0,6.6437685E-1,-1.5975402E-1,-6.508928E-2,4.0796548E2,2.39979E2,5.2695957E1,1.7655125E-2,1.3449287E-1,1.9952895E-1,2.1579744E-2,-1.8346442E-1,3.6314208E-2],"split_indices":[1,0,0,0,0,0,0,0,3,2,0,0,0,0,1,0,0,0,0,0,0],"split_type":[0,0,0,0,0,0,0,0,0,0,0,0,0,0,0,0,0,0,0,0,0],"sum_hessian":[2.6154066E1,1.9102303E0,2.4243835E1,1.917576E1,5.068076E0,1.6487843E1,2.6879163E0,1.2826155E0,3.7854605E0,1.5307833E1,1.1800106E0,1.769495E0,2.0159655E0,5.7966943E0,9.511139E0,1.0110637E0,1.0049019E0,1.9698577E0,3.8268363E0,1.8036233E0,7.7075152E0],"tree_param":{"num_deleted":"0","num_feature":"4","num_nodes":"21","size_leaf_vector":"1"}},{"base_weights":[8.951865E-3,1.4325118E-1,-1.186915E-1,-1.6080322E-2,2.5833005E-1,-4.798352E-1,-9.793094E-3,-1.2568614E-1,1.6941564E-1,-1.9637553E-1,-1.6965598E-2,3.5526207E-1,-1.439988E-1,6.740036E-2,-4.9368778E-1,1.7092797E-1,-6.3151675E-3,6.926728E-2,-2.4837634E-1,-1.4470477E-1,1.635296E-1,-2.133215E-1,9.319313E-3,-1.7524496E-1,-3.7087437E-2,5.107471E-2,-2.1988799E-1,1.23295814E-1,-8.8370726E-2],"categories":[],"categories_nodes":[],"categories_segments":[],"categories_sizes":[],"default_left":[0,0,0,0,0,0,0,0,0,0,0,0,0,0,0,0,0,0,0,0,0,0,0,0,0,0,0,0,0],"id":13,"left_children":[1,3,5,7,-1,9,11,13,-1,-1,-1,15,17,19,21,-1,-1,-1,23,25,-1,-1,-1,-1,27,-1,-1,-1,-1],"loss_changes":[4.6810398E-1,1.5323304E0,5.474134E-1,8.251076E-1,0E0,2.0202035E-1,6.2961423E-1,7.995213E-1,0E0,0E0,0E0,2.9146162E-1,4.2301017E-1,8.84652E-1,4.5911235E-1,0E0,0E0,0E0,5.3109705E-1,1.2915428E0,0E0,0E0,0E0,0E0,7.959773E-1,0E0,0E0,0E0,0E0],"parents":[2147483647,0,0,1,1,2,2,3,3,5,5,6,6,7,7,11,11,12,12,13,13,14,14,18,18,19,19,24,24],"right_children":[2,4,6,8,-1,10,12,14,-1,-1,-1,16,18,20,22,-1,-1,-1,24,26,-1,-1,-1,-1,28,-1,-1,-1,-1],"split_conditions":[2.793215E2,2.616115E2,3.7554707E1,6.099991E0,2.5833005E-1,1.1700134E0,2.5386128E-1,5.6328053E1,1.6941564E-1,-1.9637553E-1,-1.6965598E-2,3.88064E2,-8.169998E0,5.3109676E1,9.449204E-1,1.7092797E-1,-6.3151675E-3,6.926728E-2,-6.9999695E-1,6.073824E-1,1.635296E-1,-2.133215E-1,9.319313E-3,-1.7524496E-1,4.970001E0,5.107471E-2,-2.1988799E-1,1.23295814E-1,-8.8370726E-2],"split_indices":[0,0,1,3,0,3,2,1,0,0,0,0,3,1,2,0,0,0,3,2,0,0,0,0,3,0,0,0,0],"split_type":[0,0,0,0,0,0,0,0,0,0,0,0,0,0,0,0,0,0,0,0,0,0,0,0,0,0,0,0,0],"sum_hessian":[2.5314919E1,1.2276249E1,1.3038671E1,1.0846413E1,1.4298365E0,2.231616E0,1.08070545E1,9.783678E0,1.0627341E0,1.1927497E0,1.0388664E0,2.4622638E0,8.34479E0,6.9525814E0,2.8310966E0,1.240895E0,1.2213688E0,1.5534033E0,6.791387E0,5.2974944E0,1.6550871E0,1.7507634E0,1.0803332E0,1.9414308E0,4.8499565E0,3.9130309E0,1.3844635E0,1.5523527E0,3.2976038E0],"tree_param":{"num_deleted":"0","num_feature":"4","num_nodes":"29","size_leaf_vector":"1"}},{"base_weights":[9.696408E-3,-5.7778742E-2,2.179989E-1,3.1963924E-1,-1.3064276E-1,3.944943E-1,-5.5951532E-2,1.3864604E-2,1.2848148E-1,-1.5245199E-1,-7.1650155E-2,1.0774184E-2,1.9505505E-1,-8.595592E-2,5.370584E-2,1.0168181E-1,-1.2543093E-1,-2.798524E-2,-4.4379744E-1,-7.300473E-2,1.00190505E-1,2.310659E-2,-2.1435015E-1],"categories":[],"categories_nodes":[],"categories_segments":[],"categories_sizes":[],"default_left":[0,0,0,0,0,0,0,0,0,0,0,0,0,0,0,0,0,0,0,0,0,0,0],"id":14,"left_children":[1,3,5,7,9,11,13,-1,-1,-1,15,-1,-1,-1,-1,-1,17,19,21,-1,-1,-1,-1],"loss_changes":[3.683645E-1,5.892729E-1,3.3164948E-1,8.451891E-2,3.5106054E-1,3.450572E-1,2.3465501E-1,0E0,0E0,0E0,4.0047324E-1,0E0,0E0,0E0,0E0,0E0,4.5488873E-1,1.0634893E0,5.432339E-1,0E0,0E0,0E0,0E0],"parents":[2147483647,0,0,1,1,2,2,3,3,4,4,5,5,6,6,10,10,16,16,17,17,18,18],"right_children":[2,4,6,8,10,12,14,-1,-1,-1,16,-1,-1,-1,-1,-1,18,20,22,-1,-1,-1,-1],"split_conditions":[5.1900024E0,2.30075E2,1.1470001E1,2.149725E2,2.37258E2,5.186775E1,3.303945E2,1.3864604E-2,1.2848148E-1,-1.5245199E-1,2.40999E2,1.0774184E-2,1.9505505E-1,-8.595592E-2,5.370584E-2,1.0168181E-1,2.5899963E0,6.3413477E-1,4.5076358E-1,-7.300473E-2,1.00190505E-1,2.310659E-2,-2.1435015E-1],"split_indices":[3,0,3,0,0,1,0,0,0,0,0,0,0,0,0,0,3,2,2,0,0,0,0],"split_type":[0,0,0,0,0,0,0,0,0,0,0,0,0,0,0,0,0,0,0,0,0,0,0],"sum_hessian":[2.431218E1,1.890948E1,5.402701E0,2.51186E0,1.639762E1,3.0181842E0,2.3845167E0,1.1195129E0,1.392347E0,1.1870104E0,1.5210608E1,1.731032E0,1.2871522E0,1.092805E0,1.2917117E0,1.1475317E0,1.4063076E1,1.1600344E1,2.4627328E0,7.478365E0,4.1219788E0,1.0869563E0,1.3757765E0],"tree_param":{"num_deleted":"0","num_feature":"4","num_nodes":"23","size_leaf_vector":"1"}},{"base_weights":[1.1260196E-2,-7.356897E-2,1.6519389E-1,-7.161926E-4,-1.6570967E-1,3.5177153E-1,-9.837135E-2,1.0513152E-1,-2.2041403E-1,5.6516375E-2,4.7871715E-1,-8.219705E-2,3.0835286E-1,6.27745E-2,-3.699071E-1,1.13530226E-1,-9.582524E-2,1.9924426E-1,2.524248E-1,1.8834853E-1,-4.163238E-1,4.4910038E-1,-4.744165E-2,-1.5352042E-1,-1.1056297E-2,-7.159711E-2,1.7650785E-1,1.65074E-1,-7.252755E-2,3.3591107E-2,-2.1298817E-1,-1.9497557E-2,2.2148989E-1],"categories":[],"categories_nodes":[],"categories_segments":[],"categories_sizes":[],"default_left":[0,0,0,0,0,0,0,0,0,0,0,0,0,0,0,0,0,0,0,0,0,0,0,0,0,0,0,0,0,0,0,0,0],"id":15,"left_children":[1,3,5,7,-1,9,-1,11,13,15,17,19,21,-1,23,-1,-1,-1,25,27,29,31,-1,-1,-1,-1,-1,-1,-1,-1,-1,-1,-1],"loss_changes":[3.3429426E-1,5.785316E-1,9.5007384E-1,3.814396E-1,0E0,2.3774338E-1,0E0,4.4693103E-1,4.1989478E-1,5.151707E-1,3.4050345E-2,6.706879E-1,4.3359697E-1,0E0,1.8506324E-1,0E0,0E0,0E0,7.6366746E-1,8.037372E-1,5.8256966E-1,7.1742326E-1,0E0,0E0,0E0,0E0,0E0,0E0,0E0,0E0,0E0,0E0,0E0],"parents":[2147483647,0,0,1,1,2,2,3,3,5,5,7,7,8,8,9,9,10,10,11,11,12,12,14,14,18,18,19,19,20,20,21,21],"right_children":[2,4,6,8,-1,10,-1,12,14,16,18,20,22,-1,24,-1,-1,-1,26,28,30,32,-1,-1,-1,-1,-1,-1,-1,-1,-1,-1,-1],"split_conditions":[3.3399963E0,2.2899933E0,6.979388E1,3.320065E2,-1.6570967E-1,4.7424362E1,-9.837135E-2,2.565825E2,-1.5700012E1,2.4195768E-1,5.541031E-1,6.6437685E-1,6.481882E1,6.27745E-2,3.04851E-1,1.13530226E-1,-9.582524E-2,1.9924426E-1,7.3208845E-1,-3.0399933E0,2.32784E2,4.8146465E1,-4.744165E-2,-1.5352042E-1,-1.1056297E-2,-7.159711E-2,1.7650785E-1,1.65074E-1,-7.252755E-2,3.3591107E-2,-2.1298817E-1,-1.9497557E-2,2.2148989E-1],"split_indices":[3,3,1,0,0,1,0,0,3,2,2,2,1,0,2,0,0,0,2,3,0,1,0,0,0,0,0,0,0,0,0,0,0],"split_type":[0,0,0,0,0,0,0,0,0,0,0,0,0,0,0,0,0,0,0,0,0,0,0,0,0,0,0,0,0,0,0,0,0],"sum_hessian":[2.3669893E1,1.5596893E1,8.073001E0,1.4406347E1,1.1905465E0,6.0648165E0,2.0081842E0,1.0074196E1,4.3321514E0,2.2580817E0,3.8067346E0,5.5519557E0,4.52224E0,1.0150495E0,3.317102E0,1.2128499E0,1.0452319E0,1.0287986E0,2.777936E0,3.3089578E0,2.242998E0,3.5027032E0,1.0195369E0,1.9501504E0,1.3669516E0,1.2460243E0,1.5319117E0,1.6452751E0,1.6636826E0,1.0223402E0,1.2206578E0,1.5401464E0,1.9625568E0],"tree_param":{"num_deleted":"0","num_feature":"4","num_nodes":"33","size_leaf_vector":"1"}},{"base_weights":[9.68796E-3,-4.148878E-2,3.1092086E-1,5.150888E-2,-3.2897756E-1,1.9441481E-1,-2.8711263E-2,-2.1024799E-2,1.8087159E-1,-4.4311476E-1,2.0120766E-2,1.4778544E-1,-1.8740775E-1,-1.7133941E-1,-2.756307E-2,-8.532404E-2,2.913757E-1,-1.9000962E-1,-2.757975E-2,1.6730349E-1,3.5673823E-2,1.4917283E-1,-6.4476036E-2],"categories":[],"categories_nodes":[],"categories_segments":[],"categories_sizes":[],"default_left":[0,0,0,0,0,0,0,0,0,0,0,0,0,0,0,0,0,0,0,0,0,0,0],"id":16,"left_children":[1,3,5,7,9,-1,-1,11,-1,13,-1,15,17,-1,-1,-1,19,-1,21,-1,-1,-1,-1],"loss_changes":[3.8125384E-1,5.865906E-1,5.5382895E-1,6.911245E-1,2.7124518E-1,0E0,0E0,4.759015E-1,0E0,1.3993657E-1,0E0,6.0914606E-1,5.8677936E-1,0E0,0E0,0E0,2.4871588E-1,0E0,8.232661E-1,0E0,0E0,0E0,0E0],"parents":[2147483647,0,0,1,1,2,2,3,3,4,4,7,7,9,9,11,11,12,12,16,16,18,18],"right_children":[2,4,6,8,10,-1,-1,12,-1,14,-1,16,18,-1,-1,-1,20,-1,22,-1,-1,-1,-1],"split_conditions":[9.5481175E-1,7.678134E-1,1.0635697E0,6.0001038E1,4.6600037E0,1.9441481E-1,-2.8711263E-2,3.295988E-1,1.8087159E-1,8.838174E-1,2.0120766E-2,3.2832603E1,-4.9900208E0,-1.7133941E-1,-2.756307E-2,-8.532404E-2,-9.669983E0,-1.9000962E-1,-3.0399933E0,1.6730349E-1,3.5673823E-2,1.4917283E-1,-6.4476036E-2],"split_indices":[2,2,2,1,3,0,0,2,0,2,0,1,3,0,0,0,3,0,3,0,0,0,0],"split_type":[0,0,0,0,0,0,0,0,0,0,0,0,0,0,0,0,0,0,0,0,0,0,0],"sum_hessian":[2.2894089E1,2.0306473E1,2.5876157E0,1.5963414E1,4.3430576E0,1.0900992E0,1.4975166E0,1.4957671E1,1.0057435E0,3.279182E0,1.0638759E0,7.4801607E0,7.4775105E0,1.9444354E0,1.3347465E0,1.6208276E0,5.859333E0,1.1911442E0,6.286366E0,1.4251404E0,4.4341927E0,1.2185243E0,5.067842E0],"tree_param":{"num_deleted":"0","num_feature":"4","num_nodes":"23","size_leaf_vector":"1"}},{"base_weights":[1.4702984E-2,1.4402467E-1,-1.03826E-1,2.6031665E-3,2.2507416E-1,-1.7401634E-1,9.0600185E-2,-1.2679976E-1,1.1691115E-1,-6.7275085E-2,-1.5989296E-1,1.3433999E-1,-8.4161595E-2,9.65841E-2,-1.7988725E-1,-3.8045982E-1,3.256718E-1,-2.014159E-1,-8.658945E-3,-3.5171736E-2,-1.6726077E-1,-1.3009663E-3,1.467185E-1,-8.629724E-2,7.513098E-2],"categories":[],"categories_nodes":[],"categories_segments":[],"categories_sizes":[],"default_left":[0,0,0,0,0,0,0,0,0,0,0,0,0,0,0,0,0,0,0,0,0,0,0,0,0],"id":17,"left_children":[1,3,5,7,-1,9,-1,-1,11,13,-1,-1,15,-1,17,19,21,-1,23,-1,-1,-1,-1,-1,-1],"loss_changes":[3.6922446E-1,9.815533E-1,4.1261512E-1,5.5037093E-1,0E0,4.0136346E-1,0E0,0E0,6.3019204E-1,4.935931E-1,0E0,0E0,8.987845E-1,0E0,6.969902E-1,1.287551E-1,1.7554745E-1,0E0,5.9296983E-1,0E0,0E0,0E0,0E0,0E0,0E0],"parents":[2147483647,0,0,1,1,2,2,3,3,5,5,8,8,9,9,12,12,14,14,15,15,16,16,18,18],"right_children":[2,4,6,8,-1,10,-1,-1,12,14,-1,-1,16,-1,18,20,22,-1,24,-1,-1,-1,-1,-1,-1],"split_conditions":[2.793215E2,2.616115E2,4.20298E2,-4.3099976E0,2.2507416E-1,4.016815E2,9.0600185E-2,-1.2679976E-1,-9.000244E-1,7.848173E-2,-1.5989296E-1,1.3433999E-1,3.8599854E0,9.65841E-2,4.1494522E1,5.6223255E1,5.186775E1,-2.014159E-1,3.30579E2,-3.5171736E-2,-1.6726077E-1,-1.3009663E-3,1.467185E-1,-8.629724E-2,7.513098E-2],"split_indices":[0,0,0,3,0,0,0,0,3,2,0,0,3,0,1,1,1,0,0,0,0,0,0,0,0],"split_type":[0,0,0,0,0,0,0,0,0,0,0,0,0,0,0,0,0,0,0,0,0,0,0,0,0],"sum_hessian":[2.211211E1,1.047175E1,1.164036E1,9.30528E0,1.1664709E0,1.0410928E1,1.2294322E0,1.3998187E0,7.905461E0,8.939941E0,1.470986E0,2.5243285E0,5.3811326E0,1.5889937E0,7.350948E0,3.164766E0,2.2163665E0,1.1445618E0,6.206386E0,1.9412351E0,1.223531E0,1.0563174E0,1.1600491E0,2.9353328E0,3.2710536E0],"tree_param":{"num_deleted":"0","num_feature":"4","num_nodes":"25","size_leaf_vector":"1"}},{"base_weights":[9.976968E-3,-2.8357095E-1,5.7089776E-2,1.6241467E-2,-1.4816937E-1,9.272899E-3,1.2768842E-1,8.441009E-2,-1.3145189E-1,-7.7646337E-3,1.582982E-1,1.2526926E-1,-6.9816746E-2,5.727438E-2,-4.36322E-2],"categories":[],"categories_nodes":[],"categories_segments":[],"categories_sizes":[],"default_left":[0,0,0,0,0,0,0,0,0,0,0,0,0,0,0],"id":18,"left_children":[1,3,5,-1,-1,7,-1,9,-1,11,-1,-1,13,-1,-1],"loss_changes":[3.250452E-1,2.580202E-1,3.4984678E-1,0E0,0E0,6.6880304E-1,0E0,6.957729E-1,0E0,4.250533E-1,0E0,0E0,3.027747E-1,0E0,0E0],"parents":[2147483647,0,0,1,1,2,2,5,5,7,7,9,9,12,12],"right_children":[2,4,6,-1,-1,8,-1,10,-1,12,-1,-1,14,-1,-1],"split_conditions":[-1.0820007E1,-1.5709991E1,4.0796548E2,1.6241467E-2,-1.4816937E-1,3.67207E2,1.2768842E-1,9.5481175E-1,-1.3145189E-1,7.848173E-2,1.582982E-1,1.2526926E-1,-3.9700012E0,5.727438E-2,-4.36322E-2],"split_indices":[3,3,0,0,0,0,0,2,0,2,0,0,3,0,0],"split_type":[0,0,0,0,0,0,0,0,0,0,0,0,0,0,0],"sum_hessian":[2.1332554E1,2.2561402E0,1.9076412E1,1.1508654E0,1.1052749E0,1.7792982E1,1.2834315E0,1.5929395E1,1.8635869E0,1.4000458E1,1.9289373E0,1.0530692E0,1.2947388E1,2.5682416E0,1.0379147E1],"tree_param":{"num_deleted":"0","num_feature":"4","num_nodes":"15","size_leaf_vector":"1"}},{"base_weights":[1.4559611E-2,1.2895301E-1,-8.964891E-2,3.0398183E-3,2.028144E-1,-1.1370342E-1,-1.1863514E-3,-1.1207784E-1,1.0628018E-1,2.9168388E-1,-1.4195558E-1,3.764784E-1,-6.307953E-2,1.7439136E-1,-6.791581E-2,-3.8218284E-1,8.709733E-2,1.4002778E-1,2.6462873E-2,-3.1466013E-1,2.8329572E-1,-1.8876338E-1,1.3107161E-2,3.573148E-1,-1.05774686E-1,-1.3302398E-1,1.3639373E-3,5.6254244E-3,1.23590775E-1,1.280252E-1,2.9744728E-2],"categories":[],"categories_nodes":[],"categories_segments":[],"categories_sizes":[],"default_left":[0,0,0,0,0,0,0,0,0,0,0,0,0,0,0,0,0,0,0,0,0,0,0,0,0,0,0,0,0,0,0],"id":19,"left_children":[1,3,5,7,-1,-1,9,-1,11,13,15,17,19,-1,-1,21,23,-1,-1,25,27,-1,-1,29,-1,-1,-1,-1,-1,-1,-1],"loss_changes":[2.745793E-1,7.5074106E-1,3.1020063E-1,4.241894E-1,0E0,0E0,4.6594417E-1,0E0,4.145101E-1,6.822859E-1,4.529811E-1,4.818839E-2,6.211925E-1,0E0,0E0,4.3867284E-1,6.866307E-1,0E0,0E0,1.6684458E-1,9.763056E-2,0E0,0E0,1.8983096E-2,0E0,0E0,0E0,0E0,0E0,0E0,0E0],"parents":[2147483647,0,0,1,1,2,2,3,3,6,6,8,8,9,9,10,10,11,11,12,12,15,15,16,16,19,19,20,20,23,23],"right_children":[2,4,6,8,-1,-1,10,-1,12,14,16,18,20,-1,-1,22,24,-1,-1,26,28,-1,-1,30,-1,-1,-1,-1,-1,-1,-1],"split_conditions":[2.793215E2,2.616115E2,3.7554707E1,-4.3099976E0,2.028144E-1,-1.1370342E-1,4.8654736E1,-1.1207784E-1,-9.000244E-1,1.2900085E0,-6.9999695E-1,2.44294E2,3.8599854E0,1.7439136E-1,-6.791581E-2,6.0001038E1,7.050683E1,1.4002778E-1,2.6462873E-2,8.087327E-1,5.186775E1,-1.8876338E-1,1.3107161E-2,9.119995E0,-1.05774686E-1,-1.3302398E-1,1.3639373E-3,5.6254244E-3,1.23590775E-1,1.280252E-1,2.9744728E-2],"split_indices":[0,0,1,3,0,0,1,0,3,3,3,0,3,0,0,1,1,0,0,2,1,0,0,3,0,0,0,0,0,0,0],"split_type":[0,0,0,0,0,0,0,0,0,0,0,0,0,0,0,0,0,0,0,0,0,0,0,0,0,0,0,0,0,0,0],"sum_hessian":[2.1063913E1,9.928068E0,1.1135845E1,8.888051E0,1.040017E0,1.8383019E0,9.297544E0,1.348801E0,7.53925E0,2.670175E0,6.627368E0,2.4336414E0,5.1056085E0,1.6344167E0,1.0357584E0,2.9084716E0,3.7188964E0,1.3817279E0,1.0519136E0,3.0105424E0,2.095066E0,1.5385643E0,1.3699071E0,2.4193475E0,1.2995489E0,1.8679769E0,1.1425655E0,1.0604924E0,1.0345737E0,1.391958E0,1.0273895E0],"tree_param":{"num_deleted":"0","num_feature":"4","num_nodes":"31","size_leaf_vector":"1"}},{"base_weights":[1.6439335E-2,-4.5960527E-2,2.4536045E-1,3.903076E-2,-2.4547675E-1,1.4691882E-1,-4.2464714E-2,1.9693476E-1,-1.2966572E-1,2.7854247E-2,-3.449431E-1,3.2660354E-2,-5.213274E-2,1.4217201E-1,5.315655E-2,-1.9178861E-1,7.4507415E-2,-2.3642648E-2,-1.3646068E-1,-1.276347E-1,2.6407358E-1,1.4642824E-1,-1.5499347E-1,4.734428E-3,1.5764278E-1,-1.00261815E-1,3.458556E-2],"categories":[],"categories_nodes":[],"categories_segments":[],"categories_sizes":[],"default_left":[0,0,0,0,0,0,0,0,0,0,0,0,0,0,0,0,0,0,0,0,0,0,0,0,0,0,0],"id":20,"left_children":[1,3,5,7,9,-1,11,13,15,-1,17,-1,-1,-1,19,-1,21,-1,-1,-1,23,-1,25,-1,-1,-1,-1],"loss_changes":[3.1573647E-1,3.0786857E-1,3.5299754E-1,3.7711796E-1,2.1348035E-1,0E0,8.030058E-2,2.62104E-1,7.743579E-1,0E0,9.226209E-2,0E0,0E0,0E0,7.054518E-1,0E0,6.3397115E-1,0E0,0E0,0E0,2.9644686E-1,0E0,2.5852734E-1,0E0,0E0,0E0,0E0],"parents":[2147483647,0,0,1,1,2,2,3,3,4,4,6,6,7,7,8,8,10,10,14,14,16,16,20,20,22,22],"right_children":[2,4,6,8,10,-1,12,14,16,-1,18,-1,-1,-1,20,-1,22,-1,-1,-1,24,-1,26,-1,-1,-1,-1],"split_conditions":[6.5700073E0,3.320065E2,1.1470001E1,6.6437685E-1,-1.2910004E1,1.4691882E-1,6.804655E1,2.39979E2,5.2695957E1,2.7854247E-2,4.7594357E1,3.2660354E-2,-5.213274E-2,1.4217201E-1,2.48057E2,-1.9178861E-1,5.653551E1,-2.3642648E-2,-1.3646068E-1,-1.276347E-1,4.800858E1,1.4642824E-1,2.616115E2,4.734428E-3,1.5764278E-1,-1.00261815E-1,3.458556E-2],"split_indices":[3,0,3,2,3,0,1,0,1,0,1,0,0,0,0,0,1,0,0,0,1,0,0,0,0,0,0],"split_type":[0,0,0,0,0,0,0,0,0,0,0,0,0,0,0,0,0,0,0,0,0,0,0,0,0,0,0],"sum_hessian":[2.0313763E1,1.6590668E1,3.7230942E0,1.2198598E1,4.39207E0,1.6341707E0,2.0889235E0,6.214389E0,5.9842095E0,1.0130002E0,3.3790693E0,1.0498804E0,1.0390431E0,1.3389543E0,4.8754344E0,1.1021149E0,4.882095E0,1.4896066E0,1.8894628E0,1.1802082E0,3.6952262E0,1.340178E0,3.5419168E0,2.43896E0,1.2562662E0,1.9875298E0,1.554387E0],"tree_param":{"num_deleted":"0","num_feature":"4","num_nodes":"27","size_leaf_vector":"1"}},{"base_weights":[1.4775182E-2,1.2955998E-1,-8.5137226E-2,1.8770204E-1,-3.3910554E-3,-1.5181708E-1,8.7062396E-2,-1.0064689E-1,1.1243971E-1,-5.9017356E-2,-1.3829942E-1,-5.5734802E-2,2.2068754E-1,-2.6139927E-1,1.3574478E-1,3.211041E-1,-1.55812185E-2,-7.0188165E-2,-1.484303E-1,-1.1006595E-1,1.1345139E-1,1.6310991E-1,-3.0134637E-3,6.620339E-2,-1.2188483E-1,-9.8711334E-2,4.720736E-2],"categories":[],"categories_nodes":[],"categories_segments":[],"categories_sizes":[],"default_left":[0,0,0,0,0,0,0,0,0,0,0,0,0,0,0,0,0,0,0,0,0,0,0,0,0,0,0],"id":21,"left_children":[1,3,5,-1,7,9,-1,-1,11,13,-1,-1,15,17,19,21,-1,23,-1,25,-1,-1,-1,-1,-1,-1,-1],"loss_changes":[2.481169E-1,6.628317E-1,3.3578363E-1,0E0,3.7987122E-1,2.7561316E-1,0E0,0E0,2.7806145E-1,4.0065676E-1,0E0,0E0,1.7668721E-1,1.8326283E-1,3.6218363E-1,3.3058915E-1,0E0,4.6607023E-1,0E0,2.5354424E-1,0E0,0E0,0E0,0E0,0E0,0E0,0E0],"parents":[2147483647,0,0,1,1,2,2,4,4,5,5,8,8,9,9,12,12,13,13,14,14,15,15,17,17,19,19],"right_children":[2,4,6,-1,8,10,-1,-1,12,14,-1,-1,16,18,20,22,-1,24,-1,26,-1,-1,-1,-1,-1,-1,-1],"split_conditions":[2.793215E2,4.0623535E1,4.20298E2,1.8770204E-1,4.6264422E-1,4.016815E2,8.7062396E-2,-1.0064689E-1,2.19007E2,3.30579E2,-1.3829942E-1,-5.5734802E-2,9.036753E-1,3.203615E2,4.100006E0,-4.9002075E-1,-1.55812185E-2,6.7780815E1,-1.484303E-1,3.04851E-1,1.1345139E-1,1.6310991E-1,-3.0134637E-3,6.620339E-2,-1.2188483E-1,-9.8711334E-2,4.720736E-2],"split_indices":[0,1,0,0,2,0,0,0,0,0,0,0,2,0,3,3,0,1,0,2,0,0,0,0,0,0,0],"split_type":[0,0,0,0,0,0,0,0,0,0,0,0,0,0,0,0,0,0,0,0,0,0,0,0,0,0,0],"sum_hessian":[1.967298E1,9.017012E0,1.0655968E1,1.1224582E0,7.894554E0,9.554197E0,1.1017706E0,1.5510778E0,6.343476E0,8.264512E0,1.289685E0,1.4985912E0,4.844885E0,3.885182E0,4.37933E0,3.410766E0,1.4341189E0,2.8504324E0,1.0347495E0,2.4455862E0,1.9337441E0,1.6558553E0,1.7549106E0,1.7121193E0,1.138313E0,1.2179264E0,1.2276598E0],"tree_param":{"num_deleted":"0","num_feature":"4","num_nodes":"27","size_leaf_vector":"1"}},{"base_weights":[1.0147058E-2,-4.9846206E-2,1.8214145E-1,6.447007E-2,-1.0316358E-1,1.2537599E-1,-4.504881E-2,7.242378E-2,-2.0742802E-1,5.3901505E-2,-7.7181585E-2,-1.00452945E-1,2.5595814E-1,-1.3739198E-1,-1.0217256E-1,1.2445609E-1,6.944783E-2,4.8062515E-2,-1.1526625E-1,-5.2809592E-2,8.4413245E-2,-7.031762E-2,6.25631E-2],"categories":[],"categories_nodes":[],"categories_segments":[],"categories_sizes":[],"default_left":[0,0,0,0,0,0,0,0,0,0,0,0,0,0,0,0,0,0,0,0,0,0,0],"id":22,"left_children":[1,3,5,-1,7,-1,9,11,13,-1,-1,-1,15,-1,17,-1,19,21,-1,-1,-1,-1,-1],"loss_changes":[2.1616025E-1,2.4327804E-1,3.083431E-1,0E0,2.660916E-1,0E0,2.2054532E-1,5.230253E-1,1.8694535E-1,0E0,0E0,0E0,1.07509404E-1,0E0,3.3747557E-1,0E0,2.2210269E-1,3.1182647E-1,0E0,0E0,0E0,0E0,0E0],"parents":[2147483647,0,0,1,1,2,2,4,4,6,6,7,7,8,8,12,12,14,14,16,16,17,17],"right_children":[2,4,6,-1,8,-1,10,12,14,-1,-1,-1,16,-1,18,-1,20,22,-1,-1,-1,-1,-1],"split_conditions":[5.1900024E0,2.30075E2,3.09687E2,6.447007E-2,3.295988E-1,1.2537599E-1,1.3179993E1,3.573185E1,4.6264422E-1,5.3901505E-2,-7.7181585E-2,-1.00452945E-1,-9.669983E0,-1.3739198E-1,2.5899963E0,1.2445609E-1,-6.6000366E-1,2.565825E2,-1.1526625E-1,-5.2809592E-2,8.4413245E-2,-7.031762E-2,6.25631E-2],"split_indices":[3,0,0,0,2,0,3,1,2,0,0,0,3,0,3,0,3,0,0,0,0,0,0],"split_type":[0,0,0,0,0,0,0,0,0,0,0,0,0,0,0,0,0,0,0,0,0,0,0],"sum_hessian":[1.9068913E1,1.4664117E1,4.4047947E0,1.9501413E0,1.2713976E1,1.7495713E0,2.6552234E0,4.8506255E0,7.8633504E0,1.3641379E0,1.2910855E0,1.2507551E0,3.5998702E0,1.3348563E0,6.5284944E0,1.2827511E0,2.3171191E0,4.80087E0,1.7276242E0,1.1520618E0,1.1650573E0,1.5725492E0,3.2283208E0],"tree_param":{"num_deleted":"0","num_feature":"4","num_nodes":"23","size_leaf_vector":"1"}},{"base_weights":[5.126978E-3,-1.6895528E-1,7.042769E-2,3.8900986E-2,-2.7841303E-1,1.2871583E-1,9.714553E-3,-4.1027868E-1,1.0488845E-2,1.7370395E-1,-1.7752758E-1,-2.0289486E-2,-1.6166118E-1,2.5653271E-2,1.4238226E-1,-3.1280392E-1,6.225229E-2,-1.7184013E-1,1.19713284E-1,-1.828848E-1,-6.290054E-2,4.479747E-2,-1.6458307E-1,7.27264E-2,-8.243143E-2],"categories":[],"categories_nodes":[],"categories_segments":[],"categories_sizes":[],"default_left":[0,0,0,0,0,0,0,0,0,0,0,0,0,0,0,0,0,0,0,0,0,0,0,0,0],"id":23,"left_children":[1,3,5,-1,7,-1,9,11,-1,13,15,-1,-1,17,-1,19,-1,21,-1,-1,23,-1,-1,-1,-1],"loss_changes":[2.349141E-1,2.2064647E-1,3.218314E-1,0E0,1.9820267E-1,0E0,4.5543218E-1,1.0499537E-1,0E0,3.387419E-1,4.2694798E-1,0E0,0E0,5.358493E-1,0E0,3.7276196E-1,0E0,6.680121E-1,0E0,0E0,3.3339018E-1,0E0,0E0,0E0,0E0],"parents":[2147483647,0,0,1,1,2,2,4,4,6,6,7,7,9,9,10,10,13,13,15,15,17,17,20,20],"right_children":[2,4,6,-1,8,-1,10,12,-1,14,16,-1,-1,18,-1,20,-1,22,-1,-1,24,-1,-1,-1,-1],"split_conditions":[-4.3099976E0,-1.5700012E1,7.848173E-2,3.8900986E-2,5.628967E1,1.2871583E-1,2.793215E2,-9.669983E0,1.0488845E-2,2.565825E2,3.83357E2,-2.0289486E-2,-1.6166118E-1,3.8599854E0,1.4238226E-1,5.0657368E1,6.225229E-2,4.7000122E-1,1.19713284E-1,-1.828848E-1,6.7780815E1,4.479747E-2,-1.6458307E-1,7.27264E-2,-8.243143E-2],"split_indices":[3,3,2,0,1,0,0,3,0,0,0,0,0,3,0,1,0,3,0,0,1,0,0,0,0],"split_type":[0,0,0,0,0,0,0,0,0,0,0,0,0,0,0,0,0,0,0,0,0,0,0,0,0],"sum_hessian":[1.8618309E1,4.645838E0,1.3972472E1,1.1965969E0,3.4492407E0,1.1445966E0,1.2827875E1,2.21005E0,1.2391907E0,6.877107E0,5.950768E0,1.0194787E0,1.1905713E0,5.3366303E0,1.5404767E0,4.5424447E0,1.4083233E0,3.8435113E0,1.4931191E0,1.4183972E0,3.1240475E0,2.4007466E0,1.4427649E0,1.2207137E0,1.9033339E0],"tree_param":{"num_deleted":"0","num_feature":"4","num_nodes":"25","size_leaf_vector":"1"}},{"base_weights":[3.1237707E-3,-4.242317E-2,2.563268E-1,1.8296072E-2,-1.0974614E-1,1.02022566E-1,1.4001391E-2,-3.3500884E-2,9.7529344E-2,3.397622E-2,-1.1014377E-1,-1.0590568E-1,2.3439658E-1,4.3482363E-2,-1.2414818E-1,-3.0499525E-2,1.5604241E-1],"categories":[],"categories_nodes":[],"categories_segments":[],"categories_sizes":[],"default_left":[0,0,0,0,0,0,0,0,0,0,0,0,0,0,0,0,0],"id":24,"left_children":[1,3,5,7,-1,-1,-1,9,-1,11,-1,13,15,-1,-1,-1,-1],"loss_changes":[2.3014428E-1,3.399692E-1,3.751777E-2,2.5310448E-1,0E0,0E0,0E0,3.2646433E-1,0E0,3.7571117E-1,0E0,6.8254757E-1,5.768006E-1,0E0,0E0,0E0,0E0],"parents":[2147483647,0,0,1,1,2,2,3,3,7,7,9,9,11,11,12,12],"right_children":[2,4,6,8,-1,-1,-1,10,-1,12,-1,14,16,-1,-1,-1,-1],"split_conditions":[9.5481175E-1,6.6451256E1,4.5400085E0,6.081198E1,-1.0974614E-1,1.02022566E-1,1.4001391E-2,5.6223255E1,9.7529344E-2,1.1799927E0,-1.1014377E-1,4.8654736E1,4.7424362E1,4.3482363E-2,-1.2414818E-1,-3.0499525E-2,1.5604241E-1],"split_indices":[2,1,3,1,0,0,0,1,0,3,0,1,1,0,0,0,0],"split_type":[0,0,0,0,0,0,0,0,0,0,0,0,0,0,0,0,0],"sum_hessian":[1.8013027E1,1.597233E1,2.0406978E0,1.42417965E1,1.7305336E0,1.013701E0,1.0269969E0,1.2946809E1,1.2949876E0,1.1515962E1,1.4308469E0,7.060041E0,4.4559207E0,4.1822677E0,2.877773E0,2.3437128E0,2.112208E0],"tree_param":{"num_deleted":"0","num_feature":"4","num_nodes":"17","size_leaf_vector":"1"}},{"base_weights":[4.2797276E-3,-7.141756E-2,4.6152208E-2,3.014842E-3,1.063826E-1,7.3476076E-2,-1.11879475E-1,-1.3669444E-2,1.3771942E-1,1.2344221E-1,-1.6519295E-1,6.618412E-2,-6.756858E-2,-1.0997238E-1,2.4766175E-2],"categories":[],"categories_nodes":[],"categories_segments":[],"categories_sizes":[],"default_left":[0,0,0,0,0,0,0,0,0,0,0,0,0,0,0],"id":25,"left_children":[1,-1,3,5,-1,7,-1,9,-1,11,13,-1,-1,-1,-1],"loss_changes":[2.002863E-1,0E0,2.2173065E-1,4.4324946E-1,0E0,4.7859108E-1,0E0,2.7875745E-1,0E0,2.902695E-1,3.4633595E-1,0E0,0E0,0E0,0E0],"parents":[2147483647,0,0,2,2,3,3,5,5,7,7,9,9,10,10],"right_children":[2,-1,4,6,-1,8,-1,10,-1,12,14,-1,-1,-1,-1],"split_conditions":[-1.0820007E1,-7.141756E-2,4.0796548E2,3.67207E2,1.063826E-1,9.5481175E-1,-1.11879475E-1,6.6437685E-1,1.3771942E-1,3.320065E2,2.565825E2,6.618412E-2,-6.756858E-2,-1.0997238E-1,2.4766175E-2],"split_indices":[3,0,0,0,0,2,0,2,0,0,0,0,0,0,0],"split_type":[0,0,0,0,0,0,0,0,0,0,0,0,0,0,0],"sum_hessian":[1.7655136E1,1.9108295E0,1.5744307E1,1.4698507E1,1.0457995E0,1.3056052E1,1.6424553E0,1.1435993E1,1.620059E0,6.100792E0,5.3352013E0,5.0583467E0,1.042445E0,2.678413E0,2.6567883E0],"tree_param":{"num_deleted":"0","num_feature":"4","num_nodes":"15","size_leaf_vector":"1"}},{"base_weights":[1.6679934E-3,-5.1673055E-2,1.950753E-1,9.102831E-2,-1.2799822E-1,1.13937564E-1,-7.86265E-3,-1.0127078E-1,9.346275E-2,-3.4456927E-1,4.790686E-2,7.7572234E-2,-1.0846635E-1,-1.4132665E-1,-1.6272563E-1,1.13125466E-1,-9.05845E-2,-1.1058978E-1,4.6823137E-2,3.692564E-2,-2.2338827E-1,-1.0004287E-1,3.9770063E-3],"categories":[],"categories_nodes":[],"categories_segments":[],"categories_sizes":[],"default_left":[0,0,0,0,0,0,0,0,0,0,0,0,0,0,0,0,0,0,0,0,0,0,0],"id":26,"left_children":[1,3,5,7,9,-1,-1,11,-1,13,15,-1,-1,17,-1,-1,19,-1,-1,-1,21,-1,-1],"loss_changes":[1.9949119E-1,1.7700426E-1,1.807449E-1,2.8066802E-1,4.0915304E-1,0E0,0E0,4.5809826E-1,0E0,1.1400366E-1,3.3345807E-1,0E0,0E0,3.0706748E-1,0E0,0E0,1.8150483E-1,0E0,0E0,0E0,1.0087289E-1,0E0,0E0],"parents":[2147483647,0,0,1,1,2,2,3,3,4,4,7,7,9,9,10,10,13,13,16,16,20,20],"right_children":[2,4,6,8,10,-1,-1,12,-1,14,16,-1,-1,18,-1,-1,20,-1,-1,-1,22,-1,-1],"split_conditions":[6.5700073E0,3.295988E-1,1.1470001E1,4.1724125E1,5.427655E1,1.13937564E-1,-7.86265E-3,2.793215E2,9.346275E-2,6.6314E-1,5.6223255E1,7.7572234E-2,-1.0846635E-1,4.6264422E-1,-1.6272563E-1,1.13125466E-1,-3.100006E0,-1.1058978E-1,4.6823137E-2,3.692564E-2,2.84385E2,-1.0004287E-1,3.9770063E-3],"split_indices":[3,2,3,1,1,0,0,0,0,2,1,0,0,2,0,0,3,0,0,0,0,0,0],"split_type":[0,0,0,0,0,0,0,0,0,0,0,0,0,0,0,0,0,0,0,0,0,0,0],"sum_hessian":[1.7359924E1,1.4181536E1,3.178389E0,4.874774E0,9.306762E0,1.3419175E0,1.8364717E0,2.8928337E0,1.9819404E0,3.741482E0,5.5652795E0,1.2169526E0,1.6758811E0,2.6912181E0,1.0502639E0,1.1378758E0,4.427404E0,1.3896248E0,1.3015934E0,1.725078E0,2.702326E0,1.5650679E0,1.137258E0],"tree_param":{"num_deleted":"0","num_feature":"4","num_nodes":"23","size_leaf_vector":"1"}},{"base_weights":[4.693103E-4,-1.502729E-1,5.90903E-2,4.68736E-2,-2.7280644E-1,2.9264376E-1,-3.319958E-2,-1.1506273E-1,8.983869E-4,4.8275085E-4,1.292047E-1,1.14272736E-1,-1.1712037E-1,-2.146307E-1,1.411011E-1,-1.2672359E-1,-6.570348E-2,1.24252446E-1,-5.0381042E-2,-9.674638E-2,6.1076026E-2],"categories":[],"categories_nodes":[],"categories_segments":[],"categories_sizes":[],"default_left":[0,0,0,0,0,0,0,0,0,0,0,0,0,0,0,0,0,0,0,0,0],"id":27,"left_children":[1,3,5,-1,7,9,11,-1,-1,-1,-1,-1,13,15,17,-1,19,-1,-1,-1,-1],"loss_changes":[1.6690384E-1,2.4128655E-1,3.0271697E-1,0E0,1.2767816E-1,1.5807503E-1,4.144265E-1,0E0,0E0,0E0,0E0,0E0,2.7233583E-1,2.0045075E-1,3.4284583E-1,0E0,4.4458854E-1,0E0,0E0,0E0,0E0],"parents":[2147483647,0,0,1,1,2,2,4,4,5,5,6,6,12,12,13,13,14,14,16,16],"right_children":[2,4,6,-1,8,10,12,-1,-1,-1,-1,-1,14,16,18,-1,20,-1,-1,-1,-1],"split_conditions":[-4.3099976E0,-1.5700012E1,2.40999E2,4.68736E-2,5.628967E1,2.19007E2,7.848173E-2,-1.1506273E-1,8.983869E-4,4.8275085E-4,1.292047E-1,1.14272736E-1,9.850006E0,4.7428757E1,5.8374004E1,-1.2672359E-1,1.1799927E0,1.24252446E-1,-5.0381042E-2,-9.674638E-2,6.1076026E-2],"split_indices":[3,3,0,0,1,0,2,0,0,0,0,0,3,1,1,0,3,0,0,0,0],"split_type":[0,0,0,0,0,0,0,0,0,0,0,0,0,0,0,0,0,0,0,0,0],"sum_hessian":[1.6882795E1,4.2893605E0,1.2593435E1,1.1464322E0,3.1429284E0,2.95201E0,9.641425E0,1.9638007E0,1.1791277E0,1.275165E0,1.6768451E0,1.0283079E0,8.613117E0,6.374697E0,2.2384198E0,1.894772E0,4.479925E0,1.0077443E0,1.2306755E0,2.1920888E0,2.2878363E0],"tree_param":{"num_deleted":"0","num_feature":"4","num_nodes":"21","size_leaf_vector":"1"}},{"base_weights":[5.321384E-3,1.0568047E-1,-8.0172144E-2,-3.50625E-3,1.3770007E-1,-2.380399E-1,2.8846316E-2,8.128269E-2,-1.00801274E-1,-1.3122236E-2,-1.13845E-1,1.0382682E-1,-1.3720748E-1,-2.0019822E-1,4.6695657E-2,-1.1601923E-1,6.9690056E-2,-8.500377E-4,-3.0497697E-1,5.800215E-2,-2.2796236E-2,-1.2930048E-1,-1.0986039E-2],"categories":[],"categories_nodes":[],"categories_segments":[],"categories_sizes":[],"default_left":[0,0,0,0,0,0,0,0,0,0,0,0,0,0,0,0,0,0,0,0,0,0,0],"id":28,"left_children":[1,3,5,7,-1,9,11,-1,13,-1,-1,-1,15,17,-1,-1,19,-1,21,-1,-1,-1,-1],"loss_changes":[1.5818822E-1,3.2790676E-1,1.788184E-1,2.263465E-1,0E0,9.853226E-2,4.058021E-1,0E0,1.9001403E-1,0E0,0E0,0E0,2.9441994E-1,1.01055905E-1,0E0,0E0,8.097415E-2,0E0,9.277785E-2,0E0,0E0,0E0,0E0],"parents":[2147483647,0,0,1,1,2,2,3,3,5,5,6,6,8,8,12,12,13,13,16,16,18,18],"right_children":[2,4,6,8,-1,10,12,-1,14,-1,-1,-1,16,18,-1,-1,20,-1,22,-1,-1,-1,-1],"split_conditions":[2.793215E2,2.59223E2,3.30579E2,4.3610588E1,1.3770007E-1,3.15678E2,3.464025E2,8.128269E-2,8.838174E-1,-1.3122236E-2,-1.13845E-1,1.0382682E-1,3.87468E2,6.6437685E-1,4.6695657E-2,-1.1601923E-1,2.5386128E-1,-8.500377E-4,2.2400208E0,5.800215E-2,-2.2796236E-2,-1.2930048E-1,-1.0986039E-2],"split_indices":[0,0,0,1,0,0,0,0,2,0,0,0,0,2,0,0,2,0,3,0,0,0,0],"split_type":[0,0,0,0,0,0,0,0,0,0,0,0,0,0,0,0,0,0,0,0,0,0,0],"sum_hessian":[1.644926E1,7.4581594E0,8.991102E0,6.453809E0,1.0043503E0,3.1892793E0,5.8018227E0,1.222015E0,5.231794E0,1.8951629E0,1.2941164E0,1.6209066E0,4.180916E0,3.928524E0,1.3032699E0,1.5012201E0,2.6796958E0,1.7185147E0,2.2100096E0,1.2724577E0,1.4072381E0,1.0913961E0,1.1186134E0],"tree_param":{"num_deleted":"0","num_feature":"4","num_nodes":"23","size_leaf_vector":"1"}},{"base_weights":[4.817871E-3,-6.386254E-2,4.3871902E-2,1.7975347E-1,4.5626894E-6,-1.907265E-2,1.2698063E-1,6.872218E-2,-8.883601E-2,-2.2628494E-2,1.1668895E-1,7.793432E-2,-1.7954643E-1,-1.8823607E-2,1.15360506E-1,-1.17979966E-1,9.091682E-3],"categories":[],"categories_nodes":[],"categories_segments":[],"categories_sizes":[],"default_left":[0,0,0,0,0,0,0,0,0,0,0,0,0,0,0,0,0],"id":29,"left_children":[1,-1,3,5,7,-1,-1,9,-1,11,-1,13,15,-1,-1,-1,-1],"loss_changes":[1.547334E-1,0E0,9.1373995E-2,2.4858452E-1,2.7650914E-1,0E0,0E0,3.314451E-1,0E0,1.6431656E-1,0E0,3.0461386E-1,1.9235961E-1,0E0,0E0,0E0,0E0],"parents":[2147483647,0,0,2,2,3,3,4,4,7,7,9,9,11,11,12,12],"right_children":[2,-1,4,6,8,-1,-1,10,-1,12,-1,14,16,-1,-1,-1,-1],"split_conditions":[-1.0820007E1,-6.386254E-2,2.2166145E-1,4.142171E1,3.67207E2,-1.907265E-2,1.2698063E-1,9.5481175E-1,-8.883601E-2,5.653551E1,1.1668895E-1,5.3109676E1,2.54366E2,-1.8823607E-2,1.15360506E-1,-1.17979966E-1,9.091682E-3],"split_indices":[3,0,2,1,0,0,0,2,0,1,0,1,0,0,0,0,0],"split_type":[0,0,0,0,0,0,0,0,0,0,0,0,0,0,0,0,0],"sum_hessian":[1.6101599E1,1.7722164E0,1.4329383E1,2.741078E0,1.15883045E1,1.7406679E0,1.00041E0,1.002895E1,1.5593545E0,8.526153E0,1.5027975E0,5.502897E0,3.023256E0,4.3173084E0,1.1855882E0,1.0648055E0,1.9584504E0],"tree_param":{"num_deleted":"0","num_feature":"4","num_nodes":"17","size_leaf_vector":"1"}},{"base_weights":[7.240807E-3,-4.4617455E-2,1.5241756E-1,7.052667E-2,-1.04022644E-1,8.935659E-2,-2.8589515E-3,-3.708593E-3,-2.9405922E-1,4.274223E-2,-4.3257996E-2,-9.977678E-2,8.14293E-2,-1.2731324E-1,-1.0060914E-3,9.201725E-2,-1.1307881E-1,-5.7481114E-2,1.1533667E-1],"categories":[],"categories_nodes":[],"categories_segments":[],"categories_sizes":[],"default_left":[0,0,0,0,0,0,0,0,0,0,0,0,0,0,0,0,0,0,0],"id":30,"left_children":[1,3,5,-1,7,-1,9,11,13,-1,-1,15,-1,-1,-1,17,-1,-1,-1],"loss_changes":[1.3339663E-1,2.431745E-1,1.0591076E-1,0E0,2.1910128E-1,0E0,8.710446E-2,2.536771E-1,1.4927477E-1,0E0,0E0,4.1131127E-1,0E0,0E0,0E0,4.876467E-1,0E0,0E0,0E0],"parents":[2147483647,0,0,1,1,2,2,4,4,6,6,7,7,8,8,11,11,15,15],"right_children":[2,4,6,-1,8,-1,10,12,14,-1,-1,16,-1,-1,-1,18,-1,-1,-1],"split_conditions":[5.1900024E0,2.30075E2,3.09687E2,7.052667E-2,7.673057E-1,8.935659E-2,1.3179993E1,6.3413477E-1,6.914278E1,4.274223E-2,-4.3257996E-2,4.8654736E1,8.14293E-2,-1.2731324E-1,-1.0060914E-3,4.1724125E1,-1.1307881E-1,-5.7481114E-2,1.1533667E-1],"split_indices":[3,0,0,0,2,0,3,2,1,0,0,1,0,0,0,1,0,0,0],"split_type":[0,0,0,0,0,0,0,0,0,0,0,0,0,0,0,0,0,0,0],"sum_hessian":[1.581533E1,1.2163206E1,3.6521237E0,1.6126665E0,1.0550539E1,1.4116732E0,2.2404504E0,7.5726843E0,2.9778554E0,1.1006236E0,1.1398269E0,6.085293E0,1.4873914E0,1.7386364E0,1.239219E0,3.9912643E0,2.0940285E0,2.20122E0,1.7900443E0],"tree_param":{"num_deleted":"0","num_feature":"4","num_nodes":"19","size_leaf_vector":"1"}},{"base_weights":[8.261915E-3,5.144181E-2,-1.3802353E-1,-1.3954813E-2,1.12579264E-1,-8.616449E-2,1.8498862E-2,6.5183714E-2,-1.8351291E-1,-6.0590368E-2,3.3564812E-1,-1.2373369E-1,4.8625905E-2,5.158034E-2,-9.682119E-2,1.329898E-1,1.8381193E-2,-3.1699933E-2,1.0584244E-1],"categories":[],"categories_nodes":[],"categories_segments":[],"categories_sizes":[],"default_left":[0,0,0,0,0,0,0,0,0,0,0,0,0,0,0,0,0,0,0],"id":31,"left_children":[1,3,5,7,-1,-1,-1,9,11,13,15,-1,-1,17,-1,-1,-1,-1,-1],"loss_changes":[1.1109685E-1,2.89861E-1,1.3758355E-1,1.7494711E-1,0E0,0E0,0E0,3.2714128E-1,3.9339077E-1,2.2258028E-1,6.191477E-2,0E0,0E0,3.1043848E-1,0E0,0E0,0E0,0E0,0E0],"parents":[2147483647,0,0,1,1,2,2,3,3,7,7,8,8,9,9,10,10,13,13],"right_children":[2,4,6,8,-1,-1,-1,10,12,14,16,-1,-1,18,-1,-1,-1,-1,-1],"split_conditions":[6.7283165E1,6.081198E1,9.5481175E-1,6.073824E-1,1.12579264E-1,-8.616449E-2,1.8498862E-2,4.25E0,7.327988E-1,4.934339E1,9.579987E0,-1.2373369E-1,4.8625905E-2,4.7428757E1,-9.682119E-2,1.329898E-1,1.8381193E-2,-3.1699933E-2,1.0584244E-1],"split_indices":[1,1,2,2,0,0,0,3,2,1,3,0,0,1,0,0,0,0,0],"split_type":[0,0,0,0,0,0,0,0,0,0,0,0,0,0,0,0,0,0,0],"sum_hessian":[1.5464055E1,1.2440322E1,3.0237334E0,1.1146224E1,1.2940978E0,1.479801E0,1.5439322E0,8.019034E0,3.1271892E0,6.0032973E0,2.0157373E0,1.7647543E0,1.3624347E0,4.7668405E0,1.2364569E0,1.0055557E0,1.0101815E0,3.558466E0,1.2083745E0],"tree_param":{"num_deleted":"0","num_feature":"4","num_nodes":"19","size_leaf_vector":"1"}},{"base_weights":[1.1978014E-2,1.0583567E-1,-6.990794E-2,1.095055E-1,-9.173709E-3,-2.2448915E-1,3.622386E-2,-9.1280594E-2,1.0274319E-1,-9.0940446E-2,-2.4605328E-3,9.095408E-2,-1.0778E-1,9.570136E-2,-7.9076E-2,-9.428797E-2,5.9797056E-2,-7.579618E-2,3.6895037E-2,-2.8472112E-2,5.1712286E-2],"categories":[],"categories_nodes":[],"categories_segments":[],"categories_sizes":[],"default_left":[0,0,0,0,0,0,0,0,0,0,0,0,0,0,0,0,0,0,0,0,0],"id":32,"left_children":[1,3,5,-1,7,9,11,-1,13,-1,-1,-1,15,-1,17,-1,19,-1,-1,-1,-1],"loss_changes":[1.313359E-1,2.3917669E-1,1.5930289E-1,0E0,2.4445575E-1,6.36822E-2,2.7580512E-1,0E0,2.3865137E-1,0E0,0E0,0E0,1.864998E-1,0E0,1.6259956E-1,0E0,7.7583626E-2,0E0,0E0,0E0,0E0],"parents":[2147483647,0,0,1,1,2,2,4,4,5,5,6,6,8,8,12,12,14,14,16,16],"right_children":[2,4,6,-1,8,10,12,-1,14,-1,-1,-1,16,-1,18,-1,20,-1,-1,-1,-1],"split_conditions":[2.793215E2,4.3610588E1,3.30579E2,1.095055E-1,-4.3099976E0,5.1900024E0,3.464025E2,-9.1280594E-2,4.7000122E-1,-9.0940446E-2,-2.4605328E-3,9.095408E-2,3.87468E2,9.570136E-2,3.8599854E0,-9.428797E-2,-1.7200012E0,-7.579618E-2,3.6895037E-2,-2.8472112E-2,5.1712286E-2],"split_indices":[0,1,0,0,3,3,0,0,3,0,0,0,0,0,3,0,3,0,0,0,0],"split_type":[0,0,0,0,0,0,0,0,0,0,0,0,0,0,0,0,0,0,0,0,0],"sum_hessian":[1.5125841E1,6.911456E0,8.214385E0,1.4561329E0,5.455323E0,2.8899598E0,5.3244257E0,1.0274669E0,4.4278564E0,1.8248699E0,1.06509E0,1.4783946E0,3.846031E0,1.6777611E0,2.7500954E0,1.3306692E0,2.5153618E0,1.3446167E0,1.4054787E0,1.1255655E0,1.3897963E0],"tree_param":{"num_deleted":"0","num_feature":"4","num_nodes":"21","size_leaf_vector":"1"}},{"base_weights":[8.664325E-3,4.6016492E-2,-5.0997827E-2,8.529641E-2,-2.9074706E-3,-1.3099018E-1,8.214043E-2,2.3344908E-2,-2.0222071E-1,2.1687697E-1,-4.8753094E-2,2.8153703E-2,-1.1912784E-1,-1.8125556E-2,1.10313706E-1,-9.399879E-2,1.3460763E-1,9.544555E-2,-4.5793675E-2],"categories":[],"categories_nodes":[],"categories_segments":[],"categories_sizes":[],"default_left":[0,0,0,0,0,0,0,0,0,0,0,0,0,0,0,0,0,0,0],"id":33,"left_children":[1,3,-1,-1,5,7,9,-1,11,13,15,-1,-1,-1,-1,-1,17,-1,-1],"loss_changes":[1.13206536E-1,1.6228127E-1,0E0,0E0,1.4669943E-1,9.5534585E-2,1.5367639E-1,0E0,2.841062E-1,1.9713011E-1,2.814543E-1,0E0,0E0,0E0,0E0,0E0,2.3904204E-1,0E0,0E0],"parents":[2147483647,0,0,1,1,4,4,5,5,6,6,8,8,9,9,10,10,16,16],"right_children":[2,4,-1,-1,6,8,10,-1,12,14,16,-1,-1,-1,-1,-1,18,-1,-1],"split_conditions":[4.016815E2,9.8794416E-2,-5.0997827E-2,8.529641E-2,5.0657368E1,-3.9700012E0,8.167801E-1,2.3344908E-2,2.6433635E-1,2.565825E2,8.9460325E-1,2.8153703E-2,-1.1912784E-1,-1.8125556E-2,1.10313706E-1,-9.399879E-2,1.0635697E0,9.544555E-2,-4.5793675E-2],"split_indices":[0,2,0,0,1,3,2,0,2,0,2,0,0,0,0,0,2,0,0],"split_type":[0,0,0,0,0,0,0,0,0,0,0,0,0,0,0,0,0,0,0],"sum_hessian":[1.4792068E1,1.2848284E1,1.9437835E0,1.3689141E0,1.147937E1,4.3651824E0,7.1141872E0,1.0868146E0,3.2783678E0,3.181935E0,3.9322522E0,1.5070907E0,1.7712771E0,1.3322216E0,1.8497134E0,1.3194985E0,2.6127539E0,1.5285201E0,1.0842336E0],"tree_param":{"num_deleted":"0","num_feature":"4","num_nodes":"19","size_leaf_vector":"1"}},{"base_weights":[7.053199E-3,-6.537792E-2,3.9032586E-2,1.1571605E-1,-1.662559E-2,-7.675614E-2,6.9804534E-2,-3.1530178E-1,2.0782901E-2,1.575102E-2,-1.5385719E-1,8.152277E-2,-5.6459155E-2,-8.758398E-2,2.2193223E-2],"categories":[],"categories_nodes":[],"categories_segments":[],"categories_sizes":[],"default_left":[0,0,0,0,0,0,0,0,0,0,0,0,0,0,0],"id":34,"left_children":[1,-1,3,-1,5,7,-1,9,11,-1,-1,-1,13,-1,-1],"loss_changes":[1.2048337E-1,0E0,2.857214E-1,0E0,2.1920742E-1,2.7583274E-1,0E0,2.754767E-1,1.9276175E-1,0E0,0E0,0E0,2.6199752E-1,0E0,0E0],"parents":[2147483647,0,0,2,2,4,4,5,5,7,7,8,8,12,12],"right_children":[2,-1,4,-1,6,8,-1,10,12,-1,-1,-1,14,-1,-1],"split_conditions":[3.2832603E1,-6.537792E-2,4.0623535E1,1.1571605E-1,9.850006E0,4.7428757E1,6.9804534E-2,-1.9900208E0,4.934339E1,1.575102E-2,-1.5385719E-1,8.152277E-2,5.427655E1,-8.758398E-2,2.2193223E-2],"split_indices":[1,0,1,0,3,1,0,3,1,0,0,0,1,0,0],"split_type":[0,0,0,0,0,0,0,0,0,0,0,0,0,0,0],"sum_hessian":[1.4563819E1,1.0888704E0,1.3474949E1,1.0437022E0,1.2431247E1,1.0573212E1,1.8580351E0,2.4206347E0,8.152576E0,1.1024145E0,1.3182201E0,1.3260788E0,6.826498E0,1.9919845E0,4.8345137E0],"tree_param":{"num_deleted":"0","num_feature":"4","num_nodes":"15","size_leaf_vector":"1"}},{"base_weights":[4.6567293E-3,9.513167E-2,-7.248552E-2,-5.391452E-3,1.04026675E-1,-8.673018E-2,6.349743E-4,-9.9664874E-2,6.759783E-2,1.2742266E-1,-1.5889011E-1,5.5556398E-2,-1.0718856E-1,-1.6746406E-1,1.3211161E-1,-1.0602238E-1,2.968798E-2,-3.8765095E-2,6.0308184E-2,9.246339E-3,-8.6180896E-2],"categories":[],"categories_nodes":[],"categories_segments":[],"categories_sizes":[],"default_left":[0,0,0,0,0,0,0,0,0,0,0,0,0,0,0,0,0,0,0,0,0],"id":35,"left_children":[1,3,5,7,-1,-1,9,11,-1,13,15,17,-1,19,-1,-1,-1,-1,-1,-1,-1],"loss_changes":[1.13629654E-1,1.9082984E-1,1.399164E-1,1.599795E-1,0E0,0E0,1.7383009E-1,2.2707473E-1,0E0,5.1540256E-1,2.259515E-1,1.3615663E-1,0E0,8.459897E-2,0E0,0E0,0E0,0E0,0E0,0E0,0E0],"parents":[2147483647,0,0,1,1,2,2,3,3,6,6,7,7,9,9,10,10,11,11,13,13],"right_children":[2,4,6,8,-1,-1,10,12,-1,14,16,18,-1,20,-1,-1,-1,-1,-1,-1,-1],"split_conditions":[2.793215E2,2.581255E2,3.7554707E1,3.8599854E0,1.04026675E-1,-8.673018E-2,3.67207E2,5.6223255E1,6.759783E-2,3.30579E2,4.0796548E2,4.8146465E1,-1.0718856E-1,2.5899963E0,1.3211161E-1,-1.0602238E-1,2.968798E-2,-3.8765095E-2,6.0308184E-2,9.246339E-3,-8.6180896E-2],"split_indices":[0,0,1,3,0,0,0,1,0,0,0,1,0,3,0,0,0,0,0,0,0],"split_type":[0,0,0,0,0,0,0,0,0,0,0,0,0,0,0,0,0,0,0,0,0],"sum_hessian":[1.4292628E1,6.470554E0,7.8220744E0,5.3227153E0,1.1478384E0,1.2286164E0,6.593458E0,4.1819515E0,1.1407639E0,3.7858052E0,2.807653E0,3.0991073E0,1.0828441E0,2.188502E0,1.5973032E0,1.3891251E0,1.4185278E0,1.4143584E0,1.6847489E0,1.104022E0,1.08448E0],"tree_param":{"num_deleted":"0","num_feature":"4","num_nodes":"21","size_leaf_vector":"1"}},{"base_weights":[1.9419028E-3,-4.897213E-2,1.4047633E-1,1.5489769E-1,-1.22873306E-1,8.4924035E-2,-4.9213828E-3,7.9903126E-2,-1.9071955E-2,-2.7382718E-2,-1.1180744E-1,-1.5801714E-1,1.9020586E-1,9.5463336E-2,-1.5630382E-1,7.846795E-2,1.0435681E-2,-6.262721E-2,1.1310597E-1],"categories":[],"categories_nodes":[],"categories_segments":[],"categories_sizes":[],"default_left":[0,0,0,0,0,0,0,0,0,0,0,0,0,0,0,0,0,0,0],"id":36,"left_children":[1,3,5,7,9,-1,-1,-1,-1,11,-1,13,15,17,-1,-1,-1,-1,-1],"loss_changes":[1.12576835E-1,1.9530174E-1,1.0052524E-1,1.0348957E-1,2.0794092E-1,0E0,0E0,0E0,0E0,2.4878441E-1,0E0,5.4241806E-1,2.7947702E-2,4.2115623E-1,0E0,0E0,0E0,0E0,0E0],"parents":[2147483647,0,0,1,1,2,2,3,3,4,4,9,9,11,11,12,12,13,13],"right_children":[2,4,6,8,10,-1,-1,-1,-1,12,-1,14,16,18,-1,-1,-1,-1,-1],"split_conditions":[5.1900024E0,2.40999E2,3.09687E2,5.6204155E1,2.5899963E0,8.4924035E-2,-4.9213828E-3,7.9903126E-2,-1.9071955E-2,6.3413477E-1,-1.1180744E-1,4.8654736E1,6.481882E1,4.1724125E1,-1.5630382E-1,7.846795E-2,1.0435681E-2,-6.262721E-2,1.1310597E-1],"split_indices":[3,0,0,1,3,0,0,0,0,2,0,1,1,1,0,0,0,0,0],"split_type":[0,0,0,0,0,0,0,0,0,0,0,0,0,0,0,0,0,0,0],"sum_hessian":[1.3985428E1,1.0699615E1,3.285813E0,2.5550456E0,8.144568E0,1.2998403E0,1.9859729E0,1.5468444E0,1.0082012E0,6.695058E0,1.449511E0,4.354507E0,2.3405507E0,2.998006E0,1.3565009E0,1.1360613E0,1.2044894E0,1.5652834E0,1.4327228E0],"tree_param":{"num_deleted":"0","num_feature":"4","num_nodes":"19","size_leaf_vector":"1"}},{"base_weights":[1.783495E-3,1.2413987E-1,-5.0340377E-2,-9.72307E-2,1.0207574E-1,-9.197718E-2,1.3833011E-2,1.9420238E-2,-6.1934207E-2,6.99938E-2,-4.0026616E-2,-1.797408E-1,5.5687316E-2,-1.0892481E-1,9.711778E-3,1.6159265E-1,-6.566062E-2,-2.7207619E-2,7.729326E-2],"categories":[],"categories_nodes":[],"categories_segments":[],"categories_sizes":[],"default_left":[0,0,0,0,0,0,0,0,0,0,0,0,0,0,0,0,0,0,0],"id":37,"left_children":[1,3,5,7,-1,-1,9,-1,-1,-1,11,13,15,-1,-1,17,-1,-1,-1],"loss_changes":[9.97411E-2,2.56394E-1,1.8498904E-1,6.791057E-2,0E0,0E0,1.2455807E-1,0E0,0E0,0E0,1.2608247E-1,1.5818702E-1,2.073445E-1,0E0,0E0,1.407342E-1,0E0,0E0,0E0],"parents":[2147483647,0,0,1,1,2,2,3,3,6,6,10,10,11,11,12,12,15,15],"right_children":[2,4,6,8,-1,-1,10,-1,-1,-1,12,14,16,-1,-1,18,-1,-1,-1],"split_conditions":[4.6392185E1,1.739478E-1,4.8146465E1,3.2273502E2,1.0207574E-1,-9.197718E-2,4.9783886E1,1.9420238E-2,-6.1934207E-2,6.99938E-2,-1.7200012E0,5.905415E1,7.050683E1,-1.0892481E-1,9.711778E-3,2.37531E2,-6.566062E-2,-2.7207619E-2,7.729326E-2],"split_indices":[1,2,1,0,0,0,1,0,0,0,3,1,1,0,0,0,0,0,0],"split_type":[0,0,0,0,0,0,0,0,0,0,0,0,0,0,0,0,0,0,0],"sum_hessian":[1.3659207E1,3.6677778E0,9.991429E0,2.0835884E0,1.5841894E0,1.2444985E0,8.746931E0,1.0031846E0,1.0804038E0,1.0670013E0,7.6799297E0,2.765385E0,4.9145446E0,1.10153E0,1.663855E0,3.8434422E0,1.0711025E0,1.0751911E0,2.768251E0],"tree_param":{"num_deleted":"0","num_feature":"4","num_nodes":"19","size_leaf_vector":"1"}},{"base_weights":[-4.092329E-3,-1.3020654E-1,4.7650546E-2,2.5689578E-2,-2.282607E-1,2.3473549E-1,-3.0764006E-2,-9.770318E-2,-5.8402624E-5,1.1675818E-1,-3.055068E-3,-1.4879805E-1,1.5467156E-1,1.2360549E-2,-2.5865927E-1,8.991622E-2,-1.4106858E-2,-1.5980756E-2,-1.21698715E-1],"categories":[],"categories_nodes":[],"categories_segments":[],"categories_sizes":[],"default_left":[0,0,0,0,0,0,0,0,0,0,0,0,0,0,0,0,0,0,0],"id":38,"left_children":[1,3,5,-1,7,9,11,-1,-1,-1,-1,13,15,-1,17,-1,-1,-1,-1],"loss_changes":[1.00381255E-1,1.1407596E-1,1.680879E-1,0E0,7.4233726E-2,1.3086405E-1,2.1149048E-1,0E0,0E0,0E0,0E0,1.3112848E-1,1.2642264E-1,0E0,9.295341E-2,0E0,0E0,0E0,0E0],"parents":[2147483647,0,0,1,1,2,2,4,4,5,5,6,6,11,11,12,12,14,14],"right_children":[2,4,6,-1,8,10,12,-1,-1,-1,-1,14,16,-1,18,-1,-1,-1,-1],"split_conditions":[-4.3099976E0,-1.3050018E1,2.40999E2,2.5689578E-2,5.6303716E-1,4.7000122E-1,5.1900024E0,-9.770318E-2,-5.8402624E-5,1.1675818E-1,-3.055068E-3,3.9619154E-1,1.1470001E1,1.2360549E-2,2.2899933E0,8.991622E-2,-1.4106858E-2,-1.5980756E-2,-1.21698715E-1],"split_indices":[3,3,0,0,2,3,3,0,0,0,0,2,3,0,3,0,0,0,0],"split_type":[0,0,0,0,0,0,0,0,0,0,0,0,0,0,0,0,0,0,0],"sum_hessian":[1.3432098E1,3.466557E0,9.965542E0,1.122462E0,2.344095E0,2.354515E0,7.611027E0,1.3426131E0,1.0014819E0,1.0826617E0,1.2718532E0,4.771458E0,2.8395686E0,1.9771076E0,2.7943506E0,1.3690196E0,1.470549E0,1.7340018E0,1.0603489E0],"tree_param":{"num_deleted":"0","num_feature":"4","num_nodes":"19","size_leaf_vector":"1"}},{"base_weights":[-3.4093868E-3,-3.83871E-2,5.374506E-2,2.7211405E-2,-2.0297879E-1,-2.1088198E-2,5.973775E-2,-9.705304E-2,4.5729286E-4,5.4008935E-2,-8.932135E-2,-5.4260068E-2,8.215718E-2,2.7591076E-2,-5.010823E-2],"categories":[],"categories_nodes":[],"categories_segments":[],"categories_sizes":[],"default_left":[0,0,0,0,0,0,0,0,0,0,0,0,0,0,0],"id":39,"left_children":[1,3,-1,5,7,9,-1,-1,-1,11,-1,13,-1,-1,-1],"loss_changes":[9.767793E-2,1.4325981E-1,0E0,8.726083E-2,9.3016475E-2,1.9710931E-1,0E0,0E0,0E0,1.9813287E-1,0E0,1.1419668E-1,0E0,0E0,0E0],"parents":[2147483647,0,0,1,1,3,3,4,4,5,5,9,9,11,11],"right_children":[2,4,-1,6,8,10,-1,-1,-1,12,-1,14,-1,-1,-1],"split_conditions":[9.5481175E-1,7.678134E-1,5.374506E-2,6.8834335E-1,6.000061E-1,6.073824E-1,5.973775E-2,-9.705304E-2,4.5729286E-4,4.25E0,-8.932135E-2,2.793215E2,8.215718E-2,2.7591076E-2,-5.010823E-2],"split_indices":[2,2,0,2,3,2,0,0,0,3,0,0,0,0,0],"split_type":[0,0,0,0,0,0,0,0,0,0,0,0,0,0,0],"sum_hessian":[1.3219817E1,1.1756957E1,1.4628595E0,9.003327E0,2.7536297E0,7.7135324E0,1.289795E0,1.3663745E0,1.3872552E0,6.6996684E0,1.0138643E0,4.9936376E0,1.7060305E0,2.2545238E0,2.739114E0],"tree_param":{"num_deleted":"0","num_feature":"4","num_nodes":"15","size_leaf_vector":"1"}},{"base_weights":[-3.4812E-3,4.764645E-2,-3.400269E-2,-1.789478E-1,2.6807204E-2,3.487789E-2,-1.04594715E-1,6.871701E-2,-3.6627684E-2,-1.3304509E-1,1.1035753E-1,-2.4264665E-1,1.7113866E-2,5.6899894E-2,-1.6051488E-2,-1.0094359E-1,-2.895751E-4],"categories":[],"categories_nodes":[],"categories_segments":[],"categories_sizes":[],"default_left":[0,0,0,0,0,0,0,0,0,0,0,0,0,0,0,0,0],"id":40,"left_children":[1,-1,3,5,7,-1,-1,-1,9,11,13,15,-1,-1,-1,-1,-1],"loss_changes":[7.473758E-2,0E0,1.1589986E-1,2.3369151E-1,1.3347211E-1,0E0,0E0,0E0,1.320801E-1,1.275098E-1,5.989591E-2,8.246805E-2,0E0,0E0,0E0,0E0,0E0],"parents":[2147483647,0,0,2,2,3,3,4,4,8,8,9,9,10,10,11,11],"right_children":[2,-1,4,6,8,-1,-1,-1,10,12,14,16,-1,-1,-1,-1,-1],"split_conditions":[9.8794416E-2,4.764645E-2,4.7428757E1,-9.000244E-1,4.9783886E1,3.487789E-2,-1.04594715E-1,6.871701E-2,8.6311173E-1,1.9899902E0,7.277725E1,6.081198E1,1.7113866E-2,5.6899894E-2,-1.6051488E-2,-1.0094359E-1,-2.895751E-4],"split_indices":[2,0,1,3,1,0,0,0,2,3,1,1,0,0,0,0,0],"split_type":[0,0,0,0,0,0,0,0,0,0,0,0,0,0,0,0,0],"sum_hessian":[1.2997002E1,1.3918785E0,1.1605123E1,2.85567E0,8.749453E0,1.1573291E0,1.6983409E0,1.4656441E0,7.2838087E0,4.455796E0,2.828013E0,2.6508894E0,1.8049062E0,1.7995607E0,1.0284523E0,1.6269796E0,1.0239097E0],"tree_param":{"num_deleted":"0","num_feature":"4","num_nodes":"17","size_leaf_vector":"1"}},{"base_weights":[-2.5051E-3,-3.149327E-2,4.4083465E-2,3.23676E-2,-1.9175903E-1,-3.9234888E-2,1.6182521E-1,-8.974594E-2,-2.4543E-3,9.072403E-2,-1.875858E-1,1.3650118E-3,8.544569E-2,-3.126774E-2,8.642328E-2,-3.840239E-3,-8.157553E-2],"categories":[],"categories_nodes":[],"categories_segments":[],"categories_sizes":[],"default_left":[0,0,0,0,0,0,0,0,0,0,0,0,0,0,0,0,0],"id":41,"left_children":[1,3,-1,5,7,9,11,-1,-1,13,15,-1,-1,-1,-1,-1,-1],"loss_changes":[6.462303E-2,1.333442E-1,0E0,9.661811E-2,7.018131E-2,1.5342312E-1,6.95642E-2,0E0,0E0,2.0105556E-1,5.0022095E-2,0E0,0E0,0E0,0E0,0E0,0E0],"parents":[2147483647,0,0,1,1,3,3,4,4,5,5,6,6,9,9,10,10],"right_children":[2,4,-1,6,8,10,12,-1,-1,14,16,-1,-1,-1,-1,-1,-1],"split_conditions":[9.5481175E-1,7.678134E-1,4.4083465E-2,5.0657368E1,8.6311173E-1,4.6392185E1,6.812318E-1,-8.974594E-2,-2.4543E-3,1.739478E-1,3.2001406E-1,1.3650118E-3,8.544569E-2,-3.126774E-2,8.642328E-2,-3.840239E-3,-8.157553E-2],"split_indices":[2,2,0,1,2,1,2,0,0,2,2,0,0,0,0,0,0],"split_type":[0,0,0,0,0,0,0,0,0,0,0,0,0,0,0,0,0],"sum_hessian":[1.284842E1,1.142218E1,1.4262393E0,8.738286E0,2.6838944E0,6.075101E0,2.6631854E0,1.2961E0,1.3877943E0,3.445346E0,2.629755E0,1.6237938E0,1.0393915E0,1.9706155E0,1.4747306E0,1.2307444E0,1.3990105E0],"tree_param":{"num_deleted":"0","num_feature":"4","num_nodes":"17","size_leaf_vector":"1"}},{"base_weights":[-1.1719275E-3,4.483817E-2,-3.0412585E-2,-1.6802149E-1,2.6744947E-2,2.195598E-2,-8.9549236E-2,1.8561861E-1,-5.18371E-2,-2.7270224E-2,1.2519762E-1,-1.3697125E-1,8.937505E-2,-2.364066E-1,1.1227339E-2,5.7105947E-2,-2.0320939E-2,-1.0653319E-2,-1.0124441E-1],"categories":[],"categories_nodes":[],"categories_segments":[],"categories_sizes":[],"default_left":[0,0,0,0,0,0,0,0,0,0,0,0,0,0,0,0,0,0,0],"id":42,"left_children":[1,-1,3,5,7,-1,-1,9,11,-1,-1,13,15,17,-1,-1,-1,-1,-1],"loss_changes":[6.470177E-2,0E0,1.00988865E-1,1.3947737E-1,1.286086E-1,0E0,0E0,2.5400427E-1,9.829926E-2,0E0,0E0,9.313871E-2,6.520908E-2,5.3650543E-2,0E0,0E0,0E0,0E0,0E0],"parents":[2147483647,0,0,2,2,3,3,4,4,7,7,8,8,11,11,12,12,13,13],"right_children":[2,-1,4,6,8,-1,-1,10,12,-1,-1,14,16,18,-1,-1,-1,-1,-1],"split_conditions":[9.8794416E-2,4.483817E-2,4.7428757E1,-9.000244E-1,6.073824E-1,2.195598E-2,-8.9549236E-2,-1.7200012E0,8.9460325E-1,-2.7270224E-2,1.2519762E-1,6.081198E1,7.277725E1,2.2899933E0,1.1227339E-2,5.7105947E-2,-2.0320939E-2,-1.0653319E-2,-1.0124441E-1],"split_indices":[2,0,1,3,2,0,0,3,2,0,0,1,1,3,0,0,0,0,0],"split_type":[0,0,0,0,0,0,0,0,0,0,0,0,0,0,0,0,0,0,0],"sum_hessian":[1.2657628E1,1.3892982E0,1.126833E1,2.7376685E0,8.530662E0,1.1151655E0,1.6225029E0,2.372317E0,6.1583443E0,1.3586235E0,1.0136936E0,3.8607826E0,2.2975614E0,2.2323732E0,1.6284095E0,1.2698369E0,1.0277245E0,1.19953E0,1.0328431E0],"tree_param":{"num_deleted":"0","num_feature":"4","num_nodes":"19","size_leaf_vector":"1"}},{"base_weights":[8.7208755E-5,-1.21992074E-1,4.2952847E-2,-8.497989E-2,1.475045E-2,1.4037584E-1,-6.720735E-2,-1.143144E-2,1.2304904E-1,6.2819935E-2,-1.8703611E-1,1.262566E-1,-6.1242715E-2,-9.720405E-2,2.25207E-3,-2.6817655E-2,8.310756E-2],"categories":[],"categories_nodes":[],"categories_segments":[],"categories_sizes":[],"default_left":[0,0,0,0,0,0,0,0,0,0,0,0,0,0,0,0,0],"id":43,"left_children":[1,3,5,-1,-1,7,9,11,-1,-1,13,15,-1,-1,-1,-1,-1],"loss_changes":[7.5933255E-2,1.1802519E-1,1.2467584E-1,0E0,0E0,2.513321E-1,2.286181E-1,1.5384372E-1,0E0,0E0,1.22783035E-1,1.3638365E-1,0E0,0E0,0E0,0E0,0E0],"parents":[2147483647,0,0,1,1,2,2,5,5,6,6,7,7,10,10,11,11],"right_children":[2,4,6,-1,-1,8,10,12,-1,-1,14,16,-1,-1,-1,-1,-1],"split_conditions":[-6.0099945E0,3.30579E2,2.793215E2,-8.497989E-2,1.475045E-2,2.565825E2,2.2166145E-1,2.40999E2,1.2304904E-1,6.2819935E-2,6.0001038E1,2.19007E2,-6.1242715E-2,-9.720405E-2,2.25207E-3,-2.6817655E-2,8.310756E-2],"split_indices":[3,0,0,0,0,0,2,0,0,0,1,0,0,0,0,0,0],"split_type":[0,0,0,0,0,0,0,0,0,0,0,0,0,0,0,0,0],"sum_hessian":[1.2509128E1,2.771139E0,9.737988E0,1.0895463E0,1.6815926E0,5.0221944E0,4.715794E0,3.8266168E0,1.1955776E0,1.1994793E0,3.5163145E0,2.4330742E0,1.3935425E0,1.6729105E0,1.8434042E0,1.1686336E0,1.2644407E0],"tree_param":{"num_deleted":"0","num_feature":"4","num_nodes":"17","size_leaf_vector":"1"}},{"base_weights":[1.2982148E-3,4.08875E-2,-1.1847622E-1,-1.205092E-1,1.0824283E-1,-7.601577E-2,2.1236276E-2,3.9773583E-2,-1.1738396E-1,2.0128001E-1,-6.4710595E-2,8.983543E-2,3.2728035E-2,-6.8608046E-2,4.3756098E-2,-5.2005075E-2,6.96264E-2],"categories":[],"categories_nodes":[],"categories_segments":[],"categories_sizes":[],"default_left":[0,0,0,0,0,0,0,0,0,0,0,0,0,0,0,0,0],"id":44,"left_children":[1,3,5,7,9,-1,-1,-1,-1,11,13,-1,15,-1,-1,-1,-1],"loss_changes":[6.795778E-2,1.2987435E-1,1.0891436E-1,3.011566E-1,1.4351417E-1,0E0,0E0,0E0,0E0,8.147618E-2,1.5742499E-1,0E0,1.697706E-1,0E0,0E0,0E0,0E0],"parents":[2147483647,0,0,1,1,2,2,3,3,4,4,9,9,10,10,12,12],"right_children":[2,4,6,8,10,-1,-1,-1,-1,12,14,-1,16,-1,-1,-1,-1],"split_conditions":[6.7283165E1,-4.3099976E0,9.5481175E-1,-9.669983E0,3.203615E2,-7.601577E-2,2.1236276E-2,3.9773583E-2,-1.1738396E-1,6.6437685E-1,3.83357E2,8.983543E-2,5.571493E1,-6.8608046E-2,4.3756098E-2,-5.2005075E-2,6.96264E-2],"split_indices":[1,3,2,3,0,0,0,0,0,2,0,0,1,0,0,0,0],"split_type":[0,0,0,0,0,0,0,0,0,0,0,0,0,0,0,0,0],"sum_hessian":[1.2310093E1,9.74702E0,2.563073E0,2.6376157E0,7.1094046E0,1.2986099E0,1.2644632E0,1.6271206E0,1.010495E0,4.5162096E0,2.5931952E0,2.3631847E0,2.1530247E0,1.4094486E0,1.1837465E0,1.122826E0,1.0301987E0],"tree_param":{"num_deleted":"0","num_feature":"4","num_nodes":"17","size_leaf_vector":"1"}},{"base_weights":[-3.073233E-3,-3.963508E-2,1.1500914E-1,3.8756568E-3,-6.0196362E-2,6.632223E-2,-1.28876E-2,-8.512929E-2,1.6976875E-1,2.9338632E-2,-7.263065E-2,1.0224261E-2,7.351372E-2,1.5318014E-1,-3.7064053E-2,6.8230346E-2,1.7490494E-3],"categories":[],"categories_nodes":[],"categories_segments":[],"categories_sizes":[],"default_left":[0,0,0,0,0,0,0,0,0,0,0,0,0,0,0,0,0],"id":45,"left_children":[1,3,5,7,-1,-1,-1,9,11,13,-1,-1,-1,15,-1,-1,-1],"loss_changes":[6.1076768E-2,7.602108E-2,6.5648764E-2,1.5377875E-1,0E0,0E0,0E0,1.2941757E-1,2.8714292E-2,1.1034561E-1,0E0,0E0,0E0,3.2746494E-2,0E0,0E0,0E0],"parents":[2147483647,0,0,1,1,2,2,3,3,7,7,8,8,9,9,13,13],"right_children":[2,4,6,8,-1,-1,-1,10,12,14,-1,-1,-1,16,-1,-1,-1],"split_conditions":[6.5700073E0,9.036753E-1,5.8374004E1,5.427655E1,-6.0196362E-2,6.632223E-2,-1.28876E-2,4.8654736E1,8.117929E-1,-9.000244E-1,-7.263065E-2,1.0224261E-2,7.351372E-2,2.793215E2,-3.7064053E-2,6.8230346E-2,1.7490494E-3],"split_indices":[3,2,1,1,0,0,0,1,2,3,0,0,0,0,0,0,0],"split_type":[0,0,0,0,0,0,0,0,0,0,0,0,0,0,0,0,0],"sum_hessian":[1.2091108E1,9.739737E0,2.3513713E0,8.4360695E0,1.3036674E0,1.1677896E0,1.1835818E0,5.807222E0,2.6288476E0,3.8284981E0,1.9787239E0,1.4564013E0,1.1724463E0,2.1140947E0,1.7144032E0,1.0443268E0,1.0697681E0],"tree_param":{"num_deleted":"0","num_feature":"4","num_nodes":"17","size_leaf_vector":"1"}},{"base_weights":[7.4648485E-4,3.8081713E-2,-1.0796587E-1,-2.4779648E-2,8.923838E-2,-8.155353E-2,3.4298837E-2,4.653642E-2,-6.2277794E-2,-5.8346633E-2,1.1698242E-1,-9.487374E-2,2.4673365E-1,2.7825707E-3,-4.6281278E-2,1.0785928E-1,2.4536112E-2],"categories":[],"categories_nodes":[],"categories_segments":[],"categories_sizes":[],"default_left":[0,0,0,0,0,0,0,0,0,0,0,0,0,0,0,0,0],"id":46,"left_children":[1,3,5,7,-1,-1,-1,9,-1,-1,11,13,15,-1,-1,-1,-1],"loss_changes":[5.676487E-2,1.7687069E-1,1.6139E-1,1.3078909E-1,0E0,0E0,0E0,1.501028E-1,0E0,0E0,2.0011708E-1,2.1003611E-2,4.9937844E-2,0E0,0E0,0E0,0E0],"parents":[2147483647,0,0,1,1,2,2,3,3,7,7,10,10,11,11,12,12],"right_children":[2,4,6,8,-1,-1,-1,10,-1,-1,12,14,16,-1,-1,-1,-1],"split_conditions":[3.67207E2,9.5481175E-1,4.0796548E2,8.2158107E-1,8.923838E-2,-8.155353E-2,3.4298837E-2,3.4993248E1,-6.2277794E-2,-5.8346633E-2,2.48057E2,2.372125E2,3.9619154E-1,2.7825707E-3,-4.6281278E-2,1.0785928E-1,2.4536112E-2],"split_indices":[0,2,0,2,0,0,0,1,0,0,0,0,2,0,0,0,0],"split_type":[0,0,0,0,0,0,0,0,0,0,0,0,0,0,0,0,0],"sum_hessian":[1.1972636E1,9.3955965E0,2.57704E0,8.290771E0,1.1048257E0,1.3551234E0,1.2219167E0,6.5003867E0,1.7903839E0,1.0719563E0,5.4284306E0,2.163955E0,3.2644756E0,1.0923812E0,1.0715737E0,1.2381186E0,2.026357E0],"tree_param":{"num_deleted":"0","num_feature":"4","num_nodes":"17","size_leaf_vector":"1"}},{"base_weights":[1.5174312E-3,-4.235247E-2,3.1141447E-2,-6.328962E-2,1.0020054E-1,7.409418E-2,-5.931293E-2,7.676355E-2,-9.94708E-3,-2.0651901E-2,5.2054297E-2,-5.1019736E-2,1.0711863E-1,-3.6114153E-2,7.92816E-2],"categories":[],"categories_nodes":[],"categories_segments":[],"categories_sizes":[],"default_left":[0,0,0,0,0,0,0,0,0,0,0,0,0,0,0],"id":47,"left_children":[1,-1,3,5,7,9,-1,-1,11,-1,-1,-1,13,-1,-1],"loss_changes":[5.848669E-2,0E0,8.078549E-2,1.1501495E-1,1.22245826E-1,6.0476147E-2,0E0,0E0,1.1288973E-1,0E0,0E0,0E0,1.5805958E-1,0E0,0E0],"parents":[2147483647,0,0,2,2,3,3,4,4,5,5,8,8,12,12],"right_children":[2,-1,4,6,8,10,-1,-1,12,-1,-1,-1,14,-1,-1],"split_conditions":[-1.0820007E1,-4.235247E-2,2.59223E2,2.40999E2,3.15678E2,2.19007E2,-5.931293E-2,7.676355E-2,3.352655E2,-2.0651901E-2,5.2054297E-2,-5.1019736E-2,4.666153E1,-3.6114153E-2,7.92816E-2],"split_indices":[3,0,0,0,0,0,0,0,0,0,0,0,1,0,0],"split_type":[0,0,0,0,0,0,0,0,0,0,0,0,0,0,0],"sum_hessian":[1.1796018E1,1.3805686E0,1.0415449E1,4.434829E0,5.98062E0,2.4151833E0,2.019646E0,1.9299128E0,4.050707E0,1.1169543E0,1.2982289E0,1.5195618E0,2.5311453E0,1.1297231E0,1.4014221E0],"tree_param":{"num_deleted":"0","num_feature":"4","num_nodes":"15","size_leaf_vector":"1"}},{"base_weights":[1.0932491E-3,4.3075677E-2,-1.2471761E-1,-8.757057E-3,7.782693E-2,-6.345411E-2,5.8900234E-3,6.0880423E-2,-1.5002078E-1,-4.373675E-2,7.8786574E-2,-9.7148195E-2,3.6655087E-2,3.9989196E-2,-1.4749533E-1,1.5130611E-2,-7.411524E-2],"categories":[],"categories_nodes":[],"categories_segments":[],"categories_sizes":[],"default_left":[0,0,0,0,0,0,0,0,0,0,0,0,0,0,0,0,0],"id":48,"left_children":[1,3,5,7,-1,-1,-1,9,11,13,-1,-1,-1,-1,15,-1,-1],"loss_changes":[7.218425E-2,1.1696429E-1,4.7022678E-2,9.981607E-2,0E0,0E0,0E0,1.5681624E-1,1.9722804E-1,1.1869911E-1,0E0,0E0,0E0,0E0,8.879857E-2,0E0,0E0],"parents":[2147483647,0,0,1,1,2,2,3,3,7,7,8,8,9,9,14,14],"right_children":[2,4,6,8,-1,-1,-1,10,12,14,-1,-1,-1,-1,16,-1,-1],"split_conditions":[6.7283165E1,6.0001038E1,9.5481175E-1,6.073824E-1,7.782693E-2,-6.345411E-2,5.8900234E-3,4.25E0,7.327988E-1,2.539565E2,7.8786574E-2,-9.7148195E-2,3.6655087E-2,3.9989196E-2,-9.669983E0,1.5130611E-2,-7.411524E-2],"split_indices":[1,1,2,2,0,0,0,3,2,0,0,0,0,0,3,0,0],"split_type":[0,0,0,0,0,0,0,0,0,0,0,0,0,0,0,0,0],"sum_hessian":[1.1649358E1,9.227729E0,2.4216294E0,8.218303E0,1.009426E0,1.2217417E0,1.1998878E0,5.885843E0,2.33246E0,4.391661E0,1.4941816E0,1.3077773E0,1.0246825E0,1.5176103E0,2.8740509E0,1.1269349E0,1.747116E0],"tree_param":{"num_deleted":"0","num_feature":"4","num_nodes":"17","size_leaf_vector":"1"}},{"base_weights":[2.2251531E-3,5.0152034E-2,-8.619103E-2,-5.4301184E-2,1.3751636E-1,-8.018604E-2,4.773572E-2,1.0940721E-1,-7.934144E-2,-1.7865427E-2,2.1909522E-1,-2.2216028E-2,5.137008E-2,-1.6119992E-2,6.192585E-2,8.725252E-2,1.6192729E-2],"categories":[],"categories_nodes":[],"categories_segments":[],"categories_sizes":[],"default_left":[0,0,0,0,0,0,0,0,0,0,0,0,0,0,0,0,0],"id":49,"left_children":[1,3,5,7,9,-1,11,13,-1,-1,15,-1,-1,-1,-1,-1,-1],"loss_changes":[5.7098832E-2,8.69385E-2,1.2786195E-1,1.900731E-1,9.383808E-2,0E0,6.6476114E-2,6.395322E-2,0E0,0E0,2.8937966E-2,0E0,0E0,0E0,0E0,0E0,0E0],"parents":[2147483647,0,0,1,1,2,2,3,3,4,4,6,6,7,7,10,10],"right_children":[2,4,6,8,10,-1,12,14,-1,-1,16,-1,-1,-1,-1,-1,-1],"split_conditions":[7.678134E-1,4.7428757E1,8.6311173E-1,2.2166145E-1,2.48057E2,-8.018604E-2,2.810005E2,3.7554707E1,-7.934144E-2,-1.7865427E-2,3.320065E2,-2.2216028E-2,5.137008E-2,-1.6119992E-2,6.192585E-2,8.725252E-2,1.6192729E-2],"split_indices":[2,1,2,2,0,0,0,1,0,0,0,0,0,0,0,0,0],"split_type":[0,0,0,0,0,0,0,0,0,0,0,0,0,0,0,0,0],"sum_hessian":[1.1454519E1,7.7087092E0,3.7458103E0,3.6833405E0,4.0253687E0,1.169136E0,2.5766742E0,2.340042E0,1.3432986E0,1.2575512E0,2.7678175E0,1.4988899E0,1.0777843E0,1.0389732E0,1.3010688E0,1.3986739E0,1.3691436E0],"tree_param":{"num_deleted":"0","num_feature":"4","num_nodes":"17","size_leaf_vector":"1"}},{"base_weights":[1.668431E-3,7.705469E-2,-6.1891314E-2,-4.181419E-2,6.104952E-2,-1.913587E-1,3.2531556E-2,3.1201497E-2,-4.8395112E-2,-1.4020417E-2,-7.543015E-2,6.3467726E-2,-1.0847358E-1,-7.310448E-2,2.4984596E-2],"categories":[],"categories_nodes":[],"categories_segments":[],"categories_sizes":[],"default_left":[0,0,0,0,0,0,0,0,0,0,0,0,0,0,0],"id":50,"left_children":[1,3,5,7,-1,9,11,-1,-1,-1,-1,-1,13,-1,-1],"loss_changes":[6.384131E-2,9.996802E-2,9.477444E-2,8.588842E-2,0E0,1.6053163E-2,1.5026148E-1,0E0,0E0,0E0,0E0,0E0,1.1057986E-1,0E0,0E0],"parents":[2147483647,0,0,1,1,2,2,3,3,5,5,6,6,12,12],"right_children":[2,4,6,8,-1,10,12,-1,-1,-1,-1,-1,14,-1,-1],"split_conditions":[2.793215E2,2.48057E2,3.30579E2,2.30075E2,6.104952E-2,3.108755E2,3.67207E2,3.1201497E-2,-4.8395112E-2,-1.4020417E-2,-7.543015E-2,6.3467726E-2,4.0796548E2,-7.310448E-2,2.4984596E-2],"split_indices":[0,0,0,0,0,0,0,0,0,0,0,0,0,0,0],"split_type":[0,0,0,0,0,0,0,0,0,0,0,0,0,0,0],"sum_hessian":[1.132848E1,5.0849996E0,6.2434807E0,2.9659941E0,2.1190052E0,2.2001472E0,4.0433335E0,1.3943155E0,1.5716786E0,1.1674889E0,1.0326582E0,1.5610181E0,2.4823153E0,1.297E0,1.1853153E0],"tree_param":{"num_deleted":"0","num_feature":"4","num_nodes":"15","size_leaf_vector":"1"}},{"base_weights":[-1.361372E-3,2.9531969E-2,-3.884233E-2,6.913798E-2,-1.6989853E-2,-1.5178695E-1,4.493045E-2,2.5606588E-3,-7.3269434E-2,1.5540819E-1,-8.91216E-2,-2.6305737E-2,2.7901018E-1,-5.025497E-2,1.3318854E-2,1.16745E-1,1.3255709E-2],"categories":[],"categories_nodes":[],"categories_segments":[],"categories_sizes":[],"default_left":[0,0,0,0,0,0,0,0,0,0,0,0,0,0,0,0,0],"id":51,"left_children":[1,3,-1,-1,5,7,9,-1,-1,11,13,-1,15,-1,-1,-1,-1],"loss_changes":[5.220714E-2,1.0359623E-1,0E0,0E0,8.6867295E-2,5.021012E-2,1.22601405E-1,0E0,0E0,1.5637207E-1,4.8815455E-2,0E0,6.425999E-2,0E0,0E0,0E0,0E0],"parents":[2147483647,0,0,1,1,4,4,5,5,6,6,9,9,10,10,12,12],"right_children":[2,4,-1,-1,6,8,10,-1,-1,12,14,-1,16,-1,-1,-1,-1],"split_conditions":[4.016815E2,9.8794416E-2,-3.884233E-2,6.913798E-2,4.8146465E1,2.6433635E-1,8.2158107E-1,2.5606588E-3,-7.3269434E-2,2.48057E2,9.5481175E-1,-2.6305737E-2,3.238915E2,-5.025497E-2,1.3318854E-2,1.16745E-1,1.3255709E-2],"split_indices":[0,2,0,0,1,2,2,0,0,0,2,0,0,0,0,0,0],"split_type":[0,0,0,0,0,0,0,0,0,0,0,0,0,0,0,0,0],"sum_hessian":[1.1224723E1,9.663855E0,1.5608685E0,1.0735189E0,8.590336E0,2.2471297E0,6.343206E0,1.1538044E0,1.0933253E0,3.3900313E0,2.9531748E0,1.2406212E0,2.14941E0,1.7002405E0,1.2529345E0,1.0157822E0,1.1336278E0],"tree_param":{"num_deleted":"0","num_feature":"4","num_nodes":"17","size_leaf_vector":"1"}},{"base_weights":[1.4064952E-3,-1.0866601E-1,4.014329E-2,1.6533503E-2,-6.002537E-2,1.3074794E-1,-6.327289E-2,6.8258154E-3,1.0228949E-1,4.9798008E-2,-1.6319436E-1,1.5130866E-1,-6.115482E-2,-7.8873724E-2,-3.1160964E-3,-9.191784E-3,7.76379E-2],"categories":[],"categories_nodes":[],"categories_segments":[],"categories_sizes":[],"default_left":[0,0,0,0,0,0,0,0,0,0,0,0,0,0,0,0,0],"id":52,"left_children":[1,3,5,-1,-1,7,9,11,-1,-1,13,15,-1,-1,-1,-1,-1],"loss_changes":[5.5967186E-2,6.22366E-2,9.899866E-2,0E0,0E0,1.4061439E-1,1.461111E-1,1.6698316E-1,0E0,0E0,6.0089648E-2,7.103847E-2,0E0,0E0,0E0,0E0,0E0],"parents":[2147483647,0,0,1,1,2,2,5,5,6,6,7,7,10,10,11,11],"right_children":[2,4,6,-1,-1,8,10,12,-1,-1,14,16,-1,-1,-1,-1,-1],"split_conditions":[-6.0099945E0,-1.2150024E1,2.793215E2,1.6533503E-2,-6.002537E-2,2.565825E2,2.2166145E-1,2.40999E2,1.0228949E-1,4.9798008E-2,6.0001038E1,2.19007E2,-6.115482E-2,-7.8873724E-2,-3.1160964E-3,-9.191784E-3,7.76379E-2],"split_indices":[3,3,0,0,0,0,2,0,0,0,1,0,0,0,0,0,0],"split_type":[0,0,0,0,0,0,0,0,0,0,0,0,0,0,0,0,0],"sum_hessian":[1.1102889E1,2.4202862E0,8.682603E0,1.0092858E0,1.4110004E0,4.487095E0,4.195508E0,3.472525E0,1.0145699E0,1.0727905E0,3.1227176E0,2.2270126E0,1.2455124E0,1.4535935E0,1.6691241E0,1.0925319E0,1.1344807E0],"tree_param":{"num_deleted":"0","num_feature":"4","num_nodes":"17","size_leaf_vector":"1"}},{"base_weights":[3.8972842E-3,5.2417226E-2,-8.557185E-2,-4.3016482E-2,1.0210066E-1,-7.81038E-2,4.3469857E-2,7.6798916E-2,2.8883865E-2,-2.1145232E-2,4.788288E-2,-3.1092377E-2,1.2032566E-1,7.310988E-2,-1.4344293E-2],"categories":[],"categories_nodes":[],"categories_segments":[],"categories_sizes":[],"default_left":[0,0,0,0,0,0,0,0,0,0,0,0,0,0,0],"id":53,"left_children":[1,3,5,-1,7,-1,9,-1,11,-1,-1,-1,13,-1,-1],"loss_changes":[5.6409076E-2,9.611897E-2,1.1473809E-1,0E0,7.446021E-2,0E0,5.750319E-2,0E0,8.578333E-2,0E0,0E0,0E0,9.550994E-2,0E0,0E0],"parents":[2147483647,0,0,1,1,2,2,4,4,6,6,8,8,12,12],"right_children":[2,4,6,-1,8,-1,10,-1,12,-1,-1,-1,14,-1,-1],"split_conditions":[7.678134E-1,3.573185E1,8.6311173E-1,-4.3016482E-2,-9.669983E0,-7.81038E-2,2.810005E2,7.6798916E-2,4.7428757E1,-2.1145232E-2,4.788288E-2,-3.1092377E-2,6.073824E-1,7.310988E-2,-1.4344293E-2],"split_indices":[2,1,2,0,3,0,0,0,1,0,0,0,2,0,0],"split_type":[0,0,0,0,0,0,0,0,0,0,0,0,0,0,0],"sum_hessian":[1.0961114E1,7.3754625E0,3.585651E0,1.110981E0,6.2644815E0,1.0907735E0,2.4948776E0,1.2147536E0,5.049728E0,1.4577107E0,1.0371668E0,2.007246E0,3.0424817E0,1.4956512E0,1.5468304E0],"tree_param":{"num_deleted":"0","num_feature":"4","num_nodes":"15","size_leaf_vector":"1"}},{"base_weights":[3.64397E-3,-4.7292437E-2,3.827026E-2,1.03916086E-1,-3.0079238E-2,-1.6246732E-2,7.471754E-2,3.6181606E-2,-1.132266E-1,3.530653E-2,-5.451656E-2,-6.0166012E-2,1.3226365E-2],"categories":[],"categories_nodes":[],"categories_segments":[],"categories_sizes":[],"default_left":[0,0,0,0,0,0,0,0,0,0,0,0,0],"id":54,"left_children":[1,-1,3,5,7,9,-1,-1,11,-1,-1,-1,-1],"loss_changes":[7.222794E-2,0E0,5.051864E-2,1.0192969E-1,8.8206686E-2,1.1024102E-1,0E0,0E0,6.860412E-2,0E0,0E0,0E0,0E0],"parents":[2147483647,0,0,2,2,3,3,4,4,5,5,8,8],"right_children":[2,-1,4,6,8,10,-1,-1,12,-1,-1,-1,-1],"split_conditions":[-1.0820007E1,-4.7292437E-2,6.073824E-1,4.7428757E1,4.7000122E-1,2.2166145E-1,7.471754E-2,3.6181606E-2,5.7900085E0,3.530653E-2,-5.451656E-2,-6.0166012E-2,1.3226365E-2],"split_indices":[3,0,2,1,3,2,0,0,3,0,0,0,0],"split_type":[0,0,0,0,0,0,0,0,0,0,0,0,0],"sum_hessian":[1.0852878E1,1.2902737E0,9.562604E0,4.6123443E0,4.9502597E0,3.0091467E0,1.6031977E0,1.6000509E0,3.3502088E0,1.8226683E0,1.1864784E0,1.9775791E0,1.3726296E0],"tree_param":{"num_deleted":"0","num_feature":"4","num_nodes":"13","size_leaf_vector":"1"}},{"base_weights":[2.3464893E-3,7.396305E-2,-5.800311E-2,6.569188E-2,-7.999719E-3,-6.675809E-2,1.4143874E-2,-5.8227904E-2,9.928458E-2,6.429381E-2,-7.3564656E-2,7.112853E-2,-2.449513E-2,2.2140734E-2,-6.277672E-2],"categories":[],"categories_nodes":[],"categories_segments":[],"categories_sizes":[],"default_left":[0,0,0,0,0,0,0,0,0,0,0,0,0,0,0],"id":55,"left_children":[1,3,5,-1,7,-1,9,-1,11,-1,13,-1,-1,-1,-1],"loss_changes":[5.5202387E-2,7.100238E-2,8.568108E-2,0E0,1.128508E-1,0E0,1.17133826E-1,0E0,1.0999083E-1,0E0,1.1060933E-1,0E0,0E0,0E0,0E0],"parents":[2147483647,0,0,1,1,2,2,4,4,6,6,8,8,10,10],"right_children":[2,4,6,-1,8,-1,10,-1,12,-1,14,-1,-1,-1,-1],"split_conditions":[2.793215E2,4.5216507E1,4.1494522E1,6.569188E-2,5.099605E1,-6.675809E-2,2.5386128E-1,-5.8227904E-2,5.653551E1,6.429381E-2,4.970001E0,7.112853E-2,-2.449513E-2,2.2140734E-2,-6.277672E-2],"split_indices":[0,1,1,0,1,0,2,0,1,0,3,0,0,0,0],"split_type":[0,0,0,0,0,0,0,0,0,0,0,0,0,0,0],"sum_hessian":[1.0779717E1,4.826526E0,5.953191E0,1.1392796E0,3.6872466E0,1.1793798E0,4.773811E0,1.0524832E0,2.6347635E0,1.0146675E0,3.7591436E0,1.3194251E0,1.3153384E0,2.0206833E0,1.7384603E0],"tree_param":{"num_deleted":"0","num_feature":"4","num_nodes":"15","size_leaf_vector":"1"}},{"base_weights":[2.6735975E-3,-4.2322986E-2,1.1588116E-1,3.372282E-2,-1.0002149E-1,7.1621455E-2,-2.0452904E-2,3.995292E-2,-1.874312E-1,-4.142621E-2,5.9479948E-2,4.4572E-3,-8.9021474E-2],"categories":[],"categories_nodes":[],"categories_segments":[],"categories_sizes":[],"default_left":[0,0,0,0,0,0,0,0,0,0,0,0,0],"id":56,"left_children":[1,3,5,-1,7,-1,-1,9,11,-1,-1,-1,-1],"loss_changes":[6.426059E-2,9.222412E-2,9.726778E-2,0E0,9.4799325E-2,0E0,0E0,1.2793253E-1,1.0542713E-1,0E0,0E0,0E0,0E0],"parents":[2147483647,0,0,1,1,2,2,4,4,7,7,8,8],"right_children":[2,4,6,-1,8,-1,-1,10,12,-1,-1,-1,-1],"split_conditions":[5.1900024E0,2.40999E2,1.1470001E1,3.372282E-2,-4.0399933E0,7.1621455E-2,-2.0452904E-2,-1.0820007E1,3.9619154E-1,-4.142621E-2,5.9479948E-2,4.4572E-3,-8.9021474E-2],"split_indices":[3,0,3,0,3,0,0,3,2,0,0,0,0],"split_type":[0,0,0,0,0,0,0,0,0,0,0,0,0],"sum_hessian":[1.0652275E1,8.070602E0,2.5816734E0,1.9345151E0,6.136087E0,1.3700742E0,1.2115991E0,2.5675073E0,3.5685797E0,1.2685969E0,1.2989104E0,1.5549661E0,2.0136135E0],"tree_param":{"num_deleted":"0","num_feature":"4","num_nodes":"13","size_leaf_vector":"1"}},{"base_weights":[3.3729624E-3,-1.14252076E-1,4.5082845E-2,-5.0416652E-2,-3.6551958E-4,1.1760111E-1,-3.9813764E-2,-1.2674385E-2,7.7873595E-2,-1.2012964E-1,4.1049838E-2,2.9084604E-2,-3.482645E-2,-6.1993603E-2,2.2084462E-3],"categories":[],"categories_nodes":[],"categories_segments":[],"categories_sizes":[],"default_left":[0,0,0,0,0,0,0,0,0,0,0,0,0,0,0],"id":57,"left_children":[1,3,5,-1,-1,7,9,11,-1,13,-1,-1,-1,-1,-1],"loss_changes":[6.1767913E-2,1.9887913E-2,6.154553E-2,0E0,0E0,1.0010252E-1,8.740435E-2,5.3007364E-2,0E0,4.532255E-2,0E0,0E0,0E0,0E0,0E0],"parents":[2147483647,0,0,1,1,2,2,5,5,6,6,7,7,9,9],"right_children":[2,4,6,-1,-1,8,10,12,-1,14,-1,-1,-1,-1,-1],"split_conditions":[-6.0099945E0,4.874987E1,2.793215E2,-5.0416652E-2,-3.6551958E-4,2.48057E2,3.87468E2,2.30075E2,7.7873595E-2,6.0001038E1,4.1049838E-2,2.9084604E-2,-3.482645E-2,-6.1993603E-2,2.2084462E-3],"split_indices":[3,1,0,0,0,0,0,0,0,1,0,0,0,0,0],"split_type":[0,0,0,0,0,0,0,0,0,0,0,0,0,0,0],"sum_hessian":[1.0540082E1,2.3038478E0,8.236235E0,1.2310845E0,1.0727634E0,4.234186E0,4.0020485E0,2.6830277E0,1.5511583E0,2.971115E0,1.0309333E0,1.3327608E0,1.350267E0,1.4001263E0,1.5709888E0],"tree_param":{"num_deleted":"0","num_feature":"4","num_nodes":"15","size_leaf_vector":"1"}},{"base_weights":[2.6206323E-3,-9.568852E-2,3.7668247E-2,-4.2278294E-2,-3.087853E-4,4.45588E-2,-1.1706099E-2,-5.592499E-2,7.1193375E-2,1.8556139E-1,-4.906452E-2,8.861807E-3,7.434281E-2,1.1847472E-2,-3.4028593E-2],"categories":[],"categories_nodes":[],"categories_segments":[],"categories_sizes":[],"default_left":[0,0,0,0,0,0,0,0,0,0,0,0,0,0,0],"id":58,"left_children":[1,3,5,-1,-1,-1,7,-1,9,11,13,-1,-1,-1,-1],"loss_changes":[4.309338E-2,1.39631685E-2,5.1913194E-2,0E0,0E0,0E0,1.1855007E-1,0E0,8.6859256E-2,2.2853002E-2,2.4694609E-2,0E0,0E0,0E0,0E0],"parents":[2147483647,0,0,1,1,2,2,6,6,8,8,9,9,10,10],"right_children":[2,4,6,-1,-1,-1,8,-1,10,12,14,-1,-1,-1,-1],"split_conditions":[-6.0099945E0,4.874987E1,4.5216507E1,-4.2278294E-2,-3.087853E-4,4.45588E-2,5.0657368E1,-5.592499E-2,8.2158107E-1,6.740268E-1,2.784265E2,8.861807E-3,7.434281E-2,1.1847472E-2,-3.4028593E-2],"split_indices":[3,1,1,0,0,0,1,0,2,2,0,0,0,0,0],"split_type":[0,0,0,0,0,0,0,0,0,0,0,0,0,0,0],"sum_hessian":[1.046102E1,2.2945435E0,8.166477E0,1.2218251E0,1.0727183E0,1.8975793E0,6.2688975E0,1.6155086E0,4.653389E0,2.106772E0,2.5466173E0,1.0213479E0,1.0854241E0,1.2345219E0,1.3120954E0],"tree_param":{"num_deleted":"0","num_feature":"4","num_nodes":"15","size_leaf_vector":"1"}},{"base_weights":[2.520873E-3,-3.396162E-2,9.391813E-2,2.861295E-2,-1.4030015E-1,5.8135856E-2,-1.6232163E-2,-3.97273E-2,1.1743786E-1,-7.4567616E-2,2.0714183E-3,-1.4882937E-2,7.047553E-2],"categories":[],"categories_nodes":[],"categories_segments":[],"categories_sizes":[],"default_left":[0,0,0,0,0,0,0,0,0,0,0,0,0],"id":59,"left_children":[1,3,5,7,9,-1,-1,-1,11,-1,-1,-1,-1],"loss_changes":[4.1187987E-2,6.309733E-2,6.2472202E-2,1.0739074E-1,5.6835197E-2,0E0,0E0,0E0,1.0326321E-1,0E0,0E0,0E0,0E0],"parents":[2147483647,0,0,1,1,2,2,3,3,4,4,8,8],"right_children":[2,4,6,8,10,-1,-1,-1,12,-1,-1,-1,-1],"split_conditions":[5.1900024E0,7.678134E-1,1.1470001E1,2.021013E-1,8.838174E-1,5.8135856E-2,-1.6232163E-2,-3.97273E-2,2.581255E2,-7.4567616E-2,2.0714183E-3,-1.4882937E-2,7.047553E-2],"split_indices":[3,2,3,2,2,0,0,0,0,0,0,0,0],"split_type":[0,0,0,0,0,0,0,0,0,0,0,0,0],"sum_hessian":[1.0395866E1,7.8791933E0,2.516673E0,5.420464E0,2.4587293E0,1.3181897E0,1.1984832E0,1.7524574E0,3.6680067E0,1.0200406E0,1.4386886E0,1.7530433E0,1.9149635E0],"tree_param":{"num_deleted":"0","num_feature":"4","num_nodes":"13","size_leaf_vector":"1"}},{"base_weights":[4.776915E-4,4.0304214E-2,-2.7865797E-2,-6.327204E-2,1.702889E-2,-4.5303687E-2,1.2738143E-1,3.457355E-2,-5.5870824E-2,5.3629477E-2,2.2532842E-4,4.9218766E-2,-6.445208E-2,-5.464499E-2,3.2705694E-2],"categories":[],"categories_nodes":[],"categories_segments":[],"categories_sizes":[],"default_left":[0,0,0,0,0,0,0,0,0,0,0,0,0,0,0],"id":60,"left_children":[1,-1,3,-1,5,7,9,11,-1,-1,-1,-1,13,-1,-1],"loss_changes":[4.6666525E-2,0E0,8.711451E-2,0E0,6.82786E-2,8.01157E-2,2.291587E-2,7.4952856E-2,0E0,0E0,0E0,0E0,9.2602976E-2,0E0,0E0],"parents":[2147483647,0,0,2,2,4,4,5,5,6,6,7,7,12,12],"right_children":[2,-1,4,-1,6,8,10,12,-1,-1,-1,-1,14,-1,-1],"split_conditions":[9.8794416E-2,4.0304214E-2,2.021013E-1,-6.327204E-2,3.30579E2,2.784265E2,4.970001E0,6.6437685E-1,-5.5870824E-2,5.3629477E-2,2.2532842E-4,4.9218766E-2,8.838174E-1,-5.464499E-2,3.2705694E-2],"split_indices":[2,0,2,0,0,0,3,2,0,0,0,0,2,0,0],"split_type":[0,0,0,0,0,0,0,0,0,0,0,0,0,0,0],"sum_hessian":[1.0312346E1,1.14839E0,9.163957E0,1.0766234E0,8.087334E0,5.5448127E0,2.5425205E0,4.0206695E0,1.5241432E0,1.515757E0,1.0267636E0,1.4577291E0,2.5629404E0,1.4971277E0,1.0658127E0],"tree_param":{"num_deleted":"0","num_feature":"4","num_nodes":"15","size_leaf_vector":"1"}},{"base_weights":[4.8667783E-4,