{"learner":{"attributes":{"scikit_learn":"{\"_estimator_type\": \"classifier\"}"},"feature_names":["sma_20 ","rsi_14 ","bb_percent ","Close_Open "],"feature_types":["float","float","float","float"],"gradient_booster":{"model":{"gbtree_model_param":{"num_parallel_tree":"1","num_trees":"100"},"iteration_indptr":[0,1,2,3,4,5,6,7,8,9,10,11,12,13,14,15,16,17,18,19,20,21,22,23,24,25,26,27,28,29,30,31,32,33,34,35,36,37,38,39,40,41,42,43,44,45,46,47,48,49,50,51,52,53,54,55,56,57,58,59,60,61,62,63,64,65,66,67,68,69,70,71,72,73,74,75,76,77,78,79,80,81,82,83,84,85,86,87,88,89,90,91,92,93,94,95,96,97,98,99,100],"tree_info":[0,0,0,0,0,0,0,0,0,0,0,0,0,0,0,0,0,0,0,0,0,0,0,0,0,0,0,0,0,0,0,0,0,0,0,0,0,0,0,0,0,0,0,0,0,0,0,0,0,0,0,0,0,0,0,0,0,0,0,0,0,0,0,0,0,0,0,0,0,0,0,0,0,0,0,0,0,0,0,0,0,0,0,0,0,0,0,0,0,0,0,0,0,0,0,0,0,0,0,0],"trees":[{"base_weights":[7.0985074E-8,-6.208848E-1,8.6450475E-1,-1.0237478E0,-3.5132495E-1,1.370726E0,-7.376114E-3,-3.4875157E-1,-4.2802948E-1,-2.8250651E-2,-8.263655E-1,4.7722262E-1,6.765768E-1,-3.1578448E-1,4.956504E-1,-9.133672E-1,1.4901176E-1,2.160251E-1,-3.465126E-1,-1.0216802E0,-1.3935145E-2,-7.962417E-2,3.2663152E-1,2.662056E-1,-1.3404293E-1,-7.962417E-2,-3.465126E-1,-7.2418284E-1,6.4314765E-1,-4.158843E-1,-4.5722336E-1,5.3820055E-2,-3.7425852E-1,2.576146E-1,-7.962417E-2,1.0617264E-1,-3.465126E-1],"categories":[],"categories_nodes":[],"categories_segments":[],"categories_sizes":[],"default_left":[0,0,0,0,0,0,0,0,0,0,0,0,0,0,0,0,0,0,0,0,0,0,0,0,0,0,0,0,0,0,0,0,0,0,0,0,0],"id":0,"left_children":[1,3,5,7,9,11,13,15,-1,17,19,-1,21,-1,23,25,-1,27,-1,29,-1,-1,-1,-1,-1,-1,-1,31,33,-1,35,-1,-1,-1,-1,-1,-1],"loss_changes":[2.5325481E1,2.6224098E0,8.7146845E0,2.3549147E0,2.735273E0,8.3016205E-1,4.853736E0,2.9567726E0,0E0,3.479254E0,1.0555034E0,0E0,2.1311457E0,0E0,2.7008479E0,2.4092913E-1,0E0,4.676682E0,0E0,5.4805565E-1,0E0,0E0,0E0,0E0,0E0,0E0,0E0,1.9951847E0,1.7438259E0,0E0,2.5290382E0,0E0,0E0,0E0,0E0,0E0,0E0],"parents":[2147483647,0,0,1,1,2,2,3,3,4,4,5,5,6,6,7,7,9,9,10,10,12,12,14,14,15,15,17,17,19,19,27,27,28,28,30,30],"right_children":[2,4,6,8,10,12,14,16,-1,18,20,-1,22,-1,24,26,-1,28,-1,30,-1,-1,-1,-1,-1,-1,-1,32,34,-1,36,-1,-1,-1,-1,-1,-1],"split_conditions":[2.2999573E-1,-9.1999817E-1,8.185508E-1,2.5028446E-1,1.16202E2,1.16319E2,8.54294E-1,3.948252E1,-4.2802948E-1,8.187431E-1,1.198855E2,4.7722262E-1,1.1644E2,-3.1578448E-1,6.556675E1,3.3082897E1,1.4901176E-1,4.1249424E1,-3.465126E-1,-5.699997E-1,-1.3935145E-2,-7.962417E-2,3.2663152E-1,2.662056E-1,-1.3404293E-1,-7.962417E-2,-3.465126E-1,1.6962512E-1,5.000305E-2,-4.158843E-1,-2.0999908E-1,5.3820055E-2,-3.7425852E-1,2.576146E-1,-7.962417E-2,1.0617264E-1,-3.465126E-1],"split_indices":[3,3,2,2,0,0,2,1,0,2,0,0,0,0,1,1,0,1,0,3,0,0,0,0,0,0,0,2,3,0,3,0,0,0,0,0,0],"split_type":[0,0,0,0,0,0,0,0,0,0,0,0,0,0,0,0,0,0,0,0,0,0,0,0,0,0,0,0,0,0,0,0,0,0,0,0,0],"sum_hessian":[4.518232E1,2.6460365E1,1.8721956E1,9.485791E0,1.6974573E1,1.14828E1,7.2391562E0,4.2436433E0,5.242148E0,1.0733922E1,6.240652E0,7.7384086E0,3.7443912E0,1.9970087E0,5.242148E0,2.496261E0,1.7473826E0,9.485791E0,1.2481304E0,4.7428956E0,1.4977565E0,1.2481304E0,2.496261E0,3.7443912E0,1.4977565E0,1.2481304E0,1.2481304E0,2.745887E0,6.7399044E0,1.9970087E0,2.745887E0,1.2481304E0,1.4977565E0,5.491774E0,1.2481304E0,1.4977565E0,1.2481304E0],"tree_param":{"num_deleted":"0","num_feature":"4","num_nodes":"37","size_leaf_vector":"1"}},{"base_weights":[-2.6953815E-2,-5.1160884E-1,6.6496515E-1,-4.021967E-1,-3.5978627E-1,1.0616754E0,-7.071103E-2,-1.0243053E-1,-7.2374797E-1,4.181374E-1,3.7015173E-1,-2.4272482E-1,1.955843E-1,-7.392253E-1,2.2245687E-1,-1.1954796E0,-2.1685372E-1,-1.2997109E-1,7.860443E-1,2.8008428E-1,-3.4168258E-1,-2.6731005E-1,-4.6309523E-2,-1.4457005E-1,3.7384632E-1,-4.1533288E-1,-1.1329067E-1,1.6121063E-1,-5.723501E-1,3.236649E-1,2.184764E-2,-2.712921E-1,1.06143355E-1,2.2846687E-1,-4.070106E-3,-3.106056E-1,-5.0087612E-2],"categories":[],"categories_nodes":[],"categories_segments":[],"categories_sizes":[],"default_left":[0,0,0,0,0,0,0,0,0,0,0,0,0,0,0,0,0,0,0,0,0,0,0,0,0,0,0,0,0,0,0,0,0,0,0,0,0],"id":1,"left_children":[1,3,5,7,-1,9,11,13,15,-1,17,-1,19,21,23,25,27,-1,29,-1,31,-1,-1,-1,33,-1,-1,-1,35,-1,-1,-1,-1,-1,-1,-1,-1],"loss_changes":[1.5410128E1,1.5486035E0,5.6045036E0,2.315599E0,0E0,2.3253155E0,1.6476722E0,3.059957E0,2.5615444E0,0E0,2.1365817E0,0E0,2.8458118E0,3.027928E-1,1.2503327E0,3.8723373E-1,2.1597533E0,0E0,7.353859E-1,0E0,2.0494728E0,0E0,0E0,0E0,1.3357004E0,0E0,0E0,0E0,7.992698E-1,0E0,0E0,0E0,0E0,0E0,0E0,0E0,0E0],"parents":[2147483647,0,0,1,1,2,2,3,3,5,5,6,6,7,7,8,8,10,10,12,12,13,13,14,14,15,15,16,16,18,18,20,20,24,24,28,28],"right_children":[2,4,6,8,-1,10,12,14,16,-1,18,-1,20,22,24,26,28,-1,30,-1,32,-1,-1,-1,34,-1,-1,-1,36,-1,-1,-1,-1,-1,-1,-1,-1],"split_conditions":[2.2999573E-1,8.187431E-1,5.9148716E1,1.16202E2,-3.5978627E-1,1.162345E2,4.4999695E-1,3.948252E1,1.176095E2,4.181374E-1,1.16408E2,-2.4272482E-1,9.300003E-1,-6.399994E-1,-1.6500015E0,-5.699997E-1,2.5028446E-1,-1.2997109E-1,1.191365E2,2.8008428E-1,1.3799973E0,-2.6731005E-1,-4.6309523E-2,-1.4457005E-1,5.237396E-1,-4.1533288E-1,-1.1329067E-1,1.6121063E-1,3.4668195E-1,3.236649E-1,2.184764E-2,-2.712921E-1,1.06143355E-1,2.2846687E-1,-4.070106E-3,-3.106056E-1,-5.0087612E-2],"split_indices":[3,2,1,0,0,0,3,1,0,0,0,0,3,3,3,3,2,0,0,0,3,0,0,0,2,0,0,0,2,0,0,0,0,0,0,0,0],"split_type":[0,0,0,0,0,0,0,0,0,0,0,0,0,0,0,0,0,0,0,0,0,0,0,0,0,0,0,0,0,0,0,0,0,0,0,0,0],"sum_hessian":[4.3938976E1,2.5992859E1,1.7946117E1,2.3792284E1,2.2005749E0,1.1371146E1,6.574971E0,1.2995645E1,1.0796639E1,6.9957724E0,4.3753743E0,1.2024847E0,5.3724866E0,3.9595027E0,9.036141E0,4.88866E0,5.907979E0,1.4781998E0,2.8971744E0,1.9525743E0,3.4199123E0,2.7279336E0,1.231569E0,1.2123518E0,7.82379E0,3.4083602E0,1.4802996E0,1.7287198E0,4.1792593E0,1.6904157E0,1.2067586E0,1.7245715E0,1.6953409E0,3.42771E0,4.39608E0,1.2255684E0,2.953691E0],"tree_param":{"num_deleted":"0","num_feature":"4","num_nodes":"37","size_leaf_vector":"1"}},{"base_weights":[-3.5829503E-2,-4.2269298E-1,5.3765637E-1,6.1090596E-2,-5.0876004E-1,9.3106544E-1,-7.1576536E-2,-4.410898E-1,2.2348297E-1,-2.087689E-1,-7.2588927E-1,1.0923789E0,4.624448E-1,2.7288157E-1,-4.142494E-1,7.071544E-2,-2.782428E-1,-4.9046648E-1,2.4836957E-1,-3.7006706E-1,-1.091301E0,9.614775E-2,3.5252592E-1,-5.997275E-2,2.3227488E-1,-3.3067137E-1,3.4428972E-1,-2.8911966E-1,-8.6713314E-2,-9.360265E-1,5.603765E-1,-3.89753E-1,-8.889864E-2,-9.024322E-2,2.240346E-1,7.357196E-2,-2.425313E-1,-4.8535038E-2,-3.3638394E-1,-3.0345315E-2,3.0439764E-1],"categories":[],"categories_nodes":[],"categories_segments":[],"categories_sizes":[],"default_left":[0,0,0,0,0,0,0,0,0,0,0,0,0,0,0,0,0,0,0,0,0,0,0,0,0,0,0,0,0,0,0,0,0,0,0,0,0,0,0,0,0],"id":2,"left_children":[1,3,5,7,9,11,13,15,-1,17,19,21,23,-1,25,-1,-1,27,-1,29,31,-1,-1,-1,-1,-1,33,-1,35,37,39,-1,-1,-1,-1,-1,-1,-1,-1,-1,-1],"loss_changes":[9.755997E0,1.1223063E0,4.318914E0,1.9945171E0,1.3046894E0,3.1516647E-1,3.0295913E0,1.3461471E0,0E0,3.5572565E0,1.229959E0,9.1900826E-2,1.0868306E0,0E0,3.7897558E0,0E0,0E0,1.6577816E0,0E0,4.6738176E0,5.546937E-1,0E0,0E0,0E0,0E0,0E0,1.2294797E0,0E0,1.6397016E0,5.750284E-1,1.186204E0,0E0,0E0,0E0,0E0,0E0,0E0,0E0,0E0,0E0,0E0],"parents":[2147483647,0,0,1,1,2,2,3,3,4,4,5,5,6,6,7,7,9,9,10,10,11,11,12,12,14,14,17,17,19,19,20,20,26,26,28,28,29,29,30,30],"right_children":[2,4,6,8,10,12,14,16,-1,18,20,22,24,-1,26,-1,-1,28,-1,30,32,-1,-1,-1,-1,-1,34,-1,36,38,40,-1,-1,-1,-1,-1,-1,-1,-1,-1,-1],"split_conditions":[2.2999573E-1,1.2792805E-1,8.185508E-1,-8.3000183E-1,1.15639E2,1.16319E2,1.1021E2,-1.5999985E0,2.2348297E-1,1.14999E2,4.937773E-1,1.12259E2,1.1644E2,2.7288157E-1,9.3202007E-1,7.071544E-2,-2.782428E-1,4.843669E1,2.4836957E-1,3.4668195E-1,1.18982E2,9.614775E-2,3.5252592E-1,-5.997275E-2,2.3227488E-1,-3.3067137E-1,1.14888E2,-2.8911966E-1,8.187431E-1,-1.3700027E0,-6.000061E-1,-3.89753E-1,-8.889864E-2,-9.024322E-2,2.240346E-1,7.357196E-2,-2.425313E-1,-4.8535038E-2,-3.3638394E-1,-3.0345315E-2,3.0439764E-1],"split_indices":[3,2,2,3,0,0,0,3,0,0,2,0,0,0,2,0,0,1,0,2,0,0,0,0,0,0,0,0,2,3,3,0,0,0,0,0,0,0,0,0,0],"split_type":[0,0,0,0,0,0,0,0,0,0,0,0,0,0,0,0,0,0,0,0,0,0,0,0,0,0,0,0,0,0,0,0,0,0,0,0,0,0,0,0,0],"sum_hessian":[4.1949165E1,2.5207542E1,1.6741623E1,3.8510365E0,2.1356504E1,9.851687E0,6.889935E0,2.4251468E0,1.4258897E0,9.790794E0,1.156571E1,6.338672E0,3.513015E0,1.3551803E0,5.5347548E0,1.2295676E0,1.1955792E0,8.113079E0,1.6777159E0,6.879495E0,4.686215E0,1.0852592E0,5.2534127E0,1.2392952E0,2.2737198E0,2.6647465E0,2.8700082E0,3.0965152E0,5.0165634E0,4.273848E0,2.605647E0,3.2120585E0,1.4741566E0,1.1997389E0,1.6702693E0,3.888344E0,1.1282196E0,1.1868527E0,3.0869954E0,1.3773229E0,1.2283242E0],"tree_param":{"num_deleted":"0","num_feature":"4","num_nodes":"41","size_leaf_vector":"1"}},{"base_weights":[-2.7271528E-2,-3.3590668E-1,4.7688454E-1,-2.3716563E-1,-2.949822E-1,7.50337E-1,-5.336524E-2,-3.249156E-1,4.066282E-1,3.3025736E-1,1.854383E-1,-1.5409532E-1,3.3544227E-1,-2.0802309E-1,-2.47499E-1,1.8575484E-1,1.7436801E-3,-2.3219846E-1,2.4879213E-1,2.5419098E-1,-4.7326982E-2,-3.6568192E-1,3.053382E-1,1.1417989E-1,-2.3744798E-1,-2.6295367E-3,-1.6273403E-1,2.4384281E-1,-5.4643422E-2],"categories":[],"categories_nodes":[],"categories_segments":[],"categories_sizes":[],"default_left":[0,0,0,0,0,0,0,0,0,0,0,0,0,0,0,0,0,0,0,0,0,0,0,0,0,0,0,0,0],"id":3,"left_children":[1,3,5,7,-1,9,11,13,15,-1,17,-1,19,21,-1,-1,-1,23,-1,-1,-1,25,27,-1,-1,-1,-1,-1,-1],"loss_changes":[6.46169E0,1.4100189E0,2.329747E0,1.4666246E0,0E0,1.8719492E0,1.3009171E0,1.0761082E0,2.7564687E-1,0E0,1.595511E0,0E0,1.1494238E0,1.6201379E0,0E0,0E0,0E0,1.6536276E0,0E0,0E0,0E0,9.2355275E-1,1.3661723E0,0E0,0E0,0E0,0E0,0E0,0E0],"parents":[2147483647,0,0,1,1,2,2,3,3,5,5,6,6,7,7,8,8,10,10,12,12,13,13,17,17,21,21,22,22],"right_children":[2,4,6,8,-1,10,12,14,16,-1,18,-1,20,22,-1,-1,-1,24,-1,-1,-1,26,28,-1,-1,-1,-1,-1,-1],"split_conditions":[2.6999664E-1,8.187431E-1,6.0431908E1,7.375736E-1,-2.949822E-1,1.162345E2,9.159319E-1,6.6223E-1,-1.800003E-1,3.3025736E-1,1.4900055E0,-1.5409532E-1,9.300003E-1,5.1245613E1,-2.47499E-1,1.8575484E-1,1.7436801E-3,8.7000275E-1,2.4879213E-1,2.5419098E-1,-4.7326982E-2,1.905929E-1,5.237396E-1,1.1417989E-1,-2.3744798E-1,-2.6295367E-3,-1.6273403E-1,2.4384281E-1,-5.4643422E-2],"split_indices":[3,2,1,2,0,0,2,2,3,0,3,0,3,1,0,0,0,3,0,0,0,2,2,0,0,0,0,0,0],"split_type":[0,0,0,0,0,0,0,0,0,0,0,0,0,0,0,0,0,0,0,0,0,0,0,0,0,0,0,0,0],"sum_hessian":[3.9498E1,2.470672E1,1.479128E1,2.2622526E1,2.0841951E0,9.4848385E0,5.306442E0,2.0344812E1,2.2777145E0,5.267545E0,4.2172933E0,2.282836E0,3.0236056E0,1.7637966E1,2.7068455E0,1.1323944E0,1.14532E0,2.9458666E0,1.2714266E0,1.1314099E0,1.8921958E0,1.3713938E1,3.924028E0,1.5581555E0,1.3877112E0,4.889941E0,8.823997E0,1.5956216E0,2.3284063E0],"tree_param":{"num_deleted":"0","num_feature":"4","num_nodes":"29","size_leaf_vector":"1"}},{"base_weights":[-1.247658E-2,-2.685006E-1,4.007986E-1,-1.83557E-1,-2.4464945E-1,7.186777E-1,-4.293722E-2,-4.2003196E-1,1.1121175E-1,4.6098508E-2,8.200777E-1,2.2160234E-1,-3.0223486E-1,-5.7005405E-1,-1.367908E-3,2.2195259E-1,-1.2823427E-1,3.1404573E-1,3.2161337E-1,-2.4812645E-1,2.638265E-1,-2.9775244E-1,-2.9206517E-1,1.05730854E-1,-1.08988725E-1,1.6738886E-2,2.722466E-1,-4.362487E-2,2.164856E-1,-8.075245E-2,1.8295395E-1,-1.7446579E-1,8.2411155E-2,8.770239E-2,-2.3866712E-1],"categories":[],"categories_nodes":[],"categories_segments":[],"categories_sizes":[],"default_left":[0,0,0,0,0,0,0,0,0,0,0,0,0,0,0,0,0,0,0,0,0,0,0,0,0,0,0,0,0,0,0,0,0,0,0],"id":4,"left_children":[1,3,5,7,-1,9,11,13,15,-1,17,-1,19,21,23,25,-1,-1,27,-1,29,31,-1,-1,-1,33,-1,-1,-1,-1,-1,-1,-1,-1,-1],"loss_changes":[4.184971E0,9.837228E-1,2.1666892E0,1.6084608E0,0E0,3.826537E-1,1.6953421E0,7.931924E-1,7.369561E-1,0E0,4.8804617E-1,0E0,2.049449E0,7.3236823E-1,6.8342155E-1,1.3334606E0,0E0,0E0,8.008038E-1,0E0,8.5089815E-1,1.2962892E0,0E0,0E0,0E0,2.1123655E0,0E0,0E0,0E0,0E0,0E0,0E0,0E0,0E0,0E0],"parents":[2147483647,0,0,1,1,2,2,3,3,5,5,6,6,7,7,8,8,10,10,12,12,13,13,14,14,15,15,18,18,20,20,21,21,25,25],"right_children":[2,4,6,8,-1,10,12,14,16,-1,18,-1,20,22,24,26,-1,-1,28,-1,30,32,-1,-1,-1,34,-1,-1,-1,-1,-1,-1,-1,-1,-1],"split_conditions":[2.2999573E-1,6.9999695E-2,8.185508E-1,-6.100006E-1,-2.4464945E-1,3.079335E-1,1.1021E2,1.176095E2,8.0879676E-1,4.6098508E-2,5.39783E1,2.2160234E-1,9.3202007E-1,1.16165E2,1.191965E2,5.8737495E1,-1.2823427E-1,3.1404573E-1,6.574774E-1,-2.4812645E-1,1.14888E2,1.14999E2,-2.9206517E-1,1.05730854E-1,-1.08988725E-1,5.4678043E1,2.722466E-1,-4.362487E-2,2.164856E-1,-8.075245E-2,1.8295395E-1,-1.7446579E-1,8.2411155E-2,8.770239E-2,-2.3866712E-1],"split_indices":[3,3,2,3,0,2,0,0,2,0,1,0,2,0,0,1,0,0,2,0,0,0,0,0,0,1,0,0,0,0,0,0,0,0,0],"split_type":[0,0,0,0,0,0,0,0,0,0,0,0,0,0,0,0,0,0,0,0,0,0,0,0,0,0,0,0,0,0,0,0,0,0,0],"sum_hessian":[3.7535294E1,2.3393393E1,1.41419E1,2.1404972E1,1.98842E0,7.8784237E0,6.263476E0,1.1641086E1,9.763886E0,1.581495E0,6.296929E0,1.0997382E0,5.163738E0,8.303903E0,3.3371832E0,8.586562E0,1.1773239E0,3.5720062E0,2.7249224E0,2.4401226E0,2.7236152E0,5.995643E0,2.3082592E0,1.7007922E0,1.636391E0,7.396772E0,1.1897904E0,1.5507709E0,1.1741517E0,1.1595514E0,1.5640637E0,3.9978063E0,1.9978371E0,6.000857E0,1.395915E0],"tree_param":{"num_deleted":"0","num_feature":"4","num_nodes":"35","size_leaf_vector":"1"}},{"base_weights":[-9.143162E-3,-2.1820208E-1,3.647259E-1,-1.3320324E-1,-2.4978334E-1,6.0560334E-1,2.5667371E-2,6.368195E-2,-3.75679E-1,7.8469753E-1,2.3522538E-1,-1.6188638E-1,3.0416274E-1,-4.430608E-1,2.9568312E-1,-7.739591E-1,-1.9022593E-2,2.690477E-1,6.2036842E-2,-4.250077E-2,1.9997595E-1,5.18556E-1,-6.8732746E-2,-1.484627E-1,-2.1992749E-1,9.3454525E-2,2.8322187E-1,-2.8581765E-1,-5.4099653E-2,2.5175172E-1,-1.8012561E-1,2.6962006E-2,1.9843088E-1,-1.4704607E-1,8.8201575E-2,-6.4476304E-2,1.9089124E-1,1.4479174E-1,-1.030254E-3],"categories":[],"categories_nodes":[],"categories_segments":[],"categories_sizes":[],"default_left":[0,0,0,0,0,0,0,0,0,0,0,0,0,0,0,0,0,0,0,0,0,0,0,0,0,0,0,0,0,0,0,0,0,0,0,0,0,0,0],"id":5,"left_children":[1,3,5,7,-1,9,11,13,15,17,19,-1,21,23,25,27,29,-1,-1,-1,-1,31,-1,33,-1,35,-1,-1,-1,37,-1,-1,-1,-1,-1,-1,-1,-1,-1],"loss_changes":[2.944025E0,1.149284E0,1.0884633E0,1.0927409E0,0E0,3.3671403E-1,1.2124356E0,1.6841323E0,1.4309888E0,1.3007045E-1,7.43052E-1,0E0,7.019547E-1,2.7984798E-1,1.1786457E0,3.3576798E-1,1.1578307E0,0E0,0E0,0E0,0E0,1.8215132E-1,0E0,6.748829E-1,0E0,1.5554128E0,0E0,0E0,0E0,3.002172E-1,0E0,0E0,0E0,0E0,0E0,0E0,0E0,0E0,0E0],"parents":[2147483647,0,0,1,1,2,2,3,3,5,5,6,6,7,7,8,8,9,9,10,10,12,12,13,13,14,14,15,15,16,16,21,21,23,23,25,25,29,29],"right_children":[2,4,6,8,-1,10,12,14,16,18,20,-1,22,24,26,28,30,-1,-1,-1,-1,32,-1,34,-1,36,-1,-1,-1,38,-1,-1,-1,-1,-1,-1,-1,-1,-1],"split_conditions":[2.6999664E-1,8.187431E-1,8.185508E-1,1.16202E2,-2.4978334E-1,1.16319E2,8.54294E-1,3.948252E1,1.176095E2,6.27126E-1,1.4900055E0,-1.6188638E-1,6.556675E1,1.6962512E-1,1.16041504E2,-5.699997E-1,-4.4000244E-1,2.690477E-1,6.2036842E-2,-4.250077E-2,1.9997595E-1,9.4000244E-1,-6.8732746E-2,3.335655E1,-2.1992749E-1,7.173732E-1,2.8322187E-1,-2.8581765E-1,-5.4099653E-2,2.5028446E-1,-1.8012561E-1,2.6962006E-2,1.9843088E-1,-1.4704607E-1,8.8201575E-2,-6.4476304E-2,1.9089124E-1,1.4479174E-1,-1.030254E-3],"split_indices":[3,2,2,0,0,0,2,1,0,2,3,0,1,2,0,3,3,0,0,0,0,3,0,1,0,2,0,0,0,2,0,0,0,0,0,0,0,0,0],"split_type":[0,0,0,0,0,0,0,0,0,0,0,0,0,0,0,0,0,0,0,0,0,0,0,0,0,0,0,0,0,0,0,0,0,0,0,0,0,0,0],"sum_hessian":[3.5648113E1,2.3130463E1,1.2517652E1,2.1388346E1,1.7421172E0,6.8588114E0,5.65884E0,1.2210801E1,9.177546E0,3.8692281E0,2.9895835E0,1.5582602E0,4.1005797E0,3.5490792E0,8.661722E0,3.7830036E0,5.3945417E0,2.7783194E0,1.0909089E0,1.9539382E0,1.0356451E0,2.9444194E0,1.1561604E0,2.5107136E0,1.0383655E0,7.4745812E0,1.1871406E0,2.4425304E0,1.340473E0,4.067273E0,1.3272685E0,1.1432741E0,1.8011454E0,1.3558792E0,1.1548345E0,5.1519885E0,2.322593E0,1.6673567E0,2.3999164E0],"tree_param":{"num_deleted":"0","num_feature":"4","num_nodes":"39","size_leaf_vector":"1"}},{"base_weights":[-6.9831926E-3,-1.8427876E-1,3.1647587E-1,-1.1024321E-1,-2.2438066E-1,5.286039E-1,-2.578965E-2,5.645572E-2,-3.1927967E-1,2.6727265E-1,7.1217574E-2,-9.335471E-2,2.1237203E-1,-3.876871E-1,2.567113E-1,-6.7563665E-1,-1.9731913E-2,-1.1130277E-1,3.6454526E-1,1.4755216E-1,-3.5307206E-2,-1.0332566E-3,-1.5579759E-1,8.221888E-2,2.4992056E-1,-2.68381E-1,-5.2390214E-2,1.703351E-1,-2.6342243E-1,-4.736546E-2,2.1121901E-1,7.9482876E-2,-1.719484E-1,1.1954757E-2,-2.230324E-1],"categories":[],"categories_nodes":[],"categories_segments":[],"categories_sizes":[],"default_left":[0,0,0,0,0,0,0,0,0,0,0,0,0,0,0,0,0,0,0,0,0,0,0,0,0,0,0,0,0,0,0,0,0,0,0],"id":6,"left_children":[1,3,5,7,-1,9,11,13,15,-1,17,-1,19,21,23,25,27,-1,29,-1,-1,-1,-1,31,-1,-1,-1,-1,33,-1,-1,-1,-1,-1,-1],"loss_changes":[2.0535102E0,8.817325E-1,9.346881E-1,7.7054274E-1,0E0,1.2421181E0,4.6082228E-1,1.2436866E0,1.025444E0,0E0,7.2795135E-1,0E0,4.0472353E-1,2.2056955E-1,8.837082E-1,3.2801533E-1,1.0540061E0,0E0,6.878861E-1,0E0,0E0,0E0,0E0,1.1550615E0,0E0,0E0,0E0,0E0,7.790792E-1,0E0,0E0,0E0,0E0,0E0,0E0],"parents":[2147483647,0,0,1,1,2,2,3,3,5,5,6,6,7,7,8,8,10,10,12,12,13,13,14,14,15,15,16,16,18,18,23,23,28,28],"right_children":[2,4,6,8,-1,10,12,14,16,-1,18,-1,20,22,24,26,28,-1,30,-1,-1,-1,-1,32,-1,-1,-1,-1,34,-1,-1,-1,-1,-1,-1],"split_conditions":[2.6999664E-1,8.187431E-1,6.0431908E1,1.16202E2,-2.2438066E-1,1.162345E2,9.159319E-1,3.948252E1,1.176095E2,2.6727265E-1,1.16408E2,-9.335471E-2,9.4000244E-1,2.3399113E-2,1.16041504E2,3.676215E-1,1.18478E2,-1.1130277E-1,1.159996E0,1.4755216E-1,-3.5307206E-2,-1.0332566E-3,-1.5579759E-1,1.15639E2,2.4992056E-1,-2.68381E-1,-5.2390214E-2,1.703351E-1,-4.4000244E-1,-4.736546E-2,2.1121901E-1,7.9482876E-2,-1.719484E-1,1.1954757E-2,-2.230324E-1],"split_indices":[3,2,1,0,0,0,2,1,0,0,0,0,3,2,0,2,0,0,3,0,0,0,0,0,0,0,0,0,3,0,0,0,0,0,0],"split_type":[0,0,0,0,0,0,0,0,0,0,0,0,0,0,0,0,0,0,0,0,0,0,0,0,0,0,0,0,0,0,0,0,0,0,0],"sum_hessian":[3.379102E1,2.2105022E1,1.1685999E1,2.0595427E1,1.5095959E0,6.8784637E0,4.8075347E0,1.1864136E1,8.73129E0,3.309286E0,3.5691776E0,2.0474472E0,2.7600877E0,3.396079E0,8.468057E0,3.4141386E0,5.3171515E0,1.317723E0,2.2514546E0,1.2291812E0,1.5309064E0,1.1284305E0,2.2676485E0,7.3772454E0,1.0908118E0,1.8290942E0,1.5850444E0,1.1689596E0,4.148192E0,1.0975634E0,1.1538912E0,6.234711E0,1.1425344E0,3.104059E0,1.0441327E0],"tree_param":{"num_deleted":"0","num_feature":"4","num_nodes":"35","size_leaf_vector":"1"}},{"base_weights":[-1.1437525E-2,-1.6310729E-1,2.7367803E-1,-3.5530876E-2,-4.4184065E-1,5.8591044E-1,4.0729053E-2,-2.0919472E-1,5.3835255E-1,-1.4422625E-1,-2.5105563E-1,1.2319016E-2,2.3997363E-1,-3.8239673E-1,4.2597625E-1,1.1259111E-1,-3.8325292E-1,7.380084E-2,2.8924796E-1,7.804245E-2,-3.7408063E-1,4.14126E-2,-6.3018787E-1,-1.0156771E-1,2.3264934E-1,-1.3975836E-1,1.7118502E-1,-1.9182631E-1,-2.4526547E-1,1.8712762E-1,-1.5598613E-1,-1.6170178E-1,-2.0812112E-3,-8.40734E-3,-2.7525565E-1,-1.1890928E-1,6.905754E-2,-1.5581381E-1,7.780858E-2],"categories":[],"categories_nodes":[],"categories_segments":[],"categories_sizes":[],"default_left":[0,0,0,0,0,0,0,0,0,0,0,0,0,0,0,0,0,0,0,0,0,0,0,0,0,0,0,0,0,0,0,0,0,0,0,0,0,0,0],"id":7,"left_children":[1,3,5,7,9,11,13,15,17,19,-1,-1,-1,21,23,25,27,29,-1,-1,31,-1,33,-1,-1,35,-1,37,-1,-1,-1,-1,-1,-1,-1,-1,-1,-1,-1],"loss_changes":[1.4757539E0,7.7476877E-1,8.391398E-1,1.7408096E0,6.895665E-1,5.495751E-1,1.4457716E0,7.8594095E-1,7.3493934E-1,5.7495826E-1,0E0,0E0,0E0,6.386305E-1,1.4897535E0,7.07165E-1,5.7756245E-1,1.3143227E0,0E0,0E0,2.1949339E-1,0E0,5.06765E-1,0E0,0E0,4.9975264E-1,0E0,1.2339113E0,0E0,0E0,0E0,0E0,0E0,0E0,0E0,0E0,0E0,0E0,0E0],"parents":[2147483647,0,0,1,1,2,2,3,3,4,4,5,5,6,6,7,7,8,8,9,9,13,13,14,14,15,15,16,16,17,17,20,20,22,22,25,25,27,27],"right_children":[2,4,6,8,10,12,14,16,18,20,-1,-1,-1,22,24,26,28,30,-1,-1,32,-1,34,-1,-1,36,-1,38,-1,-1,-1,-1,-1,-1,-1,-1,-1,-1,-1],"split_conditions":[2.6999664E-1,5.551019E1,7.700043E-1,5.125886E1,1.155745E2,4.4999695E-1,1.2000046E0,1.905929E-1,5.910489E-1,5.870554E1,-2.5105563E-1,1.2319016E-2,2.3997363E-1,9.300003E-1,1.14888E2,-8.199997E-1,1.18478E2,4.937773E-1,2.8924796E-1,7.804245E-2,1.136775E2,4.14126E-2,1.164265E2,-1.0156771E-1,2.3264934E-1,8.00013E-2,1.7118502E-1,4.5033703E1,-2.4526547E-1,1.8712762E-1,-1.5598613E-1,-1.6170178E-1,-2.0812112E-3,-8.40734E-3,-2.7525565E-1,-1.1890928E-1,6.905754E-2,-1.5581381E-1,7.780858E-2],"split_indices":[3,1,3,1,0,3,3,2,2,1,0,0,0,3,0,3,0,2,0,0,0,0,0,0,0,2,0,1,0,0,0,0,0,0,0,0,0,0,0],"split_type":[0,0,0,0,0,0,0,0,0,0,0,0,0,0,0,0,0,0,0,0,0,0,0,0,0,0,0,0,0,0,0,0,0,0,0,0,0,0,0],"sum_hessian":[3.2094414E1,2.122925E1,1.0865163E1,1.5336979E1,5.8922706E0,3.9951234E0,6.8700395E0,1.2261869E1,3.0751095E0,4.138962E0,1.7533089E0,1.462779E0,2.5323443E0,3.2775886E0,3.592451E0,4.4282994E0,7.8335695E0,2.031778E0,1.0433314E0,1.4522852E0,2.6866765E0,1.20004E0,2.0775485E0,1.1369274E0,2.4555237E0,3.3032436E0,1.125056E0,6.437703E0,1.395866E0,1.028557E0,1.0032213E0,1.530879E0,1.1557975E0,1.0256383E0,1.0519103E0,1.9082433E0,1.3950002E0,3.6423197E0,2.7953837E0],"tree_param":{"num_deleted":"0","num_feature":"4","num_nodes":"39","size_leaf_vector":"1"}},{"base_weights":[-1.0748166E-2,-2.6848194E-1,1.1979354E-1,-3.2634173E-2,-4.3968782E-1,2.1276437E-1,-3.9049172E-1,-3.507991E-1,1.09478824E-1,-2.1419394E-1,-6.721789E-2,3.6380917E-1,-1.084756E-2,-1.8479517E-1,3.1079486E-2,2.4897367E-2,-1.7112789E-1,7.254257E-2,-9.734238E-2,-7.5294664E-3,5.1280123E-1,-4.5958757E-1,2.2203995E-1,-1.4607084E-1,2.051379E-1,6.8154794E-1,-9.364838E-2,-2.1732094E-2,-1.8035358E-1,6.8678224E-1,-3.0352372E-1,2.6629555E-1,1.784117E-2,2.6127073E-1,6.762439E-2,-1.9944572E-1,8.067654E-2],"categories":[],"categories_nodes":[],"categories_segments":[],"categories_sizes":[],"default_left":[0,0,0,0,0,0,0,0,0,0,0,0,0,0,0,0,0,0,0,0,0,0,0,0,0,0,0,0,0,0,0,0,0,0,0,0,0],"id":8,"left_children":[1,3,5,7,9,11,13,15,-1,-1,17,19,21,-1,-1,-1,-1,-1,-1,23,25,27,29,-1,-1,31,-1,-1,-1,33,35,-1,-1,-1,-1,-1,-1],"loss_changes":[1.0997385E0,4.2887163E-1,1.1151259E0,8.4862506E-1,5.935782E-1,6.473224E-1,4.7663563E-1,3.974011E-1,0E0,0E0,3.7794662E-1,6.34475E-1,1.0060867E0,0E0,0E0,0E0,0E0,0E0,0E0,1.741151E0,1.3471429E0,1.3632286E-1,1.7641567E0,0E0,0E0,8.548453E-1,0E0,0E0,0E0,1.1686146E-1,9.4041514E-1,0E0,0E0,0E0,0E0,0E0,0E0],"parents":[2147483647,0,0,1,1,2,2,3,3,4,4,5,5,6,6,7,7,10,10,11,11,12,12,19,19,20,20,21,21,22,22,25,25,29,29,30,30],"right_children":[2,4,6,8,10,12,14,16,-1,-1,18,20,22,-1,-1,-1,-1,-1,-1,24,26,28,30,-1,-1,32,-1,-1,-1,34,36,-1,-1,-1,-1,-1,-1],"split_conditions":[-6.100006E-1,2.5028446E-1,6.535637E1,3.948252E1,-1.1399994E0,1.16202E2,9.774347E-1,3.3077263E1,1.09478824E-1,-2.1419394E-1,-8.600006E-1,1.118145E2,3.4033138E-1,-1.8479517E-1,3.1079486E-2,2.4897367E-2,-1.7112789E-1,7.254257E-2,-9.734238E-2,7.360001E-1,8.8088393E-1,2.2199923E-1,5.4678043E1,-1.4607084E-1,2.051379E-1,1.157035E2,-9.364838E-2,-2.1732094E-2,-1.8035358E-1,4.57258E-1,9.4000244E-1,2.6629555E-1,1.784117E-2,2.6127073E-1,6.762439E-2,-1.9944572E-1,8.067654E-2],"split_indices":[3,2,1,1,3,0,2,1,0,0,3,0,2,0,0,0,0,0,0,2,2,2,1,0,0,0,0,0,0,2,3,0,0,0,0,0,0],"split_type":[0,0,0,0,0,0,0,0,0,0,0,0,0,0,0,0,0,0,0,0,0,0,0,0,0,0,0,0,0,0,0,0,0,0,0,0,0],"sum_hessian":[3.0730593E1,9.976638E0,2.0753956E1,4.696922E0,5.279716E0,1.804865E1,2.7053046E0,2.6743236E0,2.0225983E0,2.5125563E0,2.76716E0,1.0398043E1,7.6506085E0,1.6881602E0,1.0171444E0,1.1080054E0,1.566318E0,1.2843726E0,1.4827873E0,3.2492573E0,7.148785E0,2.2813501E0,5.3692584E0,2.093374E0,1.1558833E0,6.0791364E0,1.0696485E0,1.0157199E0,1.2656304E0,2.6867137E0,2.6825447E0,4.245591E0,1.8335456E0,1.2858925E0,1.4008212E0,1.5456506E0,1.136894E0],"tree_param":{"num_deleted":"0","num_feature":"4","num_nodes":"37","size_leaf_vector":"1"}},{"base_weights":[-1.2362526E-2,1.8271127E-1,-5.8478907E-2,-1.7033325E-1,2.0870548E-1,-6.328438E-2,-6.6767263E-1,5.0551873E-1,-1.1123594E-1,-2.2303516E-1,1.9829653E-1,-9.889984E-3,-2.7963343E-1,2.5821137E-1,-5.0969194E-3,-4.3868962E-1,1.3115953E-1,-6.106433E-1,-2.5366358E-2,-1.2609981E-1,4.193026E-1,-1.4269858E-2,-1.898839E-1,-4.9590856E-2,-2.5040963E-1,1.3130584E-1,-8.6023584E-2,2.2263297E-1,-2.1331973E-2],"categories":[],"categories_nodes":[],"categories_segments":[],"categories_sizes":[],"default_left":[0,0,0,0,0,0,0,0,0,0,0,0,0,0,0,0,0,0,0,0,0,0,0,0,0,0,0,0,0],"id":9,"left_children":[1,-1,3,5,7,9,11,13,15,17,19,-1,-1,-1,-1,21,-1,23,25,-1,27,-1,-1,-1,-1,-1,-1,-1,-1],"loss_changes":[9.0391886E-1,0E0,9.0579855E-1,1.0798649E0,9.1492975E-1,8.1514245E-1,5.78264E-1,9.1864526E-1,1.1204969E0,8.981175E-1,1.2049583E0,0E0,0E0,0E0,0E0,2.5383627E-1,0E0,2.595371E-1,1.2075683E0,0E0,1.009628E0,0E0,0E0,0E0,0E0,0E0,0E0,0E0,0E0],"parents":[2147483647,0,0,2,2,3,3,4,4,5,5,6,6,7,7,8,8,9,9,10,10,15,15,17,17,18,18,20,20],"right_children":[2,-1,4,6,8,10,12,14,16,18,20,-1,-1,-1,-1,22,-1,24,26,-1,28,-1,-1,-1,-1,-1,-1,-1,-1],"split_conditions":[1.0827E2,1.8271127E-1,4.4999695E-1,6.05704E1,1.16043E2,5.125886E1,-1.6999817E-1,1.050003E0,1.2000046E0,1.139495E2,-9.1999817E-1,-9.889984E-3,-2.7963343E-1,2.5821137E-1,-5.0969194E-3,8.7000275E-1,1.3115953E-1,1.126355E2,1.16202E2,-1.2609981E-1,1.155745E2,-1.4269858E-2,-1.898839E-1,-4.9590856E-2,-2.5040963E-1,1.3130584E-1,-8.6023584E-2,2.2263297E-1,-2.1331973E-2],"split_indices":[0,0,3,1,0,1,3,3,3,0,3,0,0,0,0,3,0,0,0,0,0,0,0,0,0,0,0,0,0],"split_type":[0,0,0,0,0,0,0,0,0,0,0,0,0,0,0,0,0,0,0,0,0,0,0,0,0,0,0,0,0],"sum_hessian":[2.9300148E1,1.1809381E0,2.8119211E1,2.0076748E1,8.042462E0,1.7448357E1,2.6283922E0,3.8711333E0,4.171329E0,1.0924179E1,6.5241776E0,1.1037755E0,1.5246167E0,1.9192375E0,1.951896E0,2.7371588E0,1.4341699E0,2.9838774E0,7.9403014E0,1.4798762E0,5.044301E0,1.3214222E0,1.4157367E0,1.5803982E0,1.4034792E0,2.621532E0,5.318769E0,2.7324471E0,2.3118541E0],"tree_param":{"num_deleted":"0","num_feature":"4","num_nodes":"29","size_leaf_vector":"1"}},{"base_weights":[-1.1973446E-2,-6.450395E-2,4.401508E-1,2.0112771E-1,-1.6071907E-1,2.0111285E-1,-4.9711987E-3,-1.0494156E-1,1.8483701E-1,-4.5670033E-2,-5.717916E-1,3.494289E-1,-1.8364348E-1,-2.0518054E-1,4.2243022E-2,-2.368411E-1,-4.0751684E-2,-7.1126805E-3,1.7166029E-1,6.082839E-1,-1.1864881E-1,1.6208792E-2,2.4821076E-1,-1.2077677E-1,3.8773313E-2],"categories":[],"categories_nodes":[],"categories_segments":[],"categories_sizes":[],"default_left":[0,0,0,0,0,0,0,0,0,0,0,0,0,0,0,0,0,0,0,0,0,0,0,0,0],"id":10,"left_children":[1,3,5,7,9,-1,-1,11,-1,13,15,17,-1,-1,19,-1,-1,-1,-1,21,23,-1,-1,-1,-1],"loss_changes":[7.1723735E-1,7.1872485E-1,3.4199774E-1,1.0281333E0,9.3259156E-1,0E0,0E0,1.4169145E0,0E0,9.786055E-1,3.0518627E-1,2.9536402E-1,0E0,0E0,1.5127549E0,0E0,0E0,0E0,0E0,4.0024424E-1,9.778964E-1,0E0,0E0,0E0,0E0],"parents":[2147483647,0,0,1,1,2,2,3,3,4,4,7,7,9,9,10,10,11,11,14,14,19,19,20,20],"right_children":[2,4,6,8,10,-1,-1,12,-1,14,16,18,-1,-1,20,-1,-1,-1,-1,22,24,-1,-1,-1,-1],"split_conditions":[1.4900055E0,1.133725E2,8.8088393E-1,1.118145E2,8.10287E-1,2.0111285E-1,-4.9711987E-3,1.098545E2,1.8483701E-1,1.139495E2,9.3202007E-1,3.9867058E1,-1.8364348E-1,-2.0518054E-1,1.157035E2,-2.368411E-1,-4.0751684E-2,-7.1126805E-3,1.7166029E-1,1.14999E2,3.4668195E-1,1.6208792E-2,2.4821076E-1,-1.2077677E-1,3.8773313E-2],"split_indices":[3,0,2,0,2,0,0,0,0,0,2,1,0,0,0,0,0,0,0,0,2,0,0,0,0],"split_type":[0,0,0,0,0,0,0,0,0,0,0,0,0,0,0,0,0,0,0,0,0,0,0,0,0],"sum_hessian":[2.800365E1,2.5856787E1,2.1468651E0,6.5853868E0,1.92714E1,1.1163379E0,1.0305272E0,4.220093E0,2.3652937E0,1.592538E1,3.34602E0,2.3900607E0,1.8300323E0,1.1072032E0,1.4818176E1,1.6908439E0,1.655176E0,1.2275378E0,1.1625229E0,2.6642516E0,1.2153925E1,1.1079383E0,1.5563133E0,5.374198E0,6.779727E0],"tree_param":{"num_deleted":"0","num_feature":"4","num_nodes":"25","size_leaf_vector":"1"}},{"base_weights":[-6.3111284E-3,-1.0821623E-1,1.9956982E-1,1.635437E-2,-3.9594665E-1,4.1741964E-1,-3.0390294E-2,-7.637968E-2,1.7807582E-1,2.1063184E-2,-5.156642E-1,2.4376983E-2,4.9725053E-1,-3.7506038E-1,1.17455035E-1,2.1043938E-2,-1.8954372E-1,-2.0365842E-1,-2.0737983E-1,2.2659825E-1,-4.9625724E-3,-1.5288827E-1,-3.7131827E-2,1.2101514E-1,-1.2960114E-1,-9.7459294E-2,5.6426157E-3,-2.3667155E-2,1.3523051E-1],"categories":[],"categories_nodes":[],"categories_segments":[],"categories_sizes":[],"default_left":[0,0,0,0,0,0,0,0,0,0,0,0,0,0,0,0,0,0,0,0,0,0,0,0,0,0,0,0,0],"id":11,"left_children":[1,3,5,7,9,11,13,15,-1,-1,17,-1,19,21,-1,23,-1,25,-1,-1,-1,-1,-1,27,-1,-1,-1,-1,-1],"loss_changes":[6.089318E-1,7.009014E-1,4.946335E-1,8.2048815E-1,3.6509377E-1,9.399384E-2,9.629646E-1,7.363727E-1,0E0,0E0,1.2269199E-1,0E0,5.2322316E-1,5.864191E-2,0E0,6.110091E-1,0E0,9.103432E-2,0E0,0E0,0E0,0E0,0E0,7.532508E-1,0E0,0E0,0E0,0E0,0E0],"parents":[2147483647,0,0,1,1,2,2,3,3,4,4,5,5,6,6,7,7,10,10,12,12,13,13,15,15,17,17,23,23],"right_children":[2,4,6,8,10,12,14,16,-1,-1,18,-1,20,22,-1,24,-1,26,-1,-1,-1,-1,-1,28,-1,-1,-1,-1,-1],"split_conditions":[2.6999664E-1,5.551019E1,9.300003E-1,5.910489E-1,6.28217E-1,4.4999695E-1,1.4900055E0,5.178636E-1,1.7807582E-1,2.1063184E-2,1.14334E2,2.4376983E-2,1.159995E2,1.1499939E0,1.17455035E-1,-2.0999908E-1,-1.8954372E-1,1.124755E2,-2.0737983E-1,2.2659825E-1,-4.9625724E-3,-1.5288827E-1,-3.7131827E-2,-6.399994E-1,-1.2960114E-1,-9.7459294E-2,5.6426157E-3,-2.3667155E-2,1.3523051E-1],"split_indices":[3,1,3,2,2,3,3,2,0,0,0,0,0,3,0,3,0,0,0,0,0,0,0,3,0,0,0,0,0],"split_type":[0,0,0,0,0,0,0,0,0,0,0,0,0,0,0,0,0,0,0,0,0,0,0,0,0,0,0,0,0],"sum_hessian":[2.6994574E1,1.8374235E1,8.620338E0,1.3480933E1,4.893302E0,4.0081167E0,4.6122217E0,1.2362533E1,1.1183999E0,1.0843973E0,3.8089044E0,1.1564087E0,2.8517082E0,2.5995762E0,2.0126457E0,1.1336252E1,1.0262808E0,2.1494966E0,1.659408E0,1.5853084E0,1.2663997E0,1.0234458E0,1.5761304E0,9.887358E0,1.4488947E0,1.0934672E0,1.0560293E0,6.629268E0,3.2580893E0],"tree_param":{"num_deleted":"0","num_feature":"4","num_nodes":"29","size_leaf_vector":"1"}},{"base_weights":[-9.173255E-3,1.4709318E-1,-4.757642E-2,-2.5173673E-1,7.528987E-2,5.862534E-4,-5.587128E-1,2.4108802E-1,-7.275971E-2,-3.6085317E-1,4.867236E-1,-2.1691601E-1,-2.0536952E-2,-2.8243226E-1,1.9003877E-1,-1.8121198E-1,5.3809065E-2,4.0241893E-2,1.8732041E-1,-1.8331118E-1,5.731163E-2,5.0683564E-1,-1.317843E-1,1.0231138E-1,-6.7462504E-2,2.0365228E-1,5.872827E-2,-2.1055053E-1,7.406746E-2],"categories":[],"categories_nodes":[],"categories_segments":[],"categories_sizes":[],"default_left":[0,0,0,0,0,0,0,0,0,0,0,0,0,0,0,0,0,0,0,0,0,0,0,0,0,0,0,0,0],"id":12,"left_children":[1,-1,3,5,7,9,11,-1,13,15,17,-1,-1,19,21,-1,-1,-1,-1,-1,23,25,27,-1,-1,-1,-1,-1,-1],"loss_changes":[5.458204E-1,0E0,6.7631173E-1,7.8078187E-1,1.9055872E0,1.3228805E0,3.1682765E-1,0E0,8.886329E-1,6.757668E-1,7.206887E-2,0E0,0E0,1.0208918E0,8.133295E-1,0E0,0E0,0E0,0E0,0E0,4.9750674E-1,7.559061E-2,1.1286982E0,0E0,0E0,0E0,0E0,0E0,0E0],"parents":[2147483647,0,0,2,2,3,3,4,4,5,5,6,6,8,8,9,9,10,10,13,13,14,14,20,20,21,21,22,22],"right_children":[2,-1,4,6,8,10,12,-1,14,16,18,-1,-1,20,22,-1,-1,-1,-1,-1,24,26,28,-1,-1,-1,-1,-1,-1],"split_conditions":[1.0827E2,1.4709318E-1,1.14999E2,1.133725E2,1.157035E2,1.121495E2,6.240167E1,2.4108802E-1,1.176095E2,7.8563E-1,-8.0999756E-1,-2.1691601E-1,-2.0536952E-2,-3.7999725E-1,1.191965E2,-1.8121198E-1,5.3809065E-2,4.0241893E-2,1.8732041E-1,-1.8331118E-1,4.8000336E-1,-9.8999786E-1,1.198855E2,1.0231138E-1,-6.7462504E-2,2.0365228E-1,5.872827E-2,-2.1055053E-1,7.406746E-2],"split_indices":[0,0,0,0,0,0,1,0,0,2,3,0,0,3,0,0,0,0,0,0,3,3,0,0,0,0,0,0,0],"split_type":[0,0,0,0,0,0,0,0,0,0,0,0,0,0,0,0,0,0,0,0,0,0,0,0,0,0,0,0,0],"sum_hessian":[2.6239067E1,1.0332204E0,2.5205847E1,9.0759535E0,1.6129894E1,5.529225E0,3.546729E0,1.976807E0,1.4153087E1,3.3191648E0,2.2100601E0,2.3006666E0,1.2460624E0,7.8306937E0,6.322393E0,2.207349E0,1.1118156E0,1.1750734E0,1.0349867E0,3.5746856E0,4.256008E0,2.8963697E0,3.4260235E0,2.0182211E0,2.2377872E0,1.1037952E0,1.7925745E0,1.0268427E0,2.3991807E0],"tree_param":{"num_deleted":"0","num_feature":"4","num_nodes":"29","size_leaf_vector":"1"}},{"base_weights":[1.6225547E-3,4.634502E-2,-1.1597343E-1,-1.2976733E-1,1.8584715E-1,1.0830988E-1,-4.1566432E-1,-1.171808E-1,2.9799995E-1,-1.1694831E-1,1.6659169E-1,-5.4346246E-1,1.4747768E-2,9.900353E-2,-3.6761177E-1,5.8275026E-1,8.444648E-2,1.1480265E-1,-1.5217973E-1,-2.0400558E-1,-1.7040225E-2,-1.3664326E-1,-3.0454742E-2,4.153351E-2,2.4146067E-1,-1.3042721E-1,2.8714436E-1,-5.672066E-2,1.5548824E-1,1.6656315E-1,-1.0594793E-2],"categories":[],"categories_nodes":[],"categories_segments":[],"categories_sizes":[],"default_left":[0,0,0,0,0,0,0,0,0,0,0,0,0,0,0,0,0,0,0,0,0,0,0,0,0,0,0,0,0,0,0],"id":13,"left_children":[1,3,-1,5,7,9,11,13,15,17,-1,19,-1,-1,21,23,25,27,-1,-1,-1,-1,-1,-1,-1,-1,29,-1,-1,-1,-1],"loss_changes":[4.7295365E-1,6.23461E-1,0E0,8.190344E-1,5.115206E-1,7.695663E-1,3.4592736E-1,6.259445E-1,5.903642E-1,5.538597E-1,0E0,2.469877E-1,0E0,0E0,3.2355785E-2,3.1668127E-1,8.8044006E-1,6.1949426E-1,0E0,0E0,0E0,0E0,0E0,0E0,0E0,0E0,5.1802444E-1,0E0,0E0,0E0,0E0],"parents":[2147483647,0,0,1,1,3,3,4,4,5,5,6,6,7,7,8,8,9,9,11,11,14,14,15,15,16,16,17,17,26,26],"right_children":[2,4,-1,6,8,10,12,14,16,18,-1,20,-1,-1,22,24,26,28,-1,-1,-1,-1,-1,-1,-1,-1,30,-1,-1,-1,-1],"split_conditions":[6.556675E1,-5E-1,-1.1597343E-1,4.7693188E1,4.579743E1,4.455489E1,1.18515E2,2.2199923E-1,5.4678043E1,4.0157246E1,1.6659169E-1,7.0714146E-1,1.4747768E-2,9.900353E-2,3.1308123E-1,5.1816936E1,5.752483E1,1.6805601E-1,-1.5217973E-1,-2.0400558E-1,-1.7040225E-2,-1.3664326E-1,-3.0454742E-2,4.153351E-2,2.4146067E-1,-1.3042721E-1,8.187431E-1,-5.672066E-2,1.5548824E-1,1.6656315E-1,-1.0594793E-2],"split_indices":[1,3,0,1,1,1,0,2,1,1,0,2,0,0,2,1,1,2,0,0,0,0,0,0,0,0,2,0,0,0,0],"split_type":[0,0,0,0,0,0,0,0,0,0,0,0,0,0,0,0,0,0,0,0,0,0,0,0,0,0,0,0,0,0,0],"sum_hessian":[2.5209898E1,2.3395271E1,1.814625E0,1.0371593E1,1.3023679E1,5.9979944E0,4.3735986E0,3.5059772E0,9.517702E0,4.479149E0,1.5188457E0,3.2977407E0,1.0758581E0,1.1444919E0,2.3614852E0,3.338007E0,6.1796947E0,3.2533476E0,1.2258013E0,2.264902E0,1.0328386E0,1.2402476E0,1.1212376E0,1.6535981E0,1.6844089E0,1.4136988E0,4.765996E0,2.1588924E0,1.0944551E0,2.2083595E0,2.5576367E0],"tree_param":{"num_deleted":"0","num_feature":"4","num_nodes":"31","size_leaf_vector":"1"}},{"base_weights":[2.865193E-3,-8.285905E-2,1.7441E-1,-1.3139344E-2,-1.4792323E-1,3.998661E-1,1.3211951E-2,-1.3474196E-1,1.3261361E-1,4.4687768E-3,1.6267253E-1,-9.6563585E-2,1.4262378E-1,1.284163E-1,-2.8192666E-1,2.1956179E-1,-2.7260365E-2,-4.470354E-2,3.4151787E-1,-9.12942E-2,1.1558024E-1,-4.1542342E-1,2.9062541E-2,4.1874442E-1,-6.9226645E-2,1.5745233E-1,-2.1968142E-3,-1.9280368E-1,-2.7416827E-2,3.931064E-2,1.686158E-1,-1.1742225E-1,9.14099E-2],"categories":[],"categories_nodes":[],"categories_segments":[],"categories_sizes":[],"default_left":[0,0,0,0,0,0,0,0,0,0,0,0,0,0,0,0,0,0,0,0,0,0,0,0,0,0,0,0,0,0,0,0,0],"id":14,"left_children":[1,3,5,7,-1,9,11,13,15,-1,-1,-1,17,19,21,23,-1,-1,25,-1,-1,27,-1,29,31,-1,-1,-1,-1,-1,-1,-1,-1],"loss_changes":[3.8747665E-1,4.9665648E-1,3.136034E-1,3.0258211E-1,0E0,1.9054991E-1,3.1261945E-1,3.94616E-1,1.7171636E-1,0E0,0E0,0E0,3.4844577E-1,5.6251353E-1,3.5616258E-1,3.6925554E-1,0E0,0E0,2.1831077E-1,0E0,0E0,2.95353E-1,0E0,7.654458E-2,5.1353484E-1,0E0,0E0,0E0,0E0,0E0,0E0,0E0,0E0],"parents":[2147483647,0,0,1,1,2,2,3,3,5,5,6,6,7,7,8,8,12,12,13,13,14,14,15,15,18,18,21,21,23,23,24,24],"right_children":[2,4,6,8,-1,10,12,14,16,-1,-1,-1,18,20,22,24,-1,-1,26,-1,-1,28,-1,30,32,-1,-1,-1,-1,-1,-1,-1,-1],"split_conditions":[2.6999664E-1,6.9999695E-2,5.4528027E1,-6.100006E-1,-1.4792323E-1,3.0950132E-1,7.010292E-1,-1.5999985E0,-1.800003E-1,4.4687768E-3,1.6267253E-1,-9.6563585E-2,1.14888E2,-2.2200012E0,1.17938E2,4.57258E-1,-2.7260365E-2,-4.470354E-2,6.355189E1,-9.12942E-2,1.1558024E-1,-9.700012E-1,2.9062541E-2,4.4355297E1,6.925673E-1,1.5745233E-1,-2.1968142E-3,-1.9280368E-1,-2.7416827E-2,3.931064E-2,1.686158E-1,-1.1742225E-1,9.14099E-2],"split_indices":[3,3,1,3,0,2,2,3,3,0,0,0,0,3,0,2,0,0,1,0,0,3,0,1,2,0,0,0,0,0,0,0,0],"split_type":[0,0,0,0,0,0,0,0,0,0,0,0,0,0,0,0,0,0,0,0,0,0,0,0,0,0,0,0,0,0,0,0,0],"sum_hessian":[2.436629E1,1.6591953E1,7.7743354E0,1.5063781E1,1.5281729E0,2.6238942E0,5.150441E0,8.253434E0,6.8103466E0,1.0066454E0,1.6172489E0,1.0205787E0,4.1298623E0,3.0061378E0,5.247296E0,4.915465E0,1.8948816E0,1.7762177E0,2.3536446E0,1.0508796E0,1.9552583E0,3.8084497E0,1.4388461E0,2.6427252E0,2.2727396E0,1.2121197E0,1.1415248E0,1.6605114E0,2.1479385E0,1.5151787E0,1.1275465E0,1.1957297E0,1.07701E0],"tree_param":{"num_deleted":"0","num_feature":"4","num_nodes":"33","size_leaf_vector":"1"}},{"base_weights":[2.708387E-3,2.6325938E-1,-5.728038E-2,-2.556391E-2,1.4810582E-1,-3.3815455E-1,5.2402787E-2,4.251264E-2,-5.3519357E-2,-4.532169E-1,1.9529622E-2,3.069454E-1,-8.122381E-2,1.5212774E-3,-1.8022764E-1,-3.883271E-2,4.6489155E-1,-1.2882347E-1,8.979336E-3,-2.9622935E-2,2.1405679E-1,1.4099063E-1,-9.894444E-2,-1.12502344E-1,6.1547596E-2],"categories":[],"categories_nodes":[],"categories_segments":[],"categories_sizes":[],"default_left":[0,0,0,0,0,0,0,0,0,0,0,0,0,0,0,0,0,0,0,0,0,0,0,0,0],"id":15,"left_children":[1,3,5,7,-1,9,11,-1,-1,13,-1,15,17,-1,-1,-1,19,-1,21,-1,-1,-1,23,-1,-1],"loss_changes":[4.0274212E-1,3.3343205E-1,6.64111E-1,1.0427414E-1,0E0,3.0913657E-1,5.6762516E-1,0E0,0E0,3.285787E-1,0E0,4.531768E-1,3.5729793E-1,0E0,0E0,0E0,6.8766326E-1,0E0,5.3990895E-1,0E0,0E0,0E0,8.2092816E-1,0E0,0E0],"parents":[2147483647,0,0,1,1,2,2,3,3,5,5,6,6,9,9,11,11,12,12,16,16,18,18,22,22],"right_children":[2,4,6,8,-1,10,12,-1,-1,14,-1,16,18,-1,-1,-1,20,-1,22,-1,-1,-1,24,-1,-1],"split_conditions":[1.905929E-1,8.00013E-2,4.6991302E1,-1.2590873E-1,1.4810582E-1,3.4033138E-1,5.362807E1,4.251264E-2,-5.3519357E-2,1.126355E2,1.9529622E-2,-9.8999786E-1,5.965288E-1,1.5212774E-3,-1.8022764E-1,-3.883271E-2,5.0227222E1,-1.2882347E-1,6.5166014E-1,-2.9622935E-2,2.1405679E-1,1.4099063E-1,4.4999695E-1,-1.12502344E-1,6.1547596E-2],"split_indices":[2,2,1,2,0,2,1,0,0,0,0,3,2,0,0,0,1,0,2,0,0,0,3,0,0],"split_type":[0,0,0,0,0,0,0,0,0,0,0,0,0,0,0,0,0,0,0,0,0,0,0,0,0],"sum_hessian":[2.3802256E1,3.8204224E0,1.9981833E1,2.089918E0,1.7305043E0,5.026661E0,1.4955172E1,1.0325794E0,1.0573385E0,3.814382E0,1.2122785E0,4.7017894E0,1.0253383E1,1.1641093E0,2.6502728E0,1.2974747E0,3.4043145E0,1.3359742E0,8.917408E0,1.2265769E0,2.1777377E0,1.0552671E0,7.862141E0,3.9988465E0,3.8632946E0],"tree_param":{"num_deleted":"0","num_feature":"4","num_nodes":"25","size_leaf_vector":"1"}},{"base_weights":[5.8352184E-3,6.931214E-2,-2.1478835E-1,-7.490125E-3,4.2158478E-1,-1.7828757E-1,3.757393E-2,-1.2542368E-1,2.5307006E-1,1.6430122E-1,2.2902776E-2,5.8802675E-2,-4.4183925E-2,3.4885477E-2,-4.563048E-1,1.4065087E-1,4.915168E-2,-1.5215433E-1,4.291424E-1,-1.9620273E-1,-4.7621522E-2,-1.0166118E-1,1.1179016E-1,-1.1807109E-1,7.148956E-2,1.6509095E-1,2.7163694E-2],"categories":[],"categories_nodes":[],"categories_segments":[],"categories_sizes":[],"default_left":[0,0,0,0,0,0,0,0,0,0,0,0,0,0,0,0,0,0,0,0,0,0,0,0,0,0,0],"id":16,"left_children":[1,3,5,7,9,-1,11,13,15,-1,-1,-1,-1,17,19,-1,21,23,25,-1,-1,-1,-1,-1,-1,-1,-1],"loss_changes":[3.5184568E-1,5.2913564E-1,5.605595E-1,5.523958E-1,1.1042607E-1,0E0,1.5526858E-1,6.700902E-1,2.2382194E-1,0E0,0E0,0E0,0E0,7.464286E-1,1.3715547E-1,0E0,6.2856007E-1,7.5389546E-1,8.283752E-2,0E0,0E0,0E0,0E0,0E0,0E0,0E0,0E0],"parents":[2147483647,0,0,1,1,2,2,3,3,4,4,6,6,7,7,8,8,13,13,14,14,16,16,17,17,18,18],"right_children":[2,4,6,8,10,-1,12,14,16,-1,-1,-1,-1,18,20,-1,22,24,26,-1,-1,-1,-1,-1,-1,-1,-1],"split_conditions":[8.187431E-1,7.173732E-1,5.1999664E-1,1.172775E2,4.9995422E-2,-1.7828757E-1,1.1500015E0,1.16202E2,2.5028446E-1,1.6430122E-1,2.2902776E-2,5.8802675E-2,-4.4183925E-2,-7.99942E-2,3.0168337E-1,1.4065087E-1,5.1245613E1,1.14999E2,5.237396E-1,-1.9620273E-1,-4.7621522E-2,-1.0166118E-1,1.1179016E-1,-1.1807109E-1,7.148956E-2,1.6509095E-1,2.7163694E-2],"split_indices":[2,2,3,0,3,0,3,0,2,0,0,0,0,3,2,0,1,0,2,0,0,0,0,0,0,0,0],"split_type":[0,0,0,0,0,0,0,0,0,0,0,0,0,0,0,0,0,0,0,0,0,0,0,0,0,0,0],"sum_hessian":[2.3060703E1,1.844082E1,4.619883E0,1.5943554E1,2.4972663E0,1.3040026E0,3.3158805E0,1.1332794E1,4.6107597E0,1.3997324E0,1.097534E0,1.7530364E0,1.5628443E0,8.2367325E0,3.0960615E0,1.6090677E0,3.0016918E0,6.0029435E0,2.2337892E0,1.1404694E0,1.9555919E0,1.3430772E0,1.6586148E0,3.704486E0,2.2984579E0,1.1846405E0,1.0491487E0],"tree_param":{"num_deleted":"0","num_feature":"4","num_nodes":"27","size_leaf_vector":"1"}},{"base_weights":[6.8857553E-3,4.627655E-2,-8.450118E-2,-1.0417003E-1,1.358584E-1,4.7017414E-2,-1.23706125E-1,1.3431072E-1,7.541504E-2,2.2713828E-1,-2.3737049E-1,-1.0896374E-1,1.6165937E-1,-2.2526301E-2,1.3895686E-1,-1.8349686E-1,7.483976E-2,2.5947687E-1,-1.0705651E-1,1.9793704E-1,3.554372E-2,-6.901897E-2,2.3061397E-2],"categories":[],"categories_nodes":[],"categories_segments":[],"categories_sizes":[],"default_left":[0,0,0,0,0,0,0,0,0,0,0,0,0,0,0,0,0,0,0,0,0,0,0],"id":17,"left_children":[1,3,-1,5,7,9,-1,-1,11,13,15,-1,17,-1,-1,-1,-1,19,21,-1,-1,-1,-1],"loss_changes":[2.776029E-1,3.0174837E-1,0E0,4.168365E-1,2.2652453E-1,3.930384E-1,0E0,0E0,5.4178506E-1,3.6039492E-1,7.0946413E-1,0E0,3.2646927E-1,0E0,0E0,0E0,0E0,4.0853727E-1,1.0231209E-1,0E0,0E0,0E0,0E0],"parents":[2147483647,0,0,1,1,3,3,4,4,5,5,8,8,9,9,10,10,12,12,17,17,18,18],"right_children":[2,4,-1,6,8,10,-1,-1,12,14,16,-1,18,-1,-1,-1,-1,20,22,-1,-1,-1,-1],"split_conditions":[6.535637E1,-6.100006E-1,-8.450118E-2,-8.600006E-1,1.8252198E-1,4.7693188E1,-1.23706125E-1,1.3431072E-1,4.447468E1,3.948252E1,-1.2099991E0,-1.0896374E-1,1.16542E2,-2.2526301E-2,1.3895686E-1,-1.8349686E-1,7.483976E-2,4.3482587E-1,2.2999573E-1,1.9793704E-1,3.554372E-2,-6.901897E-2,2.3061397E-2],"split_indices":[1,3,0,3,2,1,0,0,1,1,3,0,0,0,0,0,0,2,3,0,0,0,0],"split_type":[0,0,0,0,0,0,0,0,0,0,0,0,0,0,0,0,0,0,0,0,0,0,0],"sum_hessian":[2.2276209E1,2.0339317E1,1.9368911E0,7.530131E0,1.2809187E1,5.620357E0,1.9097737E0,1.0394423E0,1.1769745E1,3.5642195E0,2.0561376E0,1.4062587E0,1.0363485E1,1.8620554E0,1.7021639E0,1.0174896E0,1.038648E0,7.622968E0,2.7405176E0,1.0271903E0,6.5957775E0,1.4919211E0,1.2485967E0],"tree_param":{"num_deleted":"0","num_feature":"4","num_nodes":"23","size_leaf_vector":"1"}},{"base_weights":[5.278384E-3,1.9091433E-1,-6.346449E-2,-5.0485305E-2,1.5685754E-1,-1.8101342E-1,2.7187057E-2,8.7576926E-2,-1.1177728E-1,-6.0165323E-2,1.8808417E-1,4.7196038E-2,-4.6613365E-1,1.571813E-1,-8.474484E-2,-1.8780579E-1,-2.55076E-2,-7.8055814E-2,3.8537126E-2],"categories":[],"categories_nodes":[],"categories_segments":[],"categories_sizes":[],"default_left":[0,0,0,0,0,0,0,0,0,0,0,0,0,0,0,0,0,0,0],"id":18,"left_children":[1,3,5,7,-1,-1,9,-1,-1,11,-1,13,15,-1,17,-1,-1,-1,-1],"loss_changes":[3.0252615E-1,5.3918755E-1,8.659717E-1,6.1797893E-1,0E0,0E0,8.6650723E-1,0E0,0E0,6.6360754E-1,0E0,8.338173E-1,1.3997751E-1,0E0,4.332898E-1,0E0,0E0,0E0,0E0],"parents":[2147483647,0,0,1,1,2,2,3,3,6,6,9,9,11,11,12,12,14,14],"right_children":[2,4,6,8,-1,-1,10,-1,-1,12,-1,14,16,-1,18,-1,-1,-1,-1],"split_conditions":[1.133725E2,1.121495E2,1.139495E2,1.098545E2,1.5685754E-1,-1.8101342E-1,1.4900055E0,8.7576926E-2,-1.1177728E-1,8.10287E-1,1.8808417E-1,1.157035E2,8.932638E-1,1.571813E-1,1.176095E2,-1.8780579E-1,-2.55076E-2,-7.8055814E-2,3.8537126E-2],"split_indices":[0,0,0,0,0,0,3,0,0,2,0,0,2,0,0,0,0,0,0],"split_type":[0,0,0,0,0,0,0,0,0,0,0,0,0,0,0,0,0,0,0],"sum_hessian":[2.1757345E1,5.3993917E0,1.6357952E1,3.6169488E0,1.7824427E0,1.5385362E0,1.4819416E1,1.798641E0,1.8183079E0,1.37207365E1,1.0986794E0,1.1549998E1,2.170739E0,1.8596233E0,9.690374E0,1.0764921E0,1.0942467E0,5.195055E0,4.49532E0],"tree_param":{"num_deleted":"0","num_feature":"4","num_nodes":"19","size_leaf_vector":"1"}},{"base_weights":[5.929813E-3,9.781208E-2,-2.7568271E-2,4.991373E-2,-1.2688635E-1,-1.6661413E-2,3.57203E-1,-2.0865402E-1,1.1773726E-1,1.3794425E-1,2.8629353E-2,-1.3430858E-1,-6.7884184E-2,1.5357555E-1,7.55881E-3,7.060549E-2,-9.512503E-2,3.6147255E-2,-7.7413514E-2],"categories":[],"categories_nodes":[],"categories_segments":[],"categories_sizes":[],"default_left":[0,0,0,0,0,0,0,0,0,0,0,0,0,0,0,0,0,0,0],"id":19,"left_children":[1,-1,3,5,-1,7,9,11,13,-1,-1,-1,15,-1,17,-1,-1,-1,-1],"loss_changes":[2.4560708E-1,0E0,6.613262E-1,3.8172385E-1,0E0,4.387833E-1,4.517436E-2,2.0417365E-1,4.339917E-1,0E0,0E0,0E0,4.952211E-1,0E0,2.978843E-1,0E0,0E0,0E0,0E0],"parents":[2147483647,0,0,2,2,3,3,5,5,6,6,7,7,8,8,12,12,14,14],"right_children":[2,-1,4,6,-1,8,10,12,14,-1,-1,-1,16,-1,18,-1,-1,-1,-1],"split_conditions":[3.3077263E1,9.781208E-2,1.191965E2,1.176095E2,-1.2688635E-1,-3.4999847E-1,1.18478E2,1.125755E2,-1.800003E-1,1.3794425E-1,2.8629353E-2,-1.3430858E-1,1.15639E2,1.5357555E-1,1.162345E2,7.060549E-2,-9.512503E-2,3.6147255E-2,-7.7413514E-2],"split_indices":[1,0,0,0,0,3,0,0,3,0,0,0,0,0,0,0,0,0,0],"split_type":[0,0,0,0,0,0,0,0,0,0,0,0,0,0,0,0,0,0,0],"sum_hessian":[2.1066288E1,1.168349E0,1.989794E1,1.7368145E1,2.5297954E0,1.505271E1,2.3154354E0,5.9707747E0,9.081934E0,1.1199025E0,1.1955328E0,1.4048551E0,4.5659194E0,1.1874331E0,7.894501E0,2.084718E0,2.4812014E0,5.9226165E0,1.9718846E0],"tree_param":{"num_deleted":"0","num_feature":"4","num_nodes":"19","size_leaf_vector":"1"}},{"base_weights":[8.150927E-3,-6.2871635E-2,1.3946514E-1,1.6281622E-3,-1.3765508E-1,3.244683E-1,-6.89474E-2,-1.0379549E-1,1.314553E-1,1.2682037E-1,2.2426274E-2,-9.779879E-2,5.8887154E-2,1.0161245E-1,-2.561057E-1,7.922285E-3,8.427629E-2,-7.330993E-2,9.881094E-2,-1.2631327E-1,2.6600037E-3,-2.1205331E-1,1.0061005E-1,4.2158864E-2,-1.3581675E-1],"categories":[],"categories_nodes":[],"categories_segments":[],"categories_sizes":[],"default_left":[0,0,0,0,0,0,0,0,0,0,0,0,0,0,0,0,0,0,0,0,0,0,0,0,0],"id":20,"left_children":[1,3,5,7,-1,9,11,13,15,-1,-1,-1,-1,17,19,21,-1,-1,-1,-1,-1,23,-1,-1,-1],"loss_changes":[2.0996153E-1,3.7593052E-1,3.2631618E-1,2.0017679E-1,0E0,7.517266E-2,3.729581E-1,2.7881062E-1,1.1868799E-1,0E0,0E0,0E0,0E0,4.0799582E-1,2.1891958E-1,4.0348762E-1,0E0,0E0,0E0,0E0,0E0,3.4981912E-1,0E0,0E0,0E0],"parents":[2147483647,0,0,1,1,2,2,3,3,5,5,6,6,7,7,8,8,13,13,14,14,15,15,21,21],"right_children":[2,4,6,8,-1,10,12,14,16,-1,-1,-1,-1,18,20,22,-1,-1,-1,-1,-1,24,-1,-1,-1],"split_conditions":[2.2999573E-1,6.9999695E-2,9.300003E-1,-6.100006E-1,-1.3765508E-1,6.0809185E1,1.3799973E0,-1.3700027E0,5.965288E-1,1.2682037E-1,2.2426274E-2,-9.779879E-2,5.8887154E-2,-2.0199966E0,5.125886E1,1.16267E2,8.427629E-2,-7.330993E-2,9.881094E-2,-1.2631327E-1,2.6600037E-3,3.1047738E-1,1.0061005E-1,4.2158864E-2,-1.3581675E-1],"split_indices":[3,3,3,3,0,1,3,3,2,0,0,0,0,3,1,0,0,0,0,0,0,2,0,0,0],"split_type":[0,0,0,0,0,0,0,0,0,0,0,0,0,0,0,0,0,0,0,0,0,0,0,0,0],"sum_hessian":[2.057273E1,1.3689723E1,6.883006E0,1.2628579E1,1.0611439E0,3.3512871E0,3.5317192E0,7.0799503E0,5.548629E0,1.9077033E0,1.4435838E0,1.677217E0,1.8545021E0,3.1562457E0,3.9237046E0,3.6143672E0,1.9342616E0,1.2239928E0,1.9322528E0,2.0553129E0,1.8683918E0,2.3727589E0,1.2416083E0,1.1313734E0,1.2413856E0],"tree_param":{"num_deleted":"0","num_feature":"4","num_nodes":"25","size_leaf_vector":"1"}},{"base_weights":[3.7634356E-3,1.952716E-1,-4.2029705E-2,-4.448215E-2,1.1665033E-1,1.0392348E-1,-9.107124E-2,-1.3170543E-1,-3.5302497E-2,-2.4559923E-1,1.0019028E-1,4.053725E-2,-3.9749727E-1,-2.8638083E-2,1.8182135E-1,-1.1169278E-1,1.2858692E-1,-1.8757012E-2,-1.4976633E-1,5.8985103E-2,-7.677054E-2],"categories":[],"categories_nodes":[],"categories_segments":[],"categories_sizes":[],"default_left":[0,0,0,0,0,0,0,0,0,0,0,0,0,0,0,0,0,0,0,0,0],"id":21,"left_children":[1,3,5,-1,-1,-1,7,-1,9,11,13,15,17,19,-1,-1,-1,-1,-1,-1,-1],"loss_changes":[1.9348398E-1,3.4053802E-1,3.7201935E-1,0E0,0E0,0E0,3.078016E-1,0E0,4.6474716E-1,2.9177743E-1,6.758874E-1,6.573556E-1,1.1311388E-1,5.1147914E-1,0E0,0E0,0E0,0E0,0E0,0E0,0E0],"parents":[2147483647,0,0,1,1,2,2,6,6,8,8,9,9,10,10,11,11,12,12,13,13],"right_children":[2,4,6,-1,-1,-1,8,-1,10,12,14,16,18,20,-1,-1,-1,-1,-1,-1,-1],"split_conditions":[1.905929E-1,-3.269942E-3,1.098545E2,-4.448215E-2,1.1665033E-1,1.0392348E-1,2.4967386E-1,-1.3170543E-1,1.14999E2,6.28217E-1,1.2000046E0,4.843669E1,-1.6999817E-1,1.16542E2,1.8182135E-1,-1.1169278E-1,1.2858692E-1,-1.8757012E-2,-1.4976633E-1,5.8985103E-2,-7.677054E-2],"split_indices":[2,2,0,0,0,0,2,0,0,2,3,1,3,0,0,0,0,0,0,0,0],"split_type":[0,0,0,0,0,0,0,0,0,0,0,0,0,0,0,0,0,0,0,0,0],"sum_hessian":[2.012678E1,3.2540483E0,1.687273E1,1.2570125E0,1.997036E0,1.2116923E0,1.5661038E1,1.2140901E0,1.4446948E1,5.342414E0,9.104534E0,2.106827E0,3.2355866E0,8.008474E0,1.0960602E0,1.0405451E0,1.066282E0,1.1298053E0,2.1057813E0,4.089735E0,3.9187388E0],"tree_param":{"num_deleted":"0","num_feature":"4","num_nodes":"21","size_leaf_vector":"1"}},{"base_weights":[5.6329207E-3,8.5381955E-2,-2.5632689E-2,-1.1801983E-1,3.4437444E-2,1.5832582E-1,-2.7582828E-2,5.346473E-2,-2.62122E-1,1.0697613E-1,-8.928758E-2,-1.6858673E-1,2.2031989E-2,-6.2936214E-3,1.1919429E-1],"categories":[],"categories_nodes":[],"categories_segments":[],"categories_sizes":[],"default_left":[0,0,0,0,0,0,0,0,0,0,0,0,0,0,0],"id":22,"left_children":[1,-1,3,-1,5,-1,7,9,11,13,-1,-1,-1,-1,-1],"loss_changes":[1.8708253E-1,0E0,4.4328833E-1,0E0,5.5428666E-1,0E0,3.2995975E-1,2.7951288E-1,4.8778364E-1,4.6064216E-1,0E0,0E0,0E0,0E0,0E0],"parents":[2147483647,0,0,2,2,4,4,6,6,7,7,8,8,9,9],"right_children":[2,-1,4,-1,6,-1,8,10,12,14,-1,-1,-1,-1,-1],"split_conditions":[3.3077263E1,8.5381955E-2,3.948252E1,-1.1801983E-1,1.1021E2,1.5832582E-1,8.185508E-1,6.05704E1,9.3202007E-1,6.154854E-1,-8.928758E-2,-1.6858673E-1,2.2031989E-2,-6.2936214E-3,1.1919429E-1],"split_indices":[1,0,1,0,0,0,2,1,2,2,0,0,0,0,0],"split_type":[0,0,0,0,0,0,0,0,0,0,0,0,0,0,0],"sum_hessian":[1.9612423E1,1.1599226E0,1.84525E1,1.8117067E0,1.6640793E1,1.0198052E0,1.5620988E1,1.2183047E1,3.4379408E0,1.11750965E1,1.0079504E0,1.4593241E0,1.9786167E0,8.400609E0,2.7744873E0],"tree_param":{"num_deleted":"0","num_feature":"4","num_nodes":"15","size_leaf_vector":"1"}},{"base_weights":[3.774154E-3,7.623161E-2,-1.0978017E-1,4.908224E-3,1.2025169E-1,-3.0075005E-1,1.2991904E-1,7.237323E-2,-9.78689E-2,-5.4440856E-2,-1.5271817E-1,1.4478551E-1,-1.3718215E-1,-9.544935E-3,1.1666766E-1,-7.087791E-2,4.545137E-2,-8.9585155E-2,2.7211843E-2,1.661625E-1,-1.2989132E-1,-4.1304976E-2,1.02209345E-1,-5.415411E-4,-1.1550498E-1],"categories":[],"categories_nodes":[],"categories_segments":[],"categories_sizes":[],"default_left":[0,0,0,0,0,0,0,0,0,0,0,0,0,0,0,0,0,0,0,0,0,0,0,0,0],"id":23,"left_children":[1,3,5,7,-1,9,11,13,-1,15,-1,-1,17,19,-1,-1,-1,-1,-1,21,23,-1,-1,-1,-1],"loss_changes":[1.7526257E-1,2.983829E-1,4.195155E-1,2.8383726E-1,0E0,2.2510523E-1,4.7917742E-1,2.7584004E-1,0E0,1.6226503E-1,0E0,0E0,1.4750516E-1,2.18524E-1,0E0,0E0,0E0,0E0,0E0,2.7095157E-1,1.98275E-1,0E0,0E0,0E0,0E0],"parents":[2147483647,0,0,1,1,2,2,3,3,5,5,6,6,7,7,9,9,12,12,13,13,19,19,20,20],"right_children":[2,4,6,8,-1,10,12,14,-1,16,-1,-1,18,20,-1,-1,-1,-1,-1,22,24,-1,-1,-1,-1],"split_conditions":[5.551019E1,5.910489E-1,4.4999695E-1,5.016806E-1,1.2025169E-1,1.14334E2,9.300003E-1,4.4989657E-1,-9.78689E-2,1.118145E2,-1.5271817E-1,1.4478551E-1,1.3799973E0,1.905929E-1,1.1666766E-1,-7.087791E-2,4.545137E-2,-8.9585155E-2,2.7211843E-2,-3.269942E-3,1.17984E2,-4.1304976E-2,1.02209345E-1,-5.415411E-4,-1.1550498E-1],"split_indices":[1,2,3,2,0,0,3,2,0,0,0,0,3,2,0,0,0,0,0,2,0,0,0,0,0],"split_type":[0,0,0,0,0,0,0,0,0,0,0,0,0,0,0,0,0,0,0,0,0,0,0,0,0],"sum_hessian":[1.9284E1,1.1972921E1,7.3110795E0,1.0648362E1,1.324559E0,3.9273984E0,3.3836808E0,9.495267E0,1.1530956E0,2.377525E0,1.5498734E0,1.1104668E0,2.2732139E0,8.313498E0,1.1817694E0,1.1845498E0,1.1929753E0,1.148942E0,1.124272E0,3.2246945E0,5.088803E0,1.2535509E0,1.9711436E0,4.058367E0,1.0304359E0],"tree_param":{"num_deleted":"0","num_feature":"4","num_nodes":"25","size_leaf_vector":"1"}},{"base_weights":[1.8249125E-3,-1.0728153E-1,7.2543636E-2,1.08548194E-1,-4.1718993E-1,1.8553053E-1,-3.2419216E-2,-7.114939E-2,1.2135778E-1,-1.692004E-1,-2.6658317E-2,1.4512555E-1,-1.7953351E-1,-1.1206933E-1,1.5390512E-1,-1.1244845E-1,1.8292375E-1,-3.0654123E-1,8.2760915E-2,1.1443206E-1,-5.1791865E-2,5.5999313E-2,-1.01909E-1,-4.5895457E-1,6.0705305E-3,-3.9626837E-2,-1.8838972E-1],"categories":[],"categories_nodes":[],"categories_segments":[],"categories_sizes":[],"default_left":[0,0,0,0,0,0,0,0,0,0,0,0,0,0,0,0,0,0,0,0,0,0,0,0,0,0,0],"id":24,"left_children":[1,3,5,7,9,-1,11,13,-1,-1,-1,15,17,-1,19,21,-1,23,-1,-1,-1,-1,-1,25,-1,-1,-1],"loss_changes":[1.6101871E-1,5.9467053E-1,7.4466044E-1,3.2849902E-1,1.2236798E-1,0E0,3.2791704E-1,3.5401702E-1,0E0,0E0,0E0,7.614634E-1,4.759751E-1,0E0,3.0406708E-1,3.7398988E-1,0E0,2.9641747E-1,0E0,0E0,0E0,0E0,0E0,1.3657165E-1,0E0,0E0,0E0],"parents":[2147483647,0,0,1,1,2,2,3,3,4,4,6,6,7,7,11,11,12,12,14,14,15,15,17,17,23,23],"right_children":[2,4,6,8,10,-1,12,14,-1,-1,-1,16,18,-1,20,22,-1,24,-1,-1,-1,-1,-1,26,-1,-1,-1],"split_conditions":[1.14999E2,1.133725E2,1.155745E2,1.124755E2,6.047431E1,1.8553053E-1,4.770113E1,-3.4999847E-1,1.2135778E-1,-1.692004E-1,-2.6658317E-2,3.4033138E-1,1.0699997E0,-1.1206933E-1,6.0431908E1,1.905929E-1,1.8292375E-1,1.18982E2,8.2760915E-2,1.1443206E-1,-5.1791865E-2,5.5999313E-2,-1.01909E-1,5.2296547E1,6.0705305E-3,-3.9626837E-2,-1.8838972E-1],"split_indices":[0,0,0,0,1,0,1,3,0,0,0,2,3,0,1,2,0,0,0,0,0,0,0,1,0,0,0],"split_type":[0,0,0,0,0,0,0,0,0,0,0,0,0,0,0,0,0,0,0,0,0,0,0,0,0,0,0],"sum_hessian":[1.8859869E1,7.213579E0,1.164629E1,4.6352143E0,2.5783646E0,1.0892693E0,1.0557021E1,3.3568037E0,1.2784108E0,1.2856817E0,1.292683E0,4.7898784E0,5.767143E0,1.1506898E0,2.2061138E0,3.5691867E0,1.2206914E0,4.7650847E0,1.0020583E0,1.2010891E0,1.0050247E0,1.6180437E0,1.9511431E0,2.973642E0,1.7914424E0,1.6207253E0,1.3529168E0],"tree_param":{"num_deleted":"0","num_feature":"4","num_nodes":"27","size_leaf_vector":"1"}},{"base_weights":[4.324951E-3,3.5915293E-2,-7.563606E-2,-4.2937E-2,2.1079196E-1,3.0088386E-2,-2.654608E-1,1.0015441E-1,6.352404E-2,-5.869898E-2,1.2181747E-1,1.6284166E-2,-1.5088937E-1,-4.8371952E-2,9.714896E-2,2.4645178E-2,-1.1221435E-1,3.9808933E-2,-8.403899E-2],"categories":[],"categories_nodes":[],"categories_segments":[],"categories_sizes":[],"default_left":[0,0,0,0,0,0,0,0,0,0,0,0,0,0,0,0,0,0,0],"id":25,"left_children":[1,3,-1,5,7,9,11,-1,13,15,-1,-1,-1,-1,-1,17,-1,-1,-1],"loss_changes":[1.6450185E-1,2.5669506E-1,0E0,2.2262537E-1,8.3002746E-2,3.8579467E-1,2.8287137E-1,0E0,2.776241E-1,2.6272297E-1,0E0,0E0,0E0,0E0,0E0,3.1930354E-1,0E0,0E0,0E0],"parents":[2147483647,0,0,1,1,3,3,4,4,5,5,6,6,8,8,9,9,15,15],"right_children":[2,4,-1,6,8,10,12,-1,14,16,-1,-1,-1,-1,-1,18,-1,-1,-1],"split_conditions":[9.5985985E-1,2.2999573E-1,-7.563606E-2,6.6223E-1,5.4528027E1,5.459829E1,1.14334E2,1.0015441E-1,8.54294E-1,-2.0999908E-1,1.2181747E-1,1.6284166E-2,-1.5088937E-1,-4.8371952E-2,9.714896E-2,4.7693188E1,-1.1221435E-1,3.9808933E-2,-8.403899E-2],"split_indices":[2,3,0,2,1,1,0,0,2,3,0,0,0,0,0,1,0,0,0],"split_type":[0,0,0,0,0,0,0,0,0,0,0,0,0,0,0,0,0,0,0],"sum_hessian":[1.8188156E1,1.6959002E1,1.2291548E0,1.2208591E1,4.7504096E0,9.843159E0,2.3654325E0,1.8977333E0,2.852676E0,8.645378E0,1.1977808E0,1.3369741E0,1.0284584E0,1.7350789E0,1.1175971E0,7.5672603E0,1.0781178E0,6.0034714E0,1.5637889E0],"tree_param":{"num_deleted":"0","num_feature":"4","num_nodes":"19","size_leaf_vector":"1"}},{"base_weights":[-2.2709856E-3,-5.612266E-2,1.4228237E-1,-3.1146684E-1,3.24201E-2,1.0530304E-1,-7.515311E-2,7.0331385E-3,-1.6813162E-1,1.0806626E-1,-1.5889283E-1,-5.5806905E-2,2.482648E-2,2.6131174E-1,-1.12752296E-1,-8.329779E-2,2.0552684E-2,-4.0778313E-2,4.146268E-1,-1.1136821E-1,7.5165495E-2,1.5684807E-1,5.1559843E-2,7.919743E-2,-3.809587E-2],"categories":[],"categories_nodes":[],"categories_segments":[],"categories_sizes":[],"default_left":[0,0,0,0,0,0,0,0,0,0,0,0,0,0,0,0,0,0,0,0,0,0,0,0,0],"id":26,"left_children":[1,3,5,7,9,-1,11,-1,-1,13,15,-1,-1,17,19,-1,-1,-1,21,-1,23,-1,-1,-1,-1],"loss_changes":[1.5501848E-1,3.3744177E-1,2.7189004E-1,3.3184344E-1,1.8586338E-1,0E0,7.619965E-2,0E0,0E0,3.3227944E-1,1.1916103E-1,0E0,0E0,3.9644E-1,2.3990184E-1,0E0,0E0,0E0,2.245748E-2,0E0,1.6173598E-1,0E0,0E0,0E0,0E0],"parents":[2147483647,0,0,1,1,2,2,3,3,4,4,6,6,9,9,10,10,13,13,14,14,18,18,20,20],"right_children":[2,4,6,8,10,-1,12,-1,-1,14,16,-1,-1,18,20,-1,-1,-1,22,-1,24,-1,-1,-1,-1],"split_conditions":[1.176095E2,-9.700012E-1,1.191965E2,-1.5999985E0,1.16202E2,1.0530304E-1,1.200755E2,7.0331385E-3,-1.6813162E-1,6.0431908E1,5.1816936E1,-5.5806905E-2,2.482648E-2,4.1249424E1,6.240167E1,-8.329779E-2,2.0552684E-2,-4.0778313E-2,5.237396E-1,-1.1136821E-1,6.487086E1,1.5684807E-1,5.1559843E-2,7.919743E-2,-3.809587E-2],"split_indices":[0,3,0,3,0,0,0,0,0,1,1,0,0,1,1,0,0,0,2,0,1,0,0,0,0],"split_type":[0,0,0,0,0,0,0,0,0,0,0,0,0,0,0,0,0,0,0,0,0,0,0,0,0],"sum_hessian":[1.788809E1,1.34785595E1,4.40953E0,2.8221626E0,1.0656397E1,1.9363792E0,2.473151E0,1.5896472E0,1.2325153E0,7.948608E0,2.7077892E0,1.3483825E0,1.1247685E0,4.583993E0,3.364615E0,1.6335945E0,1.0741947E0,1.3081039E0,3.2758892E0,1.0057542E0,2.3588607E0,1.4679443E0,1.807945E0,1.0614624E0,1.2973984E0],"tree_param":{"num_deleted":"0","num_feature":"4","num_nodes":"25","size_leaf_vector":"1"}},{"base_weights":[-4.4506732E-3,-6.2272143E-2,1.0858046E-1,4.9626306E-3,-9.0083845E-2,2.5905687E-1,-6.7032576E-2,-7.757555E-2,2.1544912E-1,1.05871595E-1,7.3055984E-3,-7.407165E-2,3.8810864E-2,-1.6887784E-1,5.908588E-2,1.0210639E-2,8.657124E-2,2.0711545E-2,-1.2092343E-1,-8.885952E-2,7.7619806E-2],"categories":[],"categories_nodes":[],"categories_segments":[],"categories_sizes":[],"default_left":[0,0,0,0,0,0,0,0,0,0,0,0,0,0,0,0,0,0,0,0,0],"id":27,"left_children":[1,3,5,7,-1,9,11,13,15,-1,-1,-1,-1,17,-1,-1,-1,19,-1,-1,-1],"loss_changes":[1.2744242E-1,2.0714441E-1,1.9213367E-1,2.0789611E-1,0E0,7.438651E-2,1.6782294E-1,2.4982397E-1,3.4808576E-2,0E0,0E0,0E0,0E0,3.2014114E-1,0E0,0E0,0E0,4.411014E-1,0E0,0E0,0E0],"parents":[2147483647,0,0,1,1,2,2,3,3,5,5,6,6,7,7,8,8,13,13,17,17],"right_children":[2,4,6,8,-1,10,12,14,16,-1,-1,-1,-1,18,-1,-1,-1,20,-1,-1,-1],"split_conditions":[2.2999573E-1,-1.6999817E-1,9.300003E-1,-5E-1,-9.0083845E-2,1.16081E2,1.3799973E0,1.18982E2,4.547298E1,1.05871595E-1,7.3055984E-3,-7.407165E-2,3.8810864E-2,4.7693188E1,5.908588E-2,1.0210639E-2,8.657124E-2,3.948252E1,-1.2092343E-1,-8.885952E-2,7.7619806E-2],"split_indices":[3,3,3,3,0,0,3,0,1,0,0,0,0,1,0,0,0,1,0,0,0],"split_type":[0,0,0,0,0,0,0,0,0,0,0,0,0,0,0,0,0,0,0,0,0],"sum_hessian":[1.7465084E1,1.1851486E1,5.613598E0,1.0004469E1,1.8470167E0,2.7672687E0,2.8463292E0,7.6400275E0,2.3644414E0,1.617062E0,1.1502066E0,1.3514628E0,1.4948665E0,6.0220623E0,1.6179652E0,1.1002363E0,1.2642051E0,3.8317528E0,2.1903095E0,1.5386791E0,2.2930737E0],"tree_param":{"num_deleted":"0","num_feature":"4","num_nodes":"21","size_leaf_vector":"1"}},{"base_weights":[-2.878158E-3,-5.894487E-2,3.3572797E-2,9.284031E-2,-1.4925697E-1,-1.3627161E-1,1.5079527E-1,-1.2308424E-1,8.341818E-2,3.0325823E-2,-8.978407E-2,4.170228E-1,-1.26640415E-2,8.355364E-2,-4.441183E-2,3.47495E-2,1.6057402E-1,-1.2890176E-1,6.645474E-2,-1.1807015E-1,2.196464E-2],"categories":[],"categories_nodes":[],"categories_segments":[],"categories_sizes":[],"default_left":[0,0,0,0,0,0,0,0,0,0,0,0,0,0,0,0,0,0,0,0,0],"id":28,"left_children":[1,-1,3,5,7,9,11,-1,13,-1,-1,15,17,-1,-1,-1,-1,19,-1,-1,-1],"loss_changes":[1.3454723E-1,0E0,1.8844654E-1,1.9030121E-1,2.9707366E-1,1.5043905E-1,4.6996063E-1,0E0,1.8208273E-1,0E0,0E0,8.369362E-2,2.3506153E-1,0E0,0E0,0E0,0E0,3.3383983E-1,0E0,0E0,0E0],"parents":[2147483647,0,0,2,2,3,3,4,4,5,5,6,6,8,8,11,11,12,12,17,17],"right_children":[2,-1,4,6,8,10,12,-1,14,-1,-1,16,18,-1,-1,-1,-1,20,-1,-1,-1],"split_conditions":[-1.6500015E0,-5.894487E-2,8.187431E-1,1.118145E2,6.3214912E1,1.097875E2,1.157035E2,-1.2308424E-1,6.556675E1,3.0325823E-2,-8.978407E-2,-8.0999756E-1,1.18982E2,8.355364E-2,-4.441183E-2,3.47495E-2,1.6057402E-1,-5.699997E-1,6.645474E-2,-1.1807015E-1,2.196464E-2],"split_indices":[3,0,2,0,1,0,0,0,1,0,0,3,0,0,0,0,0,3,0,0,0],"split_type":[0,0,0,0,0,0,0,0,0,0,0,0,0,0,0,0,0,0,0,0,0],"sum_hessian":[1.7130842E1,2.0186572E0,1.5112185E1,1.1784299E1,3.3278856E0,2.1062753E0,9.678023E0,1.208653E0,2.1192327E0,1.012232E0,1.0940434E0,3.0915527E0,6.5864706E0,1.0396353E0,1.0795975E0,1.4294935E0,1.6620592E0,4.702095E0,1.8843756E0,1.6258628E0,3.076232E0],"tree_param":{"num_deleted":"0","num_feature":"4","num_nodes":"21","size_leaf_vector":"1"}},{"base_weights":[-3.906652E-3,6.419476E-2,-3.1428892E-2,-1.0344442E-1,2.3577789E-2,1.04198076E-1,-2.8537333E-2,-1.05735235E-1,2.4471136E-2,8.504104E-2,-6.861688E-2,1.293399E-1,-6.7587127E-3],"categories":[],"categories_nodes":[],"categories_segments":[],"categories_sizes":[],"default_left":[0,0,0,0,0,0,0,0,0,0,0,0,0],"id":29,"left_children":[1,-1,3,-1,5,-1,7,-1,9,11,-1,-1,-1],"loss_changes":[1.1307189E-1,0E0,2.9457948E-1,0E0,2.642074E-1,0E0,2.473956E-1,0E0,2.1706259E-1,4.23963E-1,0E0,0E0,0E0],"parents":[2147483647,0,0,2,2,4,4,6,6,8,8,9,9],"right_children":[2,-1,4,-1,6,-1,8,-1,10,12,-1,-1,-1],"split_conditions":[3.3077263E1,6.419476E-2,3.948252E1,-1.0344442E-1,4.2316097E1,1.04198076E-1,4.455489E1,-1.05735235E-1,1.191965E2,4.2441294E-1,-6.861688E-2,1.293399E-1,-6.7587127E-3],"split_indices":[1,0,1,0,1,0,1,0,0,2,0,0,0],"split_type":[0,0,0,0,0,0,0,0,0,0,0,0,0],"sum_hessian":[1.6733904E1,1.1168765E0,1.5617027E1,1.5451802E0,1.4071847E1,1.1656982E0,1.2906149E1,1.020617E0,1.1885531E1,1.0127036E1,1.7584955E0,1.6880479E0,8.438989E0],"tree_param":{"num_deleted":"0","num_feature":"4","num_nodes":"13","size_leaf_vector":"1"}},{"base_weights":[-2.0185593E-3,-5.7496663E-2,1.1028989E-1,2.2143664E-2,-1.06978066E-1,8.586176E-2,-3.4090333E-2,-9.927432E-2,2.1631116E-1,-7.281857E-2,4.8645694E-2,1.0290508E-1,-3.850404E-1,1.6494915E-1,-5.3718682E-2,-4.521772E-2,9.811598E-2,-1.5089145E-1,-2.585979E-2,-1.2741096E-1,9.394803E-2,5.8250166E-2,-7.158043E-2],"categories":[],"categories_nodes":[],"categories_segments":[],"categories_sizes":[],"default_left":[0,0,0,0,0,0,0,0,0,0,0,0,0,0,0,0,0,0,0,0,0,0,0],"id":30,"left_children":[1,3,5,7,-1,-1,9,11,13,-1,-1,15,17,-1,19,21,-1,-1,-1,-1,-1,-1,-1],"loss_changes":[1.1543067E-1,3.027109E-1,1.6549718E-1,2.741004E-1,0E0,0E0,2.1383369E-1,4.6013704E-1,4.2916036E-1,0E0,0E0,1.8251197E-1,7.036063E-2,0E0,5.907304E-1,2.2780736E-1,0E0,0E0,0E0,0E0,0E0,0E0,0E0],"parents":[2147483647,0,0,1,1,2,2,3,3,6,6,7,7,8,8,11,11,12,12,14,14,15,15],"right_children":[2,4,6,8,-1,-1,10,12,14,-1,-1,16,18,-1,20,22,-1,-1,-1,-1,-1,-1,-1],"split_conditions":[1.16408E2,1.162345E2,1.18478E2,1.14999E2,-1.06978066E-1,8.586176E-2,1.198855E2,1.133725E2,1.157035E2,-7.281857E-2,4.8645694E-2,1.124755E2,6.047431E1,1.6494915E-1,1.16041504E2,1.098545E2,9.811598E-2,-1.5089145E-1,-2.585979E-2,-1.2741096E-1,9.394803E-2,5.8250166E-2,-7.158043E-2],"split_indices":[0,0,0,0,0,0,0,0,0,0,0,0,1,0,0,0,0,0,0,0,0,0,0],"split_type":[0,0,0,0,0,0,0,0,0,0,0,0,0,0,0,0,0,0,0,0,0,0,0],"sum_hessian":[1.6508478E1,1.1376677E1,5.131802E0,9.715659E0,1.6610172E0,1.8704721E0,3.2613301E0,6.2783575E0,3.437302E0,1.4659277E0,1.7954023E0,4.0516872E0,2.22667E0,1.0742679E0,2.3630342E0,2.9202082E0,1.1314793E0,1.1068162E0,1.1198539E0,1.0965754E0,1.266459E0,1.3030916E0,1.6171166E0],"tree_param":{"num_deleted":"0","num_feature":"4","num_nodes":"23","size_leaf_vector":"1"}},{"base_weights":[-1.7949356E-3,-5.7859637E-2,1.0611822E-1,4.608033E-3,-7.170532E-2,8.7399945E-2,-2.2883166E-2,-7.743116E-2,1.0281924E-1,-6.408508E-2,1.270108E-1,-2.1518849E-1,4.8091847E-2,-4.0724248E-2,9.62984E-2,1.7536508E-2,-1.3618405E-1,-1.01420864E-1,6.5930076E-2,5.762418E-2,-9.514034E-2],"categories":[],"categories_nodes":[],"categories_segments":[],"categories_sizes":[],"default_left":[0,0,0,0,0,0,0,0,0,0,0,0,0,0,0,0,0,0,0,0,0],"id":31,"left_children":[1,3,5,7,-1,-1,9,11,-1,-1,13,15,17,-1,-1,-1,-1,19,-1,-1,-1],"loss_changes":[1.0952912E-1,1.3569115E-1,1.5469737E-1,2.990706E-1,0E0,0E0,1.5804906E-1,1.6116956E-1,0E0,0E0,2.0623326E-1,3.1015852E-1,1.6040786E-1,0E0,0E0,0E0,0E0,2.8633302E-1,0E0,0E0,0E0],"parents":[2147483647,0,0,1,1,2,2,3,3,6,6,7,7,10,10,11,11,12,12,17,17],"right_children":[2,4,6,8,-1,-1,10,12,-1,-1,14,16,18,-1,-1,-1,-1,20,-1,-1,-1],"split_conditions":[2.2999573E-1,6.6223E-1,5.4528027E1,5.459829E1,-7.170532E-2,8.7399945E-2,6.1130493E1,1.160415E2,1.0281924E-1,-6.408508E-2,9.3202007E-1,2.4093096E-1,3.4668195E-1,-4.0724248E-2,9.62984E-2,1.7536508E-2,-1.3618405E-1,4.2316097E1,6.5930076E-2,5.762418E-2,-9.514034E-2],"split_indices":[3,2,1,1,0,0,1,0,0,0,2,2,2,0,0,0,0,1,0,0,0],"split_type":[0,0,0,0,0,0,0,0,0,0,0,0,0,0,0,0,0,0,0,0,0],"sum_hessian":[1.6088781E1,1.0893207E1,5.1955748E0,8.824776E0,2.0684316E0,1.6164172E0,3.5791578E0,7.722139E0,1.1026363E0,1.387941E0,2.1912167E0,3.34108E0,4.381059E0,1.0581397E0,1.1330771E0,1.9086856E0,1.4323944E0,2.5604112E0,1.8206478E0,1.1310515E0,1.4293598E0],"tree_param":{"num_deleted":"0","num_feature":"4","num_nodes":"21","size_leaf_vector":"1"}},{"base_weights":[-3.518679E-4,2.9471125E-2,-6.0142767E-2,-5.4933656E-2,1.7528732E-1,3.4977913E-2,-1.1617861E-1,2.994019E-1,-1.847936E-2,-5.0524205E-2,9.445261E-2,1.0493788E-2,1.12729795E-1,8.50133E-2,-1.7899957E-1,-5.9394352E-2,7.273499E-2,-1.1303311E-1,6.4021577E-3],"categories":[],"categories_nodes":[],"categories_segments":[],"categories_sizes":[],"default_left":[0,0,0,0,0,0,0,0,0,0,0,0,0,0,0,0,0,0,0],"id":32,"left_children":[1,3,-1,5,7,9,-1,11,-1,13,-1,-1,-1,15,17,-1,-1,-1,-1],"loss_changes":[1.0620592E-1,2.003644E-1,0E0,3.2958916E-1,1.9250585E-1,2.3705696E-1,0E0,6.874636E-2,0E0,1.5349354E-1,0E0,0E0,0E0,2.5037342E-1,1.8232706E-1,0E0,0E0,0E0,0E0],"parents":[2147483647,0,0,1,1,3,3,4,4,5,5,7,7,9,9,13,13,14,14],"right_children":[2,4,-1,6,8,10,-1,12,-1,14,-1,-1,-1,16,18,-1,-1,-1,-1],"split_conditions":[6.535637E1,6.154854E-1,-6.0142767E-2,5.237396E-1,8.187431E-1,4.4989657E-1,-1.1617861E-1,-5.799942E-1,-1.847936E-2,2.4093096E-1,9.445261E-2,1.0493788E-2,1.12729795E-1,-3.269942E-3,4.455489E1,-5.9394352E-2,7.273499E-2,-1.1303311E-1,6.4021577E-3],"split_indices":[1,2,0,2,2,2,0,3,0,2,0,0,0,2,1,0,0,0,0],"split_type":[0,0,0,0,0,0,0,0,0,0,0,0,0,0,0,0,0,0,0],"sum_hessian":[1.5805073E1,1.4497373E1,1.3076999E0,9.577035E0,4.920338E0,8.241927E0,1.3351077E0,3.05551E0,1.8648279E0,6.94087E0,1.301057E0,1.0114082E0,2.0441017E0,3.5422244E0,3.3986454E0,1.1741483E0,2.368076E0,1.267083E0,2.1315625E0],"tree_param":{"num_deleted":"0","num_feature":"4","num_nodes":"19","size_leaf_vector":"1"}},{"base_weights":[-4.604032E-3,-5.8609597E-2,9.9047415E-2,4.864105E-2,-9.707778E-2,7.724029E-2,-3.0756287E-2,-1.02912016E-1,-2.1355197E-2,-5.73879E-2,5.919876E-2,1.0211137E-1,-1.7045431E-1,8.3653666E-2,-7.3076434E-2,1.661103E-2,-1.08780585E-1,-7.8172036E-2,5.032173E-2],"categories":[],"categories_nodes":[],"categories_segments":[],"categories_sizes":[],"default_left":[0,0,0,0,0,0,0,0,0,0,0,0,0,0,0,0,0,0,0],"id":33,"left_children":[1,3,5,-1,7,-1,9,-1,11,-1,-1,13,15,-1,17,-1,-1,-1,-1],"loss_changes":[9.85189E-2,1.13541976E-1,1.3223171E-1,0E0,1.869998E-1,0E0,1.9212306E-1,0E0,1.8389434E-1,0E0,0E0,1.929151E-1,2.1409774E-1,0E0,2.0584585E-1,0E0,0E0,0E0,0E0],"parents":[2147483647,0,0,1,1,2,2,4,4,6,6,8,8,11,11,12,12,14,14],"right_children":[2,4,6,-1,8,-1,10,-1,12,-1,-1,14,16,-1,18,-1,-1,-1,-1],"split_conditions":[2.2999573E-1,3.3077263E1,7.700043E-1,4.864105E-2,3.948252E1,7.724029E-2,1.16408E2,-1.02912016E-1,5.237396E-1,-5.73879E-2,5.919876E-2,1.16202E2,1.155745E2,8.3653666E-2,3.4668195E-1,1.661103E-2,-1.08780585E-1,-7.8172036E-2,5.032173E-2],"split_indices":[3,1,3,0,1,0,0,0,2,0,0,0,0,0,2,0,0,0,0],"split_type":[0,0,0,0,0,0,0,0,0,0,0,0,0,0,0,0,0,0,0],"sum_hessian":[1.5562669E1,1.0517356E1,5.0453124E0,1.0837156E0,9.4336405E0,1.8292595E0,3.216053E0,1.3896276E0,8.044013E0,1.9822016E0,1.2338514E0,4.5726337E0,3.4713795E0,1.981723E0,2.5909107E0,1.923083E0,1.5482967E0,1.4105906E0,1.1803201E0],"tree_param":{"num_deleted":"0","num_feature":"4","num_nodes":"19","size_leaf_vector":"1"}},{"base_weights":[-4.288657E-3,5.4917175E-2,-3.1418912E-2,-1.8097807E-1,5.308789E-2,1.6559816E-3,-1.0020348E-1,1.328873E-1,-3.913115E-2,-6.627481E-2,7.9847544E-2,-1.0651547E-1,6.985564E-2,1.16839055E-2,-1.4083296E-1,-5.211574E-2,5.5382468E-2],"categories":[],"categories_nodes":[],"categories_segments":[],"categories_sizes":[],"default_left":[0,0,0,0,0,0,0,0,0,0,0,0,0,0,0,0,0],"id":34,"left_children":[1,-1,3,5,7,9,-1,-1,11,-1,-1,13,-1,15,-1,-1,-1],"loss_changes":[8.862614E-2,0E0,2.0040382E-1,1.5922254E-1,3.919328E-1,2.697501E-1,0E0,0E0,1.960681E-1,0E0,0E0,3.5619345E-1,0E0,2.6106918E-1,0E0,0E0,0E0],"parents":[2147483647,0,0,2,2,3,3,4,4,5,5,8,8,11,11,13,13],"right_children":[2,-1,4,6,8,10,-1,-1,12,-1,-1,14,-1,16,-1,-1,-1],"split_conditions":[1.098545E2,5.4917175E-2,1.14999E2,1.133725E2,1.158555E2,1.124755E2,-1.0020348E-1,1.328873E-1,1.0699997E0,-6.627481E-2,7.9847544E-2,5.551019E1,6.985564E-2,3.4668195E-1,-1.4083296E-1,-5.211574E-2,5.5382468E-2],"split_indices":[0,0,0,0,0,0,0,0,3,0,0,1,0,2,0,0,0],"split_type":[0,0,0,0,0,0,0,0,0,0,0,0,0,0,0,0,0],"sum_hessian":[1.5305113E1,1.2090136E0,1.4096099E1,4.677079E0,9.41902E0,2.5832922E0,2.093787E0,1.0742304E0,8.3447895E0,1.4923254E0,1.0909667E0,7.175438E0,1.169352E0,6.1426787E0,1.0327592E0,2.9621623E0,3.1805165E0],"tree_param":{"num_deleted":"0","num_feature":"4","num_nodes":"17","size_leaf_vector":"1"}},{"base_weights":[-1.1642254E-3,-5.030855E-2,1.2514049E-1,-8.947437E-2,3.736749E-2,9.686679E-2,-7.5046495E-2,1.2731932E-1,-5.284827E-2,-3.635625E-2,1.4747764E-3,2.61187E-1,-6.587194E-2,2.9463498E-2,1.4314586E-1,-6.834619E-2,3.1532265E-2,6.903189E-2,-5.026543E-2],"categories":[],"categories_nodes":[],"categories_segments":[],"categories_sizes":[],"default_left":[0,0,0,0,0,0,0,0,0,0,0,0,0,0,0,0,0,0,0],"id":35,"left_children":[1,3,5,-1,7,-1,9,11,-1,-1,-1,13,15,17,-1,-1,-1,-1,-1],"loss_changes":[1.0548199E-1,2.7671543E-1,2.1276957E-1,0E0,2.1284704E-1,0E0,1.2321666E-2,2.1261494E-1,0E0,0E0,0E0,2.1937808E-1,1.3169432E-1,1.6963561E-1,0E0,0E0,0E0,0E0,0E0],"parents":[2147483647,0,0,1,1,2,2,4,4,6,6,7,7,11,11,12,12,13,13],"right_children":[2,4,6,-1,8,-1,10,12,-1,-1,-1,14,16,18,-1,-1,-1,-1,-1],"split_conditions":[1.176095E2,-9.700012E-1,1.191965E2,-8.947437E-2,1.16202E2,9.686679E-2,1.20043E2,6.0431908E1,-5.284827E-2,-3.635625E-2,1.4747764E-3,-7.99942E-2,4.4999695E-1,-5.799942E-1,1.4314586E-1,-6.834619E-2,3.1532265E-2,6.903189E-2,-5.026543E-2],"split_indices":[0,3,0,0,0,0,0,1,0,0,0,3,3,3,0,0,0,0,0],"split_type":[0,0,0,0,0,0,0,0,0,0,0,0,0,0,0,0,0,0,0],"sum_hessian":[1.4979347E1,1.1216695E1,3.7626524E0,2.302825E0,8.91387E0,1.5845063E0,2.1781461E0,6.5558577E0,2.3580115E0,1.0542517E0,1.1238943E0,3.6645958E0,2.891262E0,2.3160188E0,1.348577E0,1.3141134E0,1.5771486E0,1.0642291E0,1.2517897E0],"tree_param":{"num_deleted":"0","num_feature":"4","num_nodes":"19","size_leaf_vector":"1"}},{"base_weights":[2.3522894E-3,-5.5520236E-2,8.697786E-2,2.4502235E-2,-1.0414157E-1,2.587936E-1,-1.0553149E-1,-3.9008588E-2,6.842677E-2,1.0435954E-1,1.2602315E-3,-9.468101E-2,2.3990195E-2,9.7953536E-2,-1.7501299E-1,-4.1025154E-2,2.2218186E-1,7.014685E-3,-9.343334E-2,1.1140332E-1,-4.5297043E-3],"categories":[],"categories_nodes":[],"categories_segments":[],"categories_sizes":[],"default_left":[0,0,0,0,0,0,0,0,0,0,0,0,0,0,0,0,0,0,0,0,0],"id":36,"left_children":[1,3,5,7,-1,9,11,13,-1,-1,-1,-1,-1,15,17,-1,19,-1,-1,-1,-1],"loss_changes":[8.160071E-2,2.3999271E-1,2.5077218E-1,1.2161924E-1,0E0,8.606085E-2,1.7707518E-1,1.5682806E-1,0E0,0E0,0E0,0E0,0E0,1.5801583E-1,1.188388E-1,0E0,1.20401025E-1,0E0,0E0,0E0,0E0],"parents":[2147483647,0,0,1,1,2,2,3,3,5,5,6,6,7,7,13,13,14,14,16,16],"right_children":[2,4,6,8,-1,10,12,14,-1,-1,-1,-1,-1,16,18,-1,20,-1,-1,-1,-1],"split_conditions":[6.154854E-1,5.237396E-1,8.187431E-1,4.4989657E-1,-1.0414157E-1,6.0236717E1,6.3214912E1,2.4093096E-1,6.842677E-2,1.0435954E-1,1.2602315E-3,-9.468101E-2,2.3990195E-2,-3.269942E-3,1.163295E2,-4.1025154E-2,-1.0299988E0,7.014685E-3,-9.343334E-2,1.1140332E-1,-4.5297043E-3],"split_indices":[2,2,2,2,0,1,1,2,0,0,0,0,0,2,0,0,3,0,0,0,0],"split_type":[0,0,0,0,0,0,0,0,0,0,0,0,0,0,0,0,0,0,0,0,0],"sum_hessian":[1.46757E1,8.919732E0,5.7559676E0,7.717865E0,1.2018673E0,2.8595161E0,2.8964517E0,6.498875E0,1.2189898E0,1.8469765E0,1.0125395E0,1.0293579E0,1.8670939E0,3.3774343E0,3.121441E0,1.1340599E0,2.2433743E0,1.6095247E0,1.511916E0,1.0305424E0,1.212832E0],"tree_param":{"num_deleted":"0","num_feature":"4","num_nodes":"21","size_leaf_vector":"1"}},{"base_weights":[1.8343504E-4,-9.712039E-2,6.1035205E-2,-2.1555504E-1,3.4462795E-2,1.1211702E-1,-5.315323E-2,2.8424535E-3,-9.486096E-2,2.3775937E-2,1.0052573E-1,2.0432515E-1,-1.07460566E-1,1.0905559E-1,-9.560497E-3,-8.1249475E-2,6.189945E-2,7.4292056E-2,-5.0269485E-2],"categories":[],"categories_nodes":[],"categories_segments":[],"categories_sizes":[],"default_left":[0,0,0,0,0,0,0,0,0,0,0,0,0,0,0,0,0,0,0],"id":37,"left_children":[1,3,5,7,-1,9,-1,-1,-1,11,-1,13,15,-1,-1,-1,17,-1,-1],"loss_changes":[9.762488E-2,1.8405741E-1,1.4327583E-1,1.030612E-1,0E0,1.685924E-1,0E0,0E0,0E0,1.995809E-1,0E0,1.4318737E-1,1.5500587E-1,0E0,0E0,0E0,1.8074562E-1,0E0,0E0],"parents":[2147483647,0,0,1,1,2,2,3,3,5,5,9,9,11,11,12,12,16,16],"right_children":[2,4,6,8,-1,10,-1,-1,-1,12,-1,14,16,-1,-1,-1,18,-1,-1],"split_conditions":[-6.100006E-1,1.176095E2,6.535637E1,-1.5999985E0,3.4462795E-2,6.150026E1,-5.315323E-2,2.8424535E-3,-9.486096E-2,4.3482587E-1,1.0052573E-1,-2.9000092E-1,6.154854E-1,1.0905559E-1,-9.560497E-3,-8.1249475E-2,3.7000275E-1,7.4292056E-2,-5.0269485E-2],"split_indices":[3,0,1,3,0,1,0,0,0,2,0,3,2,0,0,0,3,0,0],"split_type":[0,0,0,0,0,0,0,0,0,0,0,0,0,0,0,0,0,0,0],"sum_hessian":[1.4486474E1,5.344477E0,9.141996E0,3.4181147E0,1.9263626E0,7.9636326E0,1.1783642E0,1.3362899E0,2.0818248E0,6.496376E0,1.4672563E0,2.5000281E0,3.9963481E0,1.1714225E0,1.3286057E0,1.7291745E0,2.2671735E0,1.209185E0,1.0579885E0],"tree_param":{"num_deleted":"0","num_feature":"4","num_nodes":"19","size_leaf_vector":"1"}},{"base_weights":[2.2707146E-3,-4.5056418E-2,1.12998016E-1,-1.9134535E-1,4.4136494E-2,8.0885835E-2,-4.1710842E-2,-3.442246E-2,-1.1143401E-1,8.706503E-2,-4.1336685E-2,-9.212564E-2,6.723573E-2,5.149697E-2,-6.485244E-2,8.210227E-2,-7.655722E-2,-9.514702E-2,9.9696696E-2,-7.246825E-2,2.3246657E-2],"categories":[],"categories_nodes":[],"categories_segments":[],"categories_sizes":[],"default_left":[0,0,0,0,0,0,0,0,0,0,0,0,0,0,0,0,0,0,0,0,0],"id":38,"left_children":[1,3,5,7,9,-1,11,13,-1,-1,15,-1,-1,-1,-1,17,-1,19,-1,-1,-1],"loss_changes":[8.5265E-2,1.576219E-1,1.2915708E-1,1.14897996E-1,1.7847691E-1,0E0,3.0261245E-1,1.688168E-1,0E0,0E0,1.9913612E-1,0E0,0E0,0E0,0E0,2.54984E-1,0E0,1.1288245E-1,0E0,0E0,0E0],"parents":[2147483647,0,0,1,1,2,2,3,3,4,4,6,6,7,7,10,10,15,15,17,17],"right_children":[2,4,6,8,10,-1,12,14,-1,-1,16,-1,-1,-1,-1,18,-1,20,-1,-1,-1],"split_conditions":[4.4999695E-1,1.139495E2,1.158985E2,1.126355E2,1.155745E2,8.0885835E-2,1.16408E2,3.3430234E-1,-1.1143401E-1,8.706503E-2,4.937773E-1,-9.212564E-2,6.723573E-2,5.149697E-2,-6.485244E-2,3.4668195E-1,-7.655722E-2,1.166625E2,9.9696696E-2,-7.246825E-2,2.3246657E-2],"split_indices":[3,0,0,0,0,0,0,2,0,0,2,0,0,0,0,2,0,0,0,0,0],"split_type":[0,0,0,0,0,0,0,0,0,0,0,0,0,0,0,0,0,0,0,0,0],"sum_hessian":[1.4299145E1,1.0432966E1,3.8661783E0,3.5178688E0,6.9150977E0,1.5521183E0,2.31406E0,2.5164266E0,1.0014422E0,1.165157E0,5.7499404E0,1.0803577E0,1.2337024E0,1.2053233E0,1.3111033E0,4.036253E0,1.7136879E0,2.7253985E0,1.3108542E0,1.258665E0,1.4667337E0],"tree_param":{"num_deleted":"0","num_feature":"4","num_nodes":"21","size_leaf_vector":"1"}},{"base_weights":[9.762712E-4,5.5657785E-2,-2.5720939E-2,4.0161274E-2,-9.1529556E-2,-9.509901E-2,1.4324272E-1,4.067393E-2,-1.8688896E-1,3.326845E-1,-1.3867631E-2,-5.3230997E-2,-9.947219E-2,1.3341317E-1,1.9941876E-2,-1.9823508E-1,7.6123886E-2,-6.419534E-2,3.3781003E-2,-9.020639E-2,-3.773759E-3],"categories":[],"categories_nodes":[],"categories_segments":[],"categories_sizes":[],"default_left":[0,0,0,0,0,0,0,0,0,0,0,0,0,0,0,0,0,0,0,0,0],"id":39,"left_children":[1,-1,3,5,-1,7,9,-1,11,13,15,17,-1,-1,-1,19,-1,-1,-1,-1,-1],"loss_changes":[7.877972E-2,0E0,2.699537E-1,1.8390496E-1,0E0,1.4990538E-1,2.227756E-1,0E0,7.186453E-2,7.0733786E-2,2.953627E-1,1.1999564E-1,0E0,0E0,0E0,6.283362E-2,0E0,0E0,0E0,0E0,0E0],"parents":[2147483647,0,0,2,2,3,3,5,5,6,6,8,8,9,9,10,10,11,11,15,15],"right_children":[2,-1,4,6,-1,8,10,-1,12,14,16,18,-1,-1,-1,20,-1,-1,-1,-1,-1],"split_conditions":[3.3077263E1,5.5657785E-2,1.191965E2,1.14999E2,-9.1529556E-2,1.1021E2,1.16202E2,4.067393E-2,8.185508E-1,5.178636E-1,1.176095E2,-5.1999664E-1,-9.947219E-2,1.3341317E-1,1.9941876E-2,2.2999573E-1,7.6123886E-2,-6.419534E-2,3.3781003E-2,-9.020639E-2,-3.773759E-3],"split_indices":[1,0,0,0,0,0,0,0,2,2,0,3,0,0,0,3,0,0,0,0,0],"split_type":[0,0,0,0,0,0,0,0,0,0,0,0,0,0,0,0,0,0,0,0,0],"sum_hessian":[1.40209875E1,1.0200981E0,1.300089E1,1.1212929E1,1.7879612E0,4.883019E0,6.3299093E0,1.2541442E0,3.6288748E0,2.36305E0,3.966859E0,2.5973701E0,1.0315048E0,1.1912416E0,1.1718085E0,2.5022395E0,1.4646198E0,1.1714554E0,1.4259148E0,1.2131647E0,1.2890748E0],"tree_param":{"num_deleted":"0","num_feature":"4","num_nodes":"21","size_leaf_vector":"1"}},{"base_weights":[1.3297312E-3,-5.2205075E-2,1.0195244E-1,1.9357358E-3,-6.931514E-2,2.1937579E-1,-4.527661E-2,-8.881967E-2,1.4730069E-1,9.259729E-3,9.179702E-2,-6.4448655E-2,4.1464064E-2,-1.8593873E-1,2.5201822E-2,6.3164294E-2,5.27118E-3,-7.91281E-2,3.3117656E-3],"categories":[],"categories_nodes":[],"categories_segments":[],"categories_sizes":[],"default_left":[0,0,0,0,0,0,0,0,0,0,0,0,0,0,0,0,0,0,0],"id":40,"left_children":[1,3,5,7,-1,9,11,13,15,-1,-1,-1,-1,17,-1,-1,-1,-1,-1],"loss_changes":[8.482694E-2,1.0013205E-1,1.04396395E-1,1.3042344E-1,0E0,4.2980403E-2,1.3090543E-1,1.1799904E-1,2.7437061E-2,0E0,0E0,0E0,0E0,6.7543864E-2,0E0,0E0,0E0,0E0,0E0],"parents":[2147483647,0,0,1,1,2,2,3,3,5,5,6,6,7,7,8,8,13,13],"right_children":[2,4,6,8,-1,10,12,14,16,-1,-1,-1,-1,18,-1,-1,-1,-1,-1],"split_conditions":[2.2999573E-1,-1.6999817E-1,9.300003E-1,-6.100006E-1,-6.931514E-2,5.1999664E-1,1.3799973E0,1.176095E2,4.57258E-1,9.259729E-3,9.179702E-2,-6.4448655E-2,4.1464064E-2,-9.700012E-1,2.5201822E-2,6.3164294E-2,5.27118E-3,-7.91281E-2,3.3117656E-3],"split_indices":[3,3,3,3,0,3,3,0,2,0,0,0,0,3,0,0,0,0,0],"split_type":[0,0,0,0,0,0,0,0,0,0,0,0,0,0,0,0,0,0,0],"sum_hessian":[1.3759086E1,9.295E0,4.4640856E0,7.894363E0,1.4006374E0,2.2108107E0,2.2532752E0,5.099556E0,2.7948067E0,1.1230116E0,1.0877992E0,1.0823491E0,1.170926E0,3.2162929E0,1.8832631E0,1.4600339E0,1.334773E0,2.0624356E0,1.1538571E0],"tree_param":{"num_deleted":"0","num_feature":"4","num_nodes":"19","size_leaf_vector":"1"}},{"base_weights":[2.6671055E-3,-2.7236987E-2,4.6051703E-2,-9.763325E-2,1.1445461E-1,7.024129E-2,-1.6210756E-1,1.2531531E-1,-9.661375E-2,7.512232E-2,-3.7981205E-2,-9.3487E-2,-4.2824402E-2,-7.796757E-2,3.1010663E-2,8.0557935E-2,-2.2188742E-1,1.6189653E-2,-1.0477981E-1],"categories":[],"categories_nodes":[],"categories_segments":[],"categories_sizes":[],"default_left":[0,0,0,0,0,0,0,0,0,0,0,0,0,0,0,0,0,0,0],"id":41,"left_children":[1,3,-1,5,7,9,11,-1,13,-1,-1,-1,15,-1,-1,-1,17,-1,-1],"loss_changes":[6.9922626E-2,1.4096889E-1,0E0,1.11321636E-1,3.462874E-1,1.4730999E-1,1.1102173E-1,0E0,1.4540267E-1,0E0,0E0,0E0,3.4046513E-1,0E0,0E0,0E0,1.5047862E-1,0E0,0E0],"parents":[2147483647,0,0,1,1,3,3,4,4,5,5,6,6,8,8,12,12,16,16],"right_children":[2,4,-1,6,8,10,12,-1,14,-1,-1,-1,16,-1,-1,-1,18,-1,-1],"split_conditions":[1.198855E2,7.173732E-1,4.6051703E-2,1.13156E2,8.187431E-1,3.1047738E-1,1.16041504E2,1.2531531E-1,9.3202007E-1,7.512232E-2,-3.7981205E-2,-9.3487E-2,1.163295E2,-7.796757E-2,3.1010663E-2,8.0557935E-2,-8.4000397E-1,1.6189653E-2,-1.0477981E-1],"split_indices":[0,2,0,0,2,2,0,0,2,0,0,0,0,0,0,0,3,0,0],"split_type":[0,0,0,0,0,0,0,0,0,0,0,0,0,0,0,0,0,0,0],"sum_hessian":[1.3574619E1,1.2012536E1,1.5620834E0,8.2330675E0,3.779468E0,2.2597673E0,5.9733005E0,1.1492138E0,2.6302543E0,1.0377984E0,1.221969E0,1.9351786E0,4.0381217E0,1.2830888E0,1.3471653E0,1.2920004E0,2.7461214E0,1.0495462E0,1.6965752E0],"tree_param":{"num_deleted":"0","num_feature":"4","num_nodes":"19","size_leaf_vector":"1"}},{"base_weights":[6.0789348E-3,-4.5442663E-2,1.0271545E-1,4.19891E-2,-8.431772E-2,6.612615E-2,-4.0885583E-2,4.1118577E-2,-2.1565838E-1,-5.44572E-2,3.458641E-2,-1.4095765E-1,7.011465E-2,-1.0705312E-1,-2.8179064E-2,-8.486458E-2,2.2835884E-2,-1.763111E-2,4.8151305E-3],"categories":[],"categories_nodes":[],"categories_segments":[],"categories_sizes":[],"default_left":[0,0,0,0,0,0,0,0,0,0,0,0,0,0,0,0,0,0,0],"id":42,"left_children":[1,3,5,-1,7,-1,9,11,13,-1,-1,15,-1,-1,17,-1,-1,-1,-1],"loss_changes":[7.606448E-2,8.421385E-2,9.848414E-2,0E0,1.5597564E-1,0E0,9.18261E-2,2.2255798E-1,1.0964118E-1,0E0,0E0,1.2638265E-1,0E0,0E0,5.0406996E-3,0E0,0E0,0E0,0E0],"parents":[2147483647,0,0,1,1,2,2,4,4,6,6,7,7,8,8,11,11,14,14],"right_children":[2,4,6,-1,8,-1,10,12,14,-1,-1,16,-1,-1,18,-1,-1,-1,-1],"split_conditions":[2.2999573E-1,3.598147E1,6.0431908E1,4.19891E-2,1.16202E2,6.612615E-2,9.3202007E-1,1.139495E2,3.4668195E-1,-5.44572E-2,3.458641E-2,4.843669E1,7.011465E-2,-1.0705312E-1,1.18515E2,-8.486458E-2,2.2835884E-2,-1.763111E-2,4.8151305E-3],"split_indices":[3,1,1,0,0,0,2,0,2,0,0,1,0,0,0,0,0,0,0],"split_type":[0,0,0,0,0,0,0,0,0,0,0,0,0,0,0,0,0,0,0],"sum_hessian":[1.333997E1,9.046565E0,4.2934046E0,1.1173338E0,7.9292316E0,2.0654624E0,2.2279422E0,4.407142E0,3.5220892E0,1.0868677E0,1.1410745E0,2.4032714E0,2.003871E0,1.4937853E0,2.028304E0,1.2698859E0,1.1333855E0,1.0046673E0,1.0236368E0],"tree_param":{"num_deleted":"0","num_feature":"4","num_nodes":"19","size_leaf_vector":"1"}},{"base_weights":[2.4419865E-3,2.807914E-2,-4.8101872E-2,-1.0698482E-2,6.950928E-2,-6.2802725E-2,9.7400926E-2,2.7070379E-2,-7.810007E-2,8.949693E-2,-6.2078696E-2,-1.209273E-1,2.0875737E-1,-4.9512785E-2,2.1645276E-2,1.994279E-2,-6.156189E-2,6.908494E-3,9.580351E-2],"categories":[],"categories_nodes":[],"categories_segments":[],"categories_sizes":[],"default_left":[0,0,0,0,0,0,0,0,0,0,0,0,0,0,0,0,0,0,0],"id":43,"left_children":[1,3,-1,5,-1,7,9,11,-1,-1,13,15,17,-1,-1,-1,-1,-1,-1],"loss_changes":[6.357089E-2,1.05750114E-1,0E0,7.3383585E-2,0E0,1.6090068E-1,1.5554285E-1,2.0976442E-1,0E0,0E0,5.6296676E-2,8.337132E-2,6.3451126E-2,0E0,0E0,0E0,0E0,0E0,0E0],"parents":[2147483647,0,0,1,1,3,3,5,5,6,6,7,7,10,10,11,11,12,12],"right_children":[2,4,-1,6,-1,8,10,12,-1,-1,14,16,18,-1,-1,-1,-1,-1,-1],"split_conditions":[6.535637E1,6.240167E1,-4.8101872E-2,1.176095E2,6.950928E-2,1.162345E2,2.5028446E-1,-3.4999847E-1,-7.810007E-2,8.949693E-2,5.2305492E1,-1.5999985E0,1.136775E2,-4.9512785E-2,2.1645276E-2,1.994279E-2,-6.156189E-2,6.908494E-3,9.580351E-2],"split_indices":[1,1,0,0,0,0,2,3,0,0,1,3,0,0,0,0,0,0,0],"split_type":[0,0,0,0,0,0,0,0,0,0,0,0,0,0,0,0,0,0,0],"sum_hessian":[1.3154105E1,1.2079205E1,1.0749007E0,1.0942705E1,1.1364989E0,7.666471E0,3.2762344E0,5.8622193E0,1.8042519E0,1.064504E0,2.2117302E0,3.4149258E0,2.4472933E0,1.1217283E0,1.090002E0,1.1248785E0,2.2900474E0,1.364271E0,1.0830222E0],"tree_param":{"num_deleted":"0","num_feature":"4","num_nodes":"19","size_leaf_vector":"1"}},{"base_weights":[6.528534E-3,-4.58398E-2,4.001041E-2,8.806749E-2,-1.01717725E-1,-3.668534E-2,1.4670537E-1,-7.254495E-2,1.76641E-2,3.5443684E-1,6.1980626E-3,3.4595933E-2,1.285408E-1,-8.305974E-2,4.7785647E-2,-9.5787175E-2,3.1439736E-2],"categories":[],"categories_nodes":[],"categories_segments":[],"categories_sizes":[],"default_left":[0,0,0,0,0,0,0,0,0,0,0,0,0,0,0,0,0],"id":44,"left_children":[1,-1,3,5,7,-1,9,-1,-1,11,13,-1,-1,15,-1,-1,-1],"loss_changes":[8.065057E-2,0E0,9.299624E-2,1.3820392E-1,9.497526E-2,0E0,2.3361987E-1,0E0,0E0,7.980853E-3,9.299197E-2,0E0,0E0,2.2626689E-1,0E0,0E0,0E0],"parents":[2147483647,0,0,2,2,3,3,4,4,6,6,9,9,10,10,13,13],"right_children":[2,-1,4,6,8,-1,10,-1,-1,12,14,-1,-1,16,-1,-1,-1],"split_conditions":[-1.6500015E0,-4.58398E-2,8.187431E-1,1.118145E2,6.40051E1,-3.668534E-2,1.157035E2,-7.254495E-2,1.76641E-2,-8.0999756E-1,1.18982E2,3.4595933E-2,1.285408E-1,-5.699997E-1,4.7785647E-2,-9.5787175E-2,3.1439736E-2],"split_indices":[3,0,2,0,1,0,0,0,0,3,0,0,0,3,0,0,0],"split_type":[0,0,0,0,0,0,0,0,0,0,0,0,0,0,0,0,0],"sum_hessian":[1.2972378E1,1.6338495E0,1.1338529E1,8.750151E0,2.588378E0,1.6708577E0,7.079293E0,1.1123165E0,1.4760616E0,2.242033E0,4.83726E0,1.134715E0,1.1073182E0,3.3446143E0,1.4926455E0,1.1716478E0,2.1729665E0],"tree_param":{"num_deleted":"0","num_feature":"4","num_nodes":"17","size_leaf_vector":"1"}},{"base_weights":[5.484445E-3,5.0186787E-2,-2.1385169E-2,-1.4981769E-1,5.0383214E-2,2.6909737E-2,-9.253093E-2,-2.7958145E-2,9.0700224E-2,-6.2207073E-2,7.39859E-2,7.461192E-2,-1.0657495E-1,-5.3680822E-2,1.779607E-1,4.73301E-2,-7.259801E-2,7.903865E-2,-1.3418215E-3],"categories":[],"categories_nodes":[],"categories_segments":[],"categories_sizes":[],"default_left":[0,0,0,0,0,0,0,0,0,0,0,0,0,0,0,0,0,0,0],"id":45,"left_children":[1,-1,3,5,7,9,-1,11,-1,-1,-1,13,-1,15,17,-1,-1,-1,-1],"loss_changes":[6.345996E-2,0E0,1.24597214E-1,1.4296469E-1,1.8401946E-1,2.1543318E-1,0E0,2.850108E-1,0E0,0E0,0E0,9.824745E-2,0E0,1.8760857E-1,6.258312E-2,0E0,0E0,0E0,0E0],"parents":[2147483647,0,0,2,2,3,3,4,4,5,5,7,7,11,11,13,13,14,14],"right_children":[2,-1,4,6,8,10,-1,12,-1,-1,-1,14,-1,16,18,-1,-1,-1,-1],"split_conditions":[1.098545E2,5.0186787E-2,1.14999E2,1.133725E2,1.0699997E0,1.121495E2,-9.253093E-2,7.195771E-1,9.0700224E-2,-6.2207073E-2,7.39859E-2,3.4668195E-1,-1.0657495E-1,1.905929E-1,5.2296547E1,4.73301E-2,-7.259801E-2,7.903865E-2,-1.3418215E-3],"split_indices":[0,0,0,0,3,0,0,2,0,0,0,2,0,2,1,0,0,0,0],"split_type":[0,0,0,0,0,0,0,0,0,0,0,0,0,0,0,0,0,0,0],"sum_hessian":[1.2773573E1,1.0748743E0,1.1698699E1,3.803916E0,7.894783E0,2.1920078E0,1.6119082E0,6.7004004E0,1.1943827E0,1.0880713E0,1.1039364E0,5.689422E0,1.0109779E0,2.7528E0,2.9366221E0,1.3731533E0,1.3796467E0,1.697089E0,1.2395333E0],"tree_param":{"num_deleted":"0","num_feature":"4","num_nodes":"19","size_leaf_vector":"1"}},{"base_weights":[4.156487E-3,-1.2837218E-1,3.985849E-2,2.8767599E-2,-8.956429E-2,9.196989E-2,-5.770577E-2,2.3601522E-1,5.470318E-3,1.0114219E-2,1.0572862E-1,-1.4411157E-1,1.4306037E-1,-6.863645E-2,-1.7082222E-3,7.018909E-2,4.944372E-3],"categories":[],"categories_nodes":[],"categories_segments":[],"categories_sizes":[],"default_left":[0,0,0,0,0,0,0,0,0,0,0,0,0,0,0,0,0],"id":46,"left_children":[1,3,5,-1,-1,7,-1,9,11,-1,-1,13,15,-1,-1,-1,-1],"loss_changes":[6.917476E-2,1.4732221E-1,1.5598443E-1,0E0,0E0,1.2343628E-1,0E0,7.601163E-2,1.7040963E-1,0E0,0E0,4.5408055E-2,4.5540094E-2,0E0,0E0,0E0,0E0],"parents":[2147483647,0,0,1,1,2,2,5,5,7,7,8,8,11,11,12,12],"right_children":[2,4,6,-1,-1,8,-1,10,12,-1,-1,14,16,-1,-1,-1,-1],"split_conditions":[3.948252E1,3.598147E1,1.191965E2,2.8767599E-2,-8.956429E-2,4.2441294E-1,-5.770577E-2,4.455489E1,7.173732E-1,1.0114219E-2,1.0572862E-1,-3.8000488E-1,8.42291E-1,-6.863645E-2,-1.7082222E-3,7.018909E-2,4.944372E-3],"split_indices":[1,1,0,0,0,2,0,1,2,0,0,3,2,0,0,0,0],"split_type":[0,0,0,0,0,0,0,0,0,0,0,0,0,0,0,0,0],"sum_hessian":[1.2538521E1,2.1100798E0,1.0428441E1,1.0986909E0,1.0113889E0,9.010335E0,1.4181066E0,2.732112E0,6.2782226E0,1.46897E0,1.263142E0,2.9853177E0,3.2929049E0,1.4471455E0,1.5381721E0,1.4227756E0,1.8701293E0],"tree_param":{"num_deleted":"0","num_feature":"4","num_nodes":"17","size_leaf_vector":"1"}},{"base_weights":[3.1432454E-3,-4.07582E-2,3.329556E-2,5.377824E-2,-1.5973484E-2,6.558003E-2,-6.3772924E-2,-4.1259415E-2,1.2898476E-1,1.9026698E-1,-2.7263192E-2,7.464147E-2,1.4180879E-2],"categories":[],"categories_nodes":[],"categories_segments":[],"categories_sizes":[],"default_left":[0,0,0,0,0,0,0,0,0,0,0,0,0],"id":47,"left_children":[1,-1,3,-1,5,7,-1,-1,9,11,-1,-1,-1],"loss_changes":[6.0571495E-2,0E0,8.766627E-2,0E0,1.7001818E-1,1.16187654E-1,0E0,0E0,1.0273977E-1,3.2460123E-2,0E0,0E0,0E0],"parents":[2147483647,0,0,2,2,4,4,5,5,8,8,9,9],"right_children":[2,-1,4,-1,6,8,-1,-1,10,12,-1,-1,-1],"split_conditions":[-1.6500015E0,-4.07582E-2,-8.600006E-1,5.377824E-2,1.16542E2,4.447468E1,-6.3772924E-2,-4.1259415E-2,1.1500015E0,6.0809185E1,-2.7263192E-2,7.464147E-2,1.4180879E-2],"split_indices":[3,0,3,0,0,1,0,0,3,1,0,0,0],"split_type":[0,0,0,0,0,0,0,0,0,0,0,0,0],"sum_hessian":[1.237248E1,1.5804951E0,1.07919855E1,2.057626E0,8.73436E0,6.644547E0,2.0898128E0,1.3026192E0,5.341928E0,4.2827916E0,1.0591362E0,2.5138052E0,1.7689865E0],"tree_param":{"num_deleted":"0","num_feature":"4","num_nodes":"13","size_leaf_vector":"1"}},{"base_weights":[-4.9815208E-5,-5.1452E-2,9.519956E-2,1.3735132E-2,-8.294289E-2,7.5000554E-2,-1.7770771E-2,-7.003234E-2,6.2136106E-2,-7.057378E-2,4.495169E-2,-1.6766256E-1,7.030486E-2,8.997422E-3,-7.278708E-2,6.539504E-2,-2.5827443E-2],"categories":[],"categories_nodes":[],"categories_segments":[],"categories_sizes":[],"default_left":[0,0,0,0,0,0,0,0,0,0,0,0,0,0,0,0,0],"id":48,"left_children":[1,3,5,7,-1,-1,9,11,-1,-1,-1,13,15,-1,-1,-1,-1],"loss_changes":[6.990517E-2,1.3981746E-1,9.19649E-2,1.4641078E-1,0E0,0E0,1.7474297E-1,9.987073E-2,0E0,0E0,0E0,6.782758E-2,9.5957525E-2,0E0,0E0,0E0,0E0],"parents":[2147483647,0,0,1,1,2,2,3,3,6,6,7,7,11,11,12,12],"right_children":[2,4,6,8,-1,-1,10,12,-1,-1,-1,14,16,-1,-1,-1,-1],"split_conditions":[1.16408E2,1.162345E2,4.533085E1,4.4999695E-1,-8.294289E-2,7.5000554E-2,5.1245613E1,1.139495E2,6.2136106E-2,-7.057378E-2,4.495169E-2,2.4093096E-1,1.15639E2,8.997422E-3,-7.278708E-2,6.539504E-2,-2.5827443E-2],"split_indices":[0,0,1,3,0,0,1,0,0,0,0,2,0,0,0,0,0],"split_type":[0,0,0,0,0,0,0,0,0,0,0,0,0,0,0,0,0],"sum_hessian":[1.22774935E1,8.272814E0,4.00468E0,7.142631E0,1.1301823E0,1.177785E0,2.826895E0,5.4288926E0,1.7137388E0,1.0547777E0,1.7721174E0,3.0867682E0,2.3421242E0,1.0137262E0,2.073042E0,1.0020969E0,1.3400273E0],"tree_param":{"num_deleted":"0","num_feature":"4","num_nodes":"17","size_leaf_vector":"1"}},{"base_weights":[1.9558887E-4,-4.329645E-2,3.0385548E-2,7.941383E-2,-2.7514648E-2,-7.535559E-2,4.3060444E-2,6.807658E-2,-4.2428304E-2,-7.903155E-2,4.1906036E-2,6.772153E-2,-2.2946404E-2],"categories":[],"categories_nodes":[],"categories_segments":[],"categories_sizes":[],"default_left":[0,0,0,0,0,0,0,0,0,0,0,0,0],"id":49,"left_children":[1,-1,3,-1,5,-1,7,-1,9,-1,11,-1,-1],"loss_changes":[6.1588645E-2,0E0,1.6563834E-1,0E0,1.7285301E-1,0E0,1.4569137E-1,0E0,1.3687906E-1,0E0,1.4240286E-1,0E0,0E0],"parents":[2147483647,0,0,2,2,4,4,6,6,8,8,10,10],"right_children":[2,-1,4,-1,6,-1,8,-1,10,-1,12,-1,-1],"split_conditions":[8.00013E-2,-4.329645E-2,2.4093096E-1,7.941383E-2,4.579743E1,-7.535559E-2,5.237396E-1,6.807658E-2,6.154854E-1,-7.903155E-2,7.2621894E-1,6.772153E-2,-2.2946404E-2],"split_indices":[2,0,2,0,1,0,2,0,2,0,2,0,0],"split_type":[0,0,0,0,0,0,0,0,0,0,0,0,0],"sum_hessian":[1.2111122E1,1.4395688E0,1.0671554E1,1.406687E0,9.264867E0,1.6083788E0,7.656488E0,1.9049933E0,5.751495E0,1.0019644E0,4.7495303E0,1.5054002E0,3.2441301E0],"tree_param":{"num_deleted":"0","num_feature":"4","num_nodes":"13","size_leaf_vector":"1"}},{"base_weights":[-3.0717553E-4,-7.3509105E-2,4.8395034E-2,7.522088E-2,-8.578843E-2,-2.2847386E-2,8.1118695E-2,-3.6280364E-2,1.7853034E-1,7.6691054E-2,-8.6287804E-2,6.367505E-2,1.6892226E-2,-4.6807062E-2,1.7845652E-1,3.6502853E-2,-6.73564E-2,7.352087E-2,6.7189876E-3],"categories":[],"categories_nodes":[],"categories_segments":[],"categories_sizes":[],"default_left":[0,0,0,0,0,0,0,0,0,0,0,0,0,0,0,0,0,0,0],"id":50,"left_children":[1,3,5,7,-1,9,-1,-1,11,13,-1,-1,-1,15,17,-1,-1,-1,-1],"loss_changes":[4.980204E-2,1.9780387E-1,1.3890803E-1,1.0413943E-1,0E0,2.1380743E-1,0E0,0E0,7.098168E-4,8.472966E-2,0E0,0E0,0E0,1.3324231E-1,3.130672E-2,0E0,0E0,0E0,0E0],"parents":[2147483647,0,0,1,1,2,2,3,3,5,5,8,8,9,9,13,13,14,14],"right_children":[2,4,6,8,-1,10,-1,-1,12,14,-1,-1,-1,16,18,-1,-1,-1,-1],"split_conditions":[1.14999E2,1.133725E2,1.0699997E0,-9.700012E-1,-8.578843E-2,6.6223E-1,8.1118695E-2,-3.6280364E-2,6.28217E-1,3.4668195E-1,-8.6287804E-2,6.367505E-2,1.6892226E-2,4.2316097E1,4.937773E-1,3.6502853E-2,-6.73564E-2,7.352087E-2,6.7189876E-3],"split_indices":[0,0,3,3,0,2,0,0,2,2,0,0,0,1,2,0,0,0,0],"split_type":[0,0,0,0,0,0,0,0,0,0,0,0,0,0,0,0,0,0,0],"sum_hessian":[1.1971479E1,4.579259E0,7.3922205E0,3.0735328E0,1.5057262E0,6.2754455E0,1.1167749E0,1.0014526E0,2.0720801E0,5.0771475E0,1.1982982E0,1.0467201E0,1.02536E0,2.5376346E0,2.5395126E0,1.4645165E0,1.073118E0,1.3800797E0,1.1594329E0],"tree_param":{"num_deleted":"0","num_feature":"4","num_nodes":"19","size_leaf_vector":"1"}},{"base_weights":[-1.3478167E-4,-3.4409568E-2,3.179403E-2,7.655336E-2,-1.8529175E-2,1.2943016E-1,-8.94638E-2,-2.2389202E-3,6.636538E-2,-1.3995016E-1,2.711842E-2,-2.2306035E-1,2.8291231E-2,7.6839887E-3,-1.1810282E-1],"categories":[],"categories_nodes":[],"categories_segments":[],"categories_sizes":[],"default_left":[0,0,0,0,0,0,0,0,0,0,0,0,0,0,0],"id":51,"left_children":[1,-1,3,-1,5,7,9,-1,-1,11,-1,13,-1,-1,-1],"loss_changes":[5.0438743E-2,0E0,1.2598862E-1,0E0,1.13762826E-1,4.6429895E-2,7.777763E-2,0E0,0E0,1.3770658E-1,0E0,2.103625E-1,0E0,0E0,0E0],"parents":[2147483647,0,0,2,2,4,4,5,5,6,6,9,9,11,11],"right_children":[2,-1,4,-1,6,8,10,-1,-1,12,-1,14,-1,-1,-1],"split_conditions":[3.948252E1,-3.4409568E-2,1.11345E2,7.655336E-2,4.770113E1,3.079335E-1,9.3202007E-1,-2.2389202E-3,6.636538E-2,1.18982E2,2.711842E-2,1.157035E2,2.8291231E-2,7.6839887E-3,-1.1810282E-1],"split_indices":[1,0,0,0,1,2,2,0,0,0,0,0,0,0,0],"split_type":[0,0,0,0,0,0,0,0,0,0,0,0,0,0,0],"sum_hessian":[1.1792093E1,2.0051377E0,9.786956E0,1.0509644E0,8.7359915E0,2.563747E0,6.172244E0,1.3977783E0,1.1659687E0,4.9926834E0,1.1795608E0,3.72049E0,1.2721934E0,1.8597572E0,1.8607329E0],"tree_param":{"num_deleted":"0","num_feature":"4","num_nodes":"15","size_leaf_vector":"1"}},{"base_weights":[3.6544746E-3,-7.5817876E-2,5.674876E-2,4.9210783E-2,-7.437806E-2,-2.7859218E-3,7.054346E-2,-2.6698267E-2,4.7603656E-2,7.617538E-2,-6.651001E-2,-6.464348E-3,5.9383217E-2,1.1027451E-1,-5.471063E-2,-2.5019644E-2,8.338749E-2],"categories":[],"categories_nodes":[],"categories_segments":[],"categories_sizes":[],"default_left":[0,0,0,0,0,0,0,0,0,0,0,0,0,0,0,0,0],"id":52,"left_children":[1,3,5,7,-1,9,-1,-1,-1,11,-1,13,-1,15,-1,-1,-1],"loss_changes":[5.7715777E-2,1.3050893E-1,8.732692E-2,7.492405E-2,0E0,1.3973725E-1,0E0,0E0,0E0,6.1328195E-2,0E0,1.1299353E-1,0E0,1.3171594E-1,0E0,0E0,0E0],"parents":[2147483647,0,0,1,1,2,2,3,3,5,5,9,9,11,11,13,13],"right_children":[2,4,6,8,-1,10,-1,-1,-1,12,-1,14,-1,16,-1,-1,-1],"split_conditions":[1.14999E2,1.133725E2,1.0699997E0,-3.4999847E-1,-7.437806E-2,6.6223E-1,7.054346E-2,-2.6698267E-2,4.7603656E-2,4.749787E-1,-6.651001E-2,1.18478E2,5.9383217E-2,-5.699997E-1,-5.471063E-2,-2.5019644E-2,8.338749E-2],"split_indices":[0,0,3,3,0,2,0,0,0,2,0,0,0,3,0,0,0],"split_type":[0,0,0,0,0,0,0,0,0,0,0,0,0,0,0,0,0],"sum_hessian":[1.1658574E1,4.497965E0,7.1606092E0,3.018932E0,1.4790329E0,6.106965E0,1.0536443E0,1.4169909E0,1.6019412E0,4.96731E0,1.139655E0,3.5231774E0,1.4441326E0,2.3420062E0,1.1811713E0,1.3200277E0,1.0219786E0],"tree_param":{"num_deleted":"0","num_feature":"4","num_nodes":"17","size_leaf_vector":"1"}},{"base_weights":[3.7091118E-3,-3.4526866E-2,9.444882E-2,-1.1786405E-1,1.1208594E-1,7.55111E-2,-1.933112E-2,1.73107E-2,-2.0521483E-1,-1.8434428E-2,6.1054848E-2,-9.139184E-2,-6.5073214E-2,2.6442679E-2,-5.79401E-2],"categories":[],"categories_nodes":[],"categories_segments":[],"categories_sizes":[],"default_left":[0,0,0,0,0,0,0,0,0,0,0,0,0,0,0],"id":53,"left_children":[1,3,5,7,9,-1,-1,-1,11,-1,-1,-1,13,-1,-1],"loss_changes":[4.6617422E-2,1.2957805E-1,1.1547065E-1,1.1244162E-1,7.540269E-2,0E0,0E0,0E0,4.426849E-2,0E0,0E0,0E0,7.94305E-2,0E0,0E0],"parents":[2147483647,0,0,1,1,2,2,3,3,4,4,8,8,12,12],"right_children":[2,4,6,8,10,-1,-1,-1,12,-1,-1,-1,14,-1,-1],"split_conditions":[1.176095E2,7.173732E-1,1.191965E2,1.13156E2,1.136775E2,7.55111E-2,-1.933112E-2,1.73107E-2,2.805581E-1,-1.8434428E-2,6.1054848E-2,-9.139184E-2,4.9153637E1,2.6442679E-2,-5.79401E-2],"split_indices":[0,2,0,0,0,0,0,0,2,0,0,0,1,0,0],"split_type":[0,0,0,0,0,0,0,0,0,0,0,0,0,0,0],"sum_hessian":[1.1496364E1,8.524006E0,2.9723575E0,5.5598054E0,2.9642005E0,1.20025E0,1.7721074E0,1.9599396E0,3.5998657E0,1.1360009E0,1.8281996E0,1.4192029E0,2.1806626E0,1.134739E0,1.0459236E0],"tree_param":{"num_deleted":"0","num_feature":"4","num_nodes":"15","size_leaf_vector":"1"}},{"base_weights":[1.998078E-3,1.2026093E-1,-4.329995E-2,-1.748556E-2,7.5013906E-2,-7.9370454E-2,2.902177E-2,1.6042824E-1,-6.6731505E-2,-1.18616605E-2,8.9957245E-2,-1.3771708E-1,2.2025133E-2,7.1747373E-3,-6.8594046E-2],"categories":[],"categories_nodes":[],"categories_segments":[],"categories_sizes":[],"default_left":[0,0,0,0,0,0,0,0,0,0,0,0,0,0,0],"id":54,"left_children":[1,3,5,-1,-1,-1,7,9,11,-1,-1,13,-1,-1,-1],"loss_changes":[7.159779E-2,1.00242876E-1,1.6283968E-1,0E0,0E0,0E0,1.13992825E-1,1.1652066E-1,6.4377934E-2,0E0,0E0,6.379511E-2,0E0,0E0,0E0],"parents":[2147483647,0,0,1,1,2,2,6,6,7,7,8,8,11,11],"right_children":[2,4,6,-1,-1,-1,8,10,12,-1,-1,14,-1,-1,-1],"split_conditions":[2.4093096E-1,8.00013E-2,4.579743E1,-1.748556E-2,7.5013906E-2,-7.9370454E-2,5.4678043E1,-5E-1,6.413015E1,-1.18616605E-2,8.9957245E-2,1.9996643E-2,2.2025133E-2,7.1747373E-3,-6.8594046E-2],"split_indices":[2,2,1,0,0,0,1,3,1,0,0,3,0,0,0],"split_type":[0,0,0,0,0,0,0,0,0,0,0,0,0,0,0],"sum_hessian":[1.1393052E1,2.696977E0,8.696075E0,1.3671273E0,1.3298496E0,1.4873421E0,7.208733E0,2.7539425E0,4.454791E0,1.4256794E0,1.3282629E0,2.968559E0,1.4862319E0,1.3341017E0,1.6344573E0],"tree_param":{"num_deleted":"0","num_feature":"4","num_nodes":"15","size_leaf_vector":"1"}},{"base_weights":[2.858386E-3,4.4122465E-2,-2.392311E-2,3.565641E-2,-7.645268E-2,-1.4769006E-2,6.618828E-2,5.0253745E-2,-5.1852793E-2,-6.966641E-2,6.743804E-2,3.19856E-2,-4.3708492E-2],"categories":[],"categories_nodes":[],"categories_segments":[],"categories_sizes":[],"default_left":[0,0,0,0,0,0,0,0,0,0,0,0,0],"id":55,"left_children":[1,-1,3,5,-1,7,-1,9,-1,11,-1,-1,-1],"loss_changes":[5.0899412E-2,0E0,1.6326253E-1,9.452699E-2,0E0,9.7350255E-2,0E0,1.5980804E-1,0E0,8.047736E-2,0E0,0E0,0E0],"parents":[2147483647,0,0,2,2,3,3,5,5,7,7,9,9],"right_children":[2,-1,4,6,-1,8,-1,10,-1,12,-1,-1,-1],"split_conditions":[3.598147E1,4.4122465E-2,1.191965E2,1.176095E2,-7.645268E-2,1.162345E2,6.618828E-2,1.14999E2,-5.1852793E-2,1.107755E2,6.743804E-2,3.19856E-2,-4.3708492E-2],"split_indices":[1,0,0,0,0,0,0,0,0,0,0,0,0],"split_type":[0,0,0,0,0,0,0,0,0,0,0,0,0],"sum_hessian":[1.1267435E1,1.0612135E0,1.0206222E1,8.785151E0,1.4210703E0,7.6262865E0,1.1588641E0,5.886849E0,1.7394376E0,3.8455575E0,2.0412915E0,1.0375266E0,2.8080308E0],"tree_param":{"num_deleted":"0","num_feature":"4","num_nodes":"13","size_leaf_vector":"1"}},{"base_weights":[5.0947056E-3,-2.855048E-2,4.7734845E-2,5.6727722E-2,-1.1148863E-1,-4.97801E-2,7.454599E-2,2.7127195E-2,-1.7631246E-1,-4.326816E-2,2.2660641E-2,-8.385964E-3,-1.056376E-1,-4.8098877E-2,5.297954E-2],"categories":[],"categories_nodes":[],"categories_segments":[],"categories_sizes":[],"default_left":[0,0,0,0,0,0,0,0,0,0,0,0,0,0,0],"id":56,"left_children":[1,3,-1,5,7,9,-1,-1,11,-1,-1,13,-1,-1,-1],"loss_changes":[6.752778E-2,8.2874894E-2,0E0,1.3489388E-1,9.21731E-2,6.6403374E-2,0E0,0E0,1.3721637E-1,0E0,0E0,1.2535991E-1,0E0,0E0,0E0],"parents":[2147483647,0,0,1,1,3,3,4,4,5,5,8,8,11,11],"right_children":[2,4,-1,6,8,10,-1,-1,12,-1,-1,14,-1,-1,-1],"split_conditions":[1.198855E2,1.157035E2,4.7734845E-2,1.139495E2,-1.0699997E0,-7.99942E-2,7.454599E-2,2.7127195E-2,1.16542E2,-4.326816E-2,2.2660641E-2,1.16314E2,-1.056376E-1,-4.8098877E-2,5.297954E-2],"split_indices":[0,0,0,0,3,3,0,0,0,0,0,0,0,0,0],"split_type":[0,0,0,0,0,0,0,0,0,0,0,0,0,0,0],"sum_hessian":[1.1154374E1,9.823184E0,1.3311905E0,4.9990807E0,4.824103E0,3.689976E0,1.3091048E0,1.0764059E0,3.7476969E0,2.0180855E0,1.6718905E0,2.4527075E0,1.2949893E0,1.4197915E0,1.0329162E0],"tree_param":{"num_deleted":"0","num_feature":"4","num_nodes":"15","size_leaf_vector":"1"}},{"base_weights":[5.7517746E-3,3.9575864E-2,-1.01219185E-1,-2.2325123E-2,1.7647605E-1,-6.881965E-2,2.2203142E-2,5.6369193E-2,-1.4989452E-1,6.6541106E-2,1.1821153E-2,7.31226E-2,-7.309573E-2,1.4745307E-2,-8.167031E-2,-9.2399634E-2,3.445261E-2],"categories":[],"categories_nodes":[],"categories_segments":[],"categories_sizes":[],"default_left":[0,0,0,0,0,0,0,0,0,0,0,0,0,0,0,0,0],"id":57,"left_children":[1,3,5,7,9,-1,-1,11,13,-1,-1,-1,15,-1,-1,-1,-1],"loss_changes":[4.7488403E-2,8.7407544E-2,8.813821E-2,8.545239E-2,1.1012778E-2,0E0,0E0,1.5052524E-1,9.1297515E-2,0E0,0E0,0E0,2.1216139E-1,0E0,0E0,0E0,0E0],